<?xml version="1.0"?>
<opencv_storage>
<output type_id="opencv-haar-classifier">
  <stageType>BOOST</stageType>
  <featureType>HAAR</featureType>
  <height>18</height>
  <width>38</width>
  <stageParams>
    <boostType>GAB</boostType>
    <minHitRate>8.1000000238418579e-01</minHitRate>
    <maxFalseAlarm>5.0000000000000000e-01</maxFalseAlarm>
    <weightTrimRate>9.4999999999999996e-01</weightTrimRate>
    <maxDepth>1</maxDepth>
    <maxWeakCount>100</maxWeakCount></stageParams>
  <featureParams>
    <maxCatCount>0</maxCatCount>
    <featSize>1</featSize>
    <mode>BASIC</mode></featureParams>
  <stageNum>9</stageNum>
  <stages>
    <!-- stage 0 -->
    <_>
      <maxWeakCount>1</maxWeakCount>
      <stageThreshold>9.3717277050018311e-01</stageThreshold>
      <weakClassifiers>
        <_>
          <internalNodes>
            0 -1 4 -1.4449033141136169e-01</internalNodes>
          <leafValues>
            9.3717277050018311e-01 -4.9152541160583496e-01</leafValues></_></weakClassifiers></_>
    <!-- stage 1 -->
    <_>
      <maxWeakCount>1</maxWeakCount>
      <stageThreshold>9.0909093618392944e-01</stageThreshold>
      <weakClassifiers>
        <_>
          <internalNodes>
            0 -1 2 -8.0236066132783890e-03</internalNodes>
          <leafValues>
            9.0909093618392944e-01 -5.7692307233810425e-01</leafValues></_></weakClassifiers></_>
    <!-- stage 2 -->
    <_>
      <maxWeakCount>1</maxWeakCount>
      <stageThreshold>8.3962261676788330e-01</stageThreshold>
      <weakClassifiers>
        <_>
          <internalNodes>
            0 -1 13 -5.3226843010634184e-04</internalNodes>
          <leafValues>
            -7.3684209585189819e-01 8.3962261676788330e-01</leafValues></_></weakClassifiers></_>
    <!-- stage 3 -->
    <_>
      <maxWeakCount>1</maxWeakCount>
      <stageThreshold>8.7192118167877197e-01</stageThreshold>
      <weakClassifiers>
        <_>
          <internalNodes>
            0 -1 13 4.0327233728021383e-04</internalNodes>
          <leafValues>
            8.7192118167877197e-01 -5.7446807622909546e-01</leafValues></_></weakClassifiers></_>
    <!-- stage 4 -->
    <_>
      <maxWeakCount>3</maxWeakCount>
      <stageThreshold>1.1104940176010132e+00</stageThreshold>
      <weakClassifiers>
        <_>
          <internalNodes>
            0 -1 12 -3.2793747959658504e-04</internalNodes>
          <leafValues>
            -9.0909093618392944e-01 7.4561405181884766e-01</leafValues></_>
        <_>
          <internalNodes>
            0 -1 3 5.1611147820949554e-02</internalNodes>
          <leafValues>
            -2.2213643789291382e-01 1.</leafValues></_>
        <_>
          <internalNodes>
            0 -1 1 -2.7204263024032116e-03</internalNodes>
          <leafValues>
            -5.4104900360107422e-01 5.8701640367507935e-01</leafValues></_></weakClassifiers></_>
    <!-- stage 5 -->
    <_>
      <maxWeakCount>3</maxWeakCount>
      <stageThreshold>8.2988566160202026e-01</stageThreshold>
      <weakClassifiers>
        <_>
          <internalNodes>
            0 -1 8 3.1462073326110840e-02</internalNodes>
          <leafValues>
            7.1673822402954102e-01 -1.</leafValues></_>
        <_>
          <internalNodes>
            0 -1 10 3.7357062101364136e-03</internalNodes>
          <leafValues>
            -3.3971446752548218e-01 8.3291572332382202e-01</leafValues></_>
        <_>
          <internalNodes>
            0 -1 5 1.6433050041086972e-04</internalNodes>
          <leafValues>
            4.5286190509796143e-01 -7.9319727420806885e-01</leafValues></_></weakClassifiers></_>
    <!-- stage 6 -->
    <_>
      <maxWeakCount>1</maxWeakCount>
      <stageThreshold>8.0465114116668701e-01</stageThreshold>
      <weakClassifiers>
        <_>
          <internalNodes>
            0 -1 11 3.0030501075088978e-03</internalNodes>
          <leafValues>
            -6.5714287757873535e-01 8.0465114116668701e-01</leafValues></_></weakClassifiers></_>
    <!-- stage 7 -->
    <_>
      <maxWeakCount>1</maxWeakCount>
      <stageThreshold>7.7064222097396851e-01</stageThreshold>
      <weakClassifiers>
        <_>
          <internalNodes>
            0 -1 6 1.2013316154479980e-02</internalNodes>
          <leafValues>
            -5.6250000000000000e-01 7.7064222097396851e-01</leafValues></_></weakClassifiers></_>
    <!-- stage 8 -->
    <_>
      <maxWeakCount>3</maxWeakCount>
      <stageThreshold>1.2423619031906128e+00</stageThreshold>
      <weakClassifiers>
        <_>
          <internalNodes>
            0 -1 0 -1.1257185833528638e-03</internalNodes>
          <leafValues>
            7.2294372320175171e-01 -8.9473682641983032e-01</leafValues></_>
        <_>
          <internalNodes>
            0 -1 7 -7.8014987520873547e-03</internalNodes>
          <leafValues>
            9.3168044090270996e-01 -2.2083041071891785e-01</leafValues></_>
        <_>
          <internalNodes>
            0 -1 9 5.5955827701836824e-04</internalNodes>
          <leafValues>
            -4.1226223111152649e-01 7.8067815303802490e-01</leafValues></_></weakClassifiers></_></stages>
  <features>
    <_>
      <rects>
        <_>
          0 0 8 12 -1.</_>
        <_>
          4 0 4 12 2.</_></rects>
      <tilted>0</tilted></_>
    <_>
      <rects>
        <_>
          0 0 15 5 -1.</_>
        <_>
          5 0 5 5 3.</_></rects>
      <tilted>0</tilted></_>
    <_>
      <rects>
        <_>
          0 5 10 8 -1.</_>
        <_>
          5 5 5 8 2.</_></rects>
      <tilted>0</tilted></_>
    <_>
      <rects>
        <_>
          1 0 24 9 -1.</_>
        <_>
          1 3 24 3 3.</_></rects>
      <tilted>0</tilted></_>
    <_>
      <rects>
        <_>
          2 0 23 18 -1.</_>
        <_>
          2 6 23 6 3.</_></rects>
      <tilted>0</tilted></_>
    <_>
      <rects>
        <_>
          3 5 2 2 -1.</_>
        <_>
          3 6 2 1 2.</_></rects>
      <tilted>0</tilted></_>
    <_>
      <rects>
        <_>
          3 12 11 6 -1.</_>
        <_>
          3 15 11 3 2.</_></rects>
      <tilted>0</tilted></_>
    <_>
      <rects>
        <_>
          7 1 12 8 -1.</_>
        <_>
          7 1 6 4 2.</_>
        <_>
          13 5 6 4 2.</_></rects>
      <tilted>0</tilted></_>
    <_>
      <rects>
        <_>
          11 4 21 8 -1.</_>
        <_>
          18 4 7 8 3.</_></rects>
      <tilted>0</tilted></_>
    <_>
      <rects>
        <_>
          11 12 8 3 -1.</_>
        <_>
          11 13 8 1 3.</_></rects>
      <tilted>0</tilted></_>
    <_>
      <rects>
        <_>
          21 12 1 6 -1.</_>
        <_>
          21 15 1 3 2.</_></rects>
      <tilted>0</tilted></_>
    <_>
      <rects>
        <_>
          21 14 15 4 -1.</_>
        <_>
          21 16 15 2 2.</_></rects>
      <tilted>0</tilted></_>
    <_>
      <rects>
        <_>
          26 17 2 1 -1.</_>
        <_>
          27 17 1 1 2.</_></rects>
      <tilted>0</tilted></_>
    <_>
      <rects>
        <_>
          32 1 3 1 -1.</_>
        <_>
          33 1 1 1 3.</_></rects>
      <tilted>0</tilted></_></features></output>
</opencv_storage>
