<?xml version="1.0"?>
<opencv_storage>
<my_svm type_id="opencv-ml-svm">
  <svm_type>C_SVC</svm_type>
  <kernel><type>SIGMOID</type>
    <gamma>1.0000000000000001e-05</gamma>
    <coef0>1.9600000000000001e+01</coef0></kernel>
  <C>1.0000000000000001e-01</C>
  <term_criteria><epsilon>2.2204460492503131e-16</epsilon>
    <iterations>100</iterations></term_criteria>
  <var_all>324</var_all>
  <var_count>324</var_count>
  <class_count>2</class_count>
  <class_labels type_id="opencv-matrix">
    <rows>1</rows>
    <cols>2</cols>
    <dt>i</dt>
    <data>
      -1 1</data></class_labels>
  <sv_total>200</sv_total>
  <support_vectors>
    <_>
      4.43114191e-02 9.88039151e-02 2.54457146e-01 3.90521199e-01
      2.52786666e-01 3.89353093e-03 0. 0. 2.70177964e-02 7.40291923e-02
      2.22312346e-01 2.13154793e-01 1.67318538e-01 1.24609545e-01
      4.67999838e-02 1.92851108e-02 2.86067370e-03 4.27689450e-03
      6.76562414e-02 2.34973624e-01 3.90521199e-01 2.94034570e-01
      9.36950669e-02 4.08217357e-03 0. 0. 3.95041965e-02 2.24934861e-01
      3.60651642e-01 2.18907505e-01 9.40929428e-02 7.33349025e-02
      3.43216620e-02 1.52724134e-02 2.11736187e-02 4.72844765e-02
      8.00812244e-02 2.24151939e-01 2.50401199e-01 1.30335450e-01
      1.47516996e-01 6.57340288e-02 4.99403141e-02 9.15112905e-03
      6.55333325e-03 2.29078196e-02 1.03256486e-01 2.95265615e-01
      2.02615514e-01 2.44923189e-01 1.09552465e-01 6.21857941e-02
      1.35515770e-02 9.49201081e-03 2.76424378e-01 3.36314112e-01
      2.01762244e-01 6.89460635e-02 9.06464532e-02 4.39593233e-02
      3.89887393e-02 4.33501489e-02 7.35739693e-02 1.57587200e-01
      3.03670406e-01 4.22790825e-01 2.18847871e-01 1.00220479e-01
      6.35617152e-02 4.31866683e-02 2.73151472e-02 2.90677622e-02
      1.80056710e-02 6.57470822e-02 2.44350657e-01 2.02524871e-01
      1.97052211e-01 9.52807888e-02 3.67790088e-02 2.73844767e-02
      2.12697703e-02 1.52971312e-01 1.34889796e-01 2.05386177e-01
      1.27076894e-01 7.36038312e-02 3.14780734e-02 2.26686560e-02
      7.74792805e-02 1.64239973e-01 1.08512260e-01 2.34852061e-01
      4.27302420e-01 2.66794264e-01 1.02678828e-01 5.62549345e-02
      2.02671252e-02 5.55811683e-03 1.02373129e-02 1.57616869e-01
      2.14503914e-01 4.27106410e-01 3.05215180e-01 1.14035122e-01
      1.46968178e-02 4.17457847e-03 8.91000684e-03 7.32918605e-02
      1.19707063e-01 2.26137012e-01 3.48919511e-01 1.10415034e-01
      1.83429830e-02 2.97724572e-03 0. 0. 3.65127325e-02 2.29815900e-01
      1.90818608e-01 1.64898396e-01 6.36535734e-02 3.27802934e-02
      1.44069521e-02 5.86334290e-03 1.20088039e-02 7.50885829e-02
      3.92171949e-01 3.92171949e-01 1.86364174e-01 5.32637574e-02
      1.14307096e-02 9.92415240e-04 0. 7.88594771e-05 1.09437838e-01
      3.92171949e-01 2.37345815e-01 7.42939338e-02 3.06077842e-02
      8.19691736e-03 4.37284540e-03 8.99082690e-04 3.02147912e-03
      3.05730373e-01 1.95788503e-01 2.14570060e-01 1.79159254e-01
      7.44632632e-02 4.25537899e-02 1.13312928e-02 8.17126222e-03
      2.09150501e-02 6.75107613e-02 2.56539941e-01 3.18943143e-01
      2.22368225e-01 1.00882761e-01 4.05110829e-02 8.47823045e-04
      2.33675260e-03 1.16506582e-02 2.48816293e-02 3.73426020e-01
      2.72315919e-01 1.22477792e-01 4.76010107e-02 1.96749140e-02
      4.07127710e-03 3.91310081e-03 1.68573596e-02 3.30438763e-01
      3.19169194e-01 3.55466247e-01 1.78150073e-01 6.56669810e-02
      3.53389196e-02 1.45465210e-02 3.14219184e-02 5.74081875e-02
      1.64032087e-01 3.30490112e-01 3.47470403e-01 2.31524631e-01
      9.27374661e-02 3.25429253e-02 1.04689490e-04 5.17253211e-05 0.
      2.97000241e-02 1.64059773e-01 3.06096524e-01 2.90081888e-01
      1.22357026e-01 4.00929227e-02 8.41717143e-03 1.02056190e-03
      1.91208925e-02 6.32089898e-02 3.42105448e-01 3.61674666e-01
      1.77217826e-01 5.97634986e-02 3.23740281e-02 1.89684369e-02
      3.51378582e-02 5.24658635e-02 9.04723629e-02 1.64262772e-01
      2.98973650e-01 2.05952972e-01 6.95151165e-02 9.28985327e-02
      3.51052769e-02 9.33749974e-03 3.96497324e-02 6.75064996e-02
      3.78378004e-01 2.39578798e-01 4.40296531e-02 1.45645747e-02
      2.26013903e-02 5.18072257e-03 2.57970323e-03 9.67937987e-03
      1.56240389e-01 3.78378004e-01 2.05800816e-01 9.27060172e-02
      2.59480383e-02 2.25479063e-02 1.49082728e-02 2.89747827e-02
      4.33496125e-02 2.44057626e-01 3.52915287e-01 1.73195869e-01
      1.06387869e-01 3.20288576e-02 7.03248754e-02 2.74054296e-02
      6.54059416e-03 3.44542265e-02 1.59203649e-01 1.99485242e-01
      2.65618086e-01 3.78378004e-01 2.02763736e-01 6.25222772e-02
      2.09895913e-02 3.40776704e-02 3.91203910e-02 9.90593359e-02
      3.37164462e-01 1.60917282e-01 1.25910059e-01 6.98022023e-02
      5.19528016e-02 2.15518307e-02 3.63563672e-02 6.53249025e-02
      2.58471489e-01 1.00734346e-01 1.48821458e-01 1.97215125e-01
      1.58727095e-01 9.79497135e-02 6.88424185e-02 9.08296630e-02
      1.08365439e-01 1.60255119e-01 8.60905275e-02 2.95764387e-01
      3.49064142e-01 2.44613320e-01 1.11561224e-01 3.68452184e-02
      3.76818106e-02 3.53411101e-02 5.99042512e-02 6.60262257e-02
      3.49064142e-01 3.49064142e-01 1.99328721e-01 1.14012472e-01
      5.21477088e-02 5.25187105e-02 3.03112250e-02 2.12638136e-02
      7.37966597e-02 1.65056586e-01 2.17796698e-01 1.92584306e-01
      1.26482859e-01 7.61185661e-02 9.51746851e-02 9.48436186e-02
      7.15340227e-02 4.96098958e-02 1.31617799e-01 3.16987723e-01
      2.22880244e-01 1.34879425e-01 1.95042994e-02 1.01254005e-02
      1.09308166e-02 3.01043447e-02 7.61682466e-02 3.82031977e-01
      3.41054112e-01 2.20131770e-01 1.00973770e-01 5.52360155e-02
      5.17387688e-02 2.63437070e-02 7.81487301e-03 5.54458983e-02
      2.16888651e-01 3.82031977e-01 2.91215658e-01 1.49460882e-01
      8.04890394e-02 1.13397660e-02 1.96021097e-03 3.66127715e-02</_>
    <_>
      1.56646550e-01 8.44267532e-02 3.37977484e-02 5.46477437e-02
      8.94231200e-02 9.80466008e-02 1.23604655e-01 1.10764787e-01
      1.98655635e-01 2.09383905e-01 2.46170759e-01 5.03845699e-02
      5.33107892e-02 5.90790361e-02 1.14069127e-01 1.64626732e-01
      1.24554768e-01 2.05255762e-01 1.90229401e-01 1.25673413e-01
      9.98161957e-02 1.15963578e-01 1.61065534e-01 1.01786733e-01
      7.78217167e-02 5.60984798e-02 9.96862575e-02 4.20706898e-01
      5.33336282e-01 8.36306214e-02 6.74990714e-02 7.43601397e-02
      6.06907010e-02 9.90186036e-02 8.95011052e-02 1.79814115e-01
      1.86058119e-01 2.34649956e-01 7.45946988e-02 8.82597938e-02
      9.51401368e-02 9.89301130e-02 1.31597102e-01 8.98397639e-02
      1.42650574e-01 1.02742337e-01 1.08410098e-01 1.36207432e-01
      2.34968439e-01 1.95207730e-01 1.43307075e-01 7.62750655e-02
      7.65450895e-02 6.77740350e-02 3.23685855e-01 5.16448379e-01
      1.04634844e-01 7.81142488e-02 1.07429333e-01 3.63376625e-02
      7.95643702e-02 8.04515928e-02 1.55216575e-01 1.15555547e-01
      2.00782120e-01 1.86840743e-01 1.83927357e-01 1.95393890e-01
      1.15807138e-01 1.35337681e-01 1.36843890e-01 8.05196837e-02
      6.03567846e-02 1.01481624e-01 1.78439379e-01 3.24453861e-01
      1.57280058e-01 1.03781447e-01 4.68098894e-02 5.88797778e-02
      4.36993465e-02 1.38323709e-01 1.10901557e-01 2.35387146e-01
      4.31557775e-01 1.84386492e-01 5.77111132e-02 3.15877087e-02
      4.56132479e-02 8.82978365e-02 6.21025860e-02 1.51737466e-01
      1.95849270e-01 2.34196156e-01 1.66499078e-01 1.55276477e-01
      1.50070593e-01 1.14287384e-01 4.24635336e-02 1.36409774e-01
      1.07011363e-01 1.79391026e-01 3.18479091e-01 1.92697912e-01
      2.18051240e-01 1.09963544e-01 3.67916375e-02 8.84803161e-02
      8.19924027e-02 8.49872306e-02 1.27383471e-01 1.67831749e-01
      2.46059537e-01 9.13758799e-02 8.30598846e-02 9.58699957e-02
      6.86304644e-02 2.16687843e-01 2.06062630e-01 9.34816301e-02
      1.56407505e-01 2.84480661e-01 2.19603881e-01 1.41074285e-01
      1.27607524e-01 1.52063027e-01 8.40246230e-02 1.00226462e-01
      7.19093606e-02 1.11792371e-01 2.13045970e-01 1.74602285e-01
      1.46804184e-01 1.02169707e-01 9.62587744e-02 7.83826709e-02
      8.41667354e-02 4.38450351e-02 1.20401315e-01 3.83929551e-01
      3.60852718e-01 1.92618981e-01 1.41817614e-01 1.33268058e-01
      1.80907696e-01 1.83084786e-01 9.88060310e-02 1.23555653e-01
      1.86082125e-01 1.31622389e-01 1.17451712e-01 1.11004598e-01
      1.61874011e-01 1.41126797e-01 1.78191289e-01 2.42405340e-01
      2.26523474e-01 1.52772143e-01 9.15391296e-02 7.29884505e-02
      8.05726200e-02 7.87522495e-02 7.08899423e-02 7.89588466e-02
      7.35056028e-02 1.41839907e-01 2.90424734e-01 2.39163175e-01
      1.42876163e-01 1.15309648e-01 1.32157385e-01 2.10618749e-01
      1.23067260e-01 1.82367787e-01 2.17263877e-01 2.87904084e-01
      3.27611744e-01 1.16457738e-01 8.39564055e-02 7.72452727e-02
      8.59442651e-02 9.44358185e-02 1.31855652e-01 1.66074887e-01
      1.06636249e-01 9.70738605e-02 5.84656149e-02 3.38254385e-02
      2.50936020e-02 8.40794295e-02 4.01680097e-02 1.31409258e-01
      3.84276658e-01 2.96525627e-01 2.66257375e-01 1.23541139e-01
      1.45986918e-02 4.97025251e-02 2.19015107e-01 7.97380432e-02
      1.08233228e-01 1.09277003e-01 1.47123322e-01 2.22613439e-01
      9.49734375e-02 3.87076885e-02 4.22633030e-02 2.51964331e-01
      9.27591100e-02 1.14486232e-01 2.01448947e-01 2.92429209e-01
      3.50331187e-01 2.19989985e-01 5.52299991e-02 1.01622894e-01
      1.40842378e-01 1.95997998e-01 1.76216990e-01 1.68424889e-01
      1.33819312e-01 1.07209779e-01 9.55915451e-02 5.66151589e-02
      8.86272341e-02 1.83761060e-01 1.31106898e-01 1.65266290e-01
      8.17192495e-02 2.89077252e-01 1.94322020e-01 1.37735993e-01
      1.33707836e-01 1.16678983e-01 2.17952028e-01 2.96528548e-01
      2.46671796e-01 1.18705228e-01 1.42804161e-01 1.07264452e-01
      1.04739793e-01 7.06984177e-02 1.17350340e-01 2.00928554e-01
      1.44374669e-01 2.49521360e-01 1.62328511e-01 2.92730659e-01
      1.32702917e-01 1.40763104e-01 1.02016248e-01 1.12199955e-01
      9.87590179e-02 7.53352717e-02 1.00857370e-01 4.32665348e-02
      2.07488760e-01 1.27945513e-01 1.17171176e-01 8.23237151e-02
      7.16553107e-02 9.19308215e-02 1.56494990e-01 1.74650177e-01
      1.01615936e-01 2.29836807e-01 3.08965802e-01 1.75702378e-01
      5.28132468e-02 4.21061367e-02 1.10337295e-01 9.72013846e-02
      1.89302281e-01 1.83151409e-01 2.53071368e-01 8.21095333e-02
      1.08893983e-01 6.40191585e-02 6.47299588e-02 1.26443207e-01
      3.21779847e-01 3.34429651e-01 2.72152811e-01 2.84604877e-01
      1.45838797e-01 1.57383993e-01 5.84726371e-02 7.56236911e-02
      1.53263956e-01 1.46586031e-01 1.21294357e-01 6.64439797e-02
      1.15476720e-01 2.13668615e-01 1.62075028e-01 5.75490557e-02
      4.90307882e-02 2.90431440e-01 9.36200544e-02 3.31819914e-02
      3.16274874e-02 1.70013785e-01 1.75026134e-01 1.76339254e-01
      1.65647775e-01 2.34591961e-01 1.40939951e-01 2.56146103e-01
      2.01500908e-01 1.17461026e-01 1.50078148e-01 1.15038425e-01
      1.29164606e-01 4.96674441e-02 6.72331080e-02 1.79989725e-01
      8.40229988e-02 3.49823460e-02 5.44152595e-02 3.80295396e-01
      3.30857277e-01 1.80457503e-01 1.48467809e-01 1.39754385e-01</_>
    <_>
      3.26426953e-01 3.23103815e-01 7.56120831e-02 2.62086280e-02
      1.67523511e-03 2.31049577e-04 1.60198694e-03 2.12615915e-02
      1.74088418e-01 3.26426953e-01 3.26426953e-01 9.97207463e-02
      7.48461857e-02 1.29942270e-02 0. 2.02634698e-03 5.79311550e-02
      3.26426953e-01 3.26426953e-01 2.04375163e-01 3.90766487e-02
      1.89590808e-02 1.23494565e-02 3.89961973e-02 3.70012857e-02
      4.18252610e-02 1.64117023e-01 2.21864313e-01 2.47523263e-01
      1.66291162e-01 1.61671638e-01 4.61062267e-02 1.36414832e-02
      8.92136712e-03 4.06623296e-02 2.44166613e-01 2.53008842e-01
      3.07509989e-01 1.33235306e-01 8.70541707e-02 3.26585211e-02
      2.55843848e-02 2.64354027e-03 3.22461054e-02 1.84384167e-01
      1.23649783e-01 3.07509989e-01 3.07509989e-01 3.07509989e-01
      1.84092700e-01 1.65461421e-01 4.68095466e-02 8.08240287e-03
      5.22578321e-03 1.10632293e-01 2.16181219e-01 2.04729334e-01
      1.93357557e-01 3.85423377e-02 5.48293721e-03 7.67864194e-03
      1.81860160e-02 1.18125238e-01 3.71269807e-02 2.48883903e-01
      3.07509989e-01 3.06659877e-01 8.23139995e-02 1.21622011e-02
      2.10079998e-02 1.56448223e-02 7.76325772e-03 3.45638394e-02
      1.75355852e-01 3.34232867e-01 3.34232867e-01 2.66583234e-01
      1.84189707e-01 5.62545359e-02 1.15950182e-02 2.15975990e-04
      2.82568503e-02 5.13483807e-02 2.71863222e-01 2.92711347e-01
      1.77598968e-01 8.13130811e-02 1.46326032e-02 4.84885043e-03
      2.47394070e-02 2.15328541e-02 1.94043815e-01 3.34232867e-01
      3.00791711e-01 1.14462830e-01 3.25279497e-02 1.77031625e-02
      1.87841486e-02 1.96999591e-02 5.16101532e-02 4.35130335e-02
      2.46837288e-01 2.40381062e-01 1.19471341e-01 1.78487778e-01
      3.79755609e-02 2.41056271e-02 6.35044649e-02 6.20517172e-02
      9.93594993e-03 9.21182428e-03 1.94199216e-02 3.74370515e-02
      6.67615458e-02 5.86901307e-02 7.28623420e-02 1.55803964e-01
      9.34822485e-02 2.88350657e-02 2.79204845e-02 3.41038667e-02
      7.19370767e-02 4.24980745e-02 2.39412282e-02 7.82466382e-02
      2.29499325e-01 4.58868176e-01 4.12902934e-03 1.34837430e-03
      9.62017942e-03 1.70578659e-02 2.91292537e-02 3.30307521e-02
      1.32349163e-01 4.58868176e-01 4.58868176e-01 1.18979877e-02
      2.36120448e-03 8.69171135e-03 2.30192095e-02 1.91981625e-02
      1.30773811e-02 1.04251511e-01 4.58868176e-01 6.34470060e-02
      2.01454647e-02 3.46972756e-02 3.65917869e-02 5.33644184e-02
      2.21453048e-02 3.60332541e-02 1.00185446e-01 1.68812528e-01
      2.92525645e-02 1.20168310e-02 4.28488813e-02 5.42762130e-02
      5.27656674e-02 2.31628567e-02 1.57063410e-01 1.66158780e-01
      1.02430403e-01 4.34124947e-01 8.14917590e-03 1.58520811e-03
      2.68673757e-03 1.38383526e-02 1.11445645e-02 2.87160836e-02
      1.65137559e-01 4.34124947e-01 2.69322932e-01 3.33597348e-03
      6.56738295e-04 1.29189307e-03 6.81204954e-03 1.96413137e-02
      1.35352507e-01 4.34124947e-01 4.34124947e-01 6.75537810e-02
      2.41240226e-02 3.53829898e-02 3.46721038e-02 3.82619984e-02
      1.84860956e-02 1.30690500e-01 1.23210430e-01 1.06092721e-01
      1.75601050e-01 4.00244631e-02 1.29620340e-02 6.26456179e-03
      6.40502339e-03 3.26371752e-02 1.88404657e-02 5.45158647e-02
      1.88165635e-01 2.24498585e-01 1.32298134e-02 2.17558394e-04
      7.52300606e-04 3.98245081e-03 1.54407434e-02 1.13092348e-01
      4.25795406e-01 4.25795406e-01 4.14032876e-01 5.33264764e-02 0. 0.
      1.01999656e-04 1.51964184e-03 1.00491922e-02 2.97397912e-01
      4.25795406e-01 3.90132070e-01 1.18154632e-02 1.17385909e-02 0.
      5.70194563e-03 2.41622049e-03 4.44993563e-03 5.80936037e-02
      3.90132070e-01 3.90132070e-01 2.57731732e-02 1.39636714e-02 0.
      2.99070589e-03 7.08713476e-03 6.69689709e-03 3.23693752e-02
      3.90132070e-01 2.90303230e-01 3.72174866e-02 2.40500346e-02 0.
      3.80916968e-02 7.92863127e-03 2.79011261e-02 4.55172472e-02
      2.79219925e-01 3.90132070e-01 9.44540873e-02 4.11803015e-02 0.
      9.02277883e-03 1.97663885e-02 2.86870040e-02 4.72213998e-02
      2.16000244e-01 3.86728019e-01 4.22304906e-02 5.40501717e-03 0.
      9.73140006e-04 4.39062342e-03 4.47770255e-03 3.63009572e-02
      3.86728019e-01 3.86728019e-01 4.58330512e-02 2.23725988e-03
      1.56067355e-04 6.69083046e-03 5.82750328e-03 6.91681588e-03
      2.39751115e-01 3.86728019e-01 3.41848344e-01 1.19671442e-01
      3.16335969e-02 0. 4.57653543e-03 1.32777737e-02 1.38513818e-02
      2.67793369e-02 1.70075923e-01 2.74122268e-01 1.23683251e-01
      2.34171264e-02 7.15397857e-03 3.10705826e-02 1.00143487e-02
      1.31900068e-02 1.05807751e-01 2.63304561e-01 1.87939167e-01
      1.65673960e-02 3.90714919e-03 2.45911488e-03 8.66019074e-03
      1.21463519e-02 1.29632540e-02 2.77045250e-01 3.64861667e-01
      2.04910770e-01 3.80146783e-03 6.12614565e-02 8.86293724e-02
      4.12050076e-02 3.82648632e-02 3.58857028e-02 3.00877541e-01
      3.64861667e-01 1.15056500e-01 6.54131398e-02 1.04134336e-01
      5.17857857e-02 3.68772112e-02 2.13173795e-02 2.13406906e-02
      1.02366440e-01 1.97496846e-01 9.15696099e-02 5.16572818e-02
      3.64861667e-01 3.64861667e-01 1.04275584e-01 5.43407947e-02
      3.79911251e-02 8.43275189e-02 2.93731958e-01</_>
    <_>
      4.68687057e-01 4.21322510e-02 3.33715715e-02 1.03817992e-02
      1.24831796e-02 1.17649778e-03 8.88247509e-03 6.39230087e-02
      4.68687057e-01 4.68687057e-01 1.40246898e-01 3.96999530e-02
      4.71051177e-03 2.21100282e-02 1.01224668e-02 6.67084567e-03
      1.36291161e-02 2.67192543e-01 2.10499719e-01 5.55002876e-02
      5.66404238e-02 2.15893202e-02 4.74357940e-02 2.65187845e-02
      3.76958400e-02 6.51776940e-02 2.17894986e-01 2.96719849e-01
      8.04555342e-02 6.54520169e-02 2.55144313e-02 7.67074972e-02
      6.05432391e-02 3.77943553e-02 2.87620686e-02 1.30747959e-01
      5.14749527e-01 1.38879389e-01 2.52847597e-02 3.84025997e-03
      2.78960802e-02 1.01724565e-02 1.59319099e-02 2.50240173e-02
      2.24254563e-01 5.14749527e-01 8.37687552e-02 1.57223959e-02
      5.30122919e-03 1.62819847e-02 8.59920401e-04 1.76080950e-02
      6.05168901e-02 4.42255259e-01 2.72848815e-01 8.02003592e-02
      6.15015291e-02 2.86271404e-02 7.94417933e-02 5.19942418e-02
      3.96732092e-02 3.00044212e-02 1.23507075e-01 1.94294080e-01
      6.84168562e-02 8.90755653e-02 4.92010973e-02 4.37841490e-02
      5.15030976e-03 2.67278198e-02 4.59819958e-02 1.26609266e-01
      4.72193629e-01 7.26339445e-02 1.36471242e-02 4.32752958e-03
      5.10583492e-03 2.66767282e-04 1.11649726e-02 4.13263664e-02
      4.50765640e-01 4.72193629e-01 3.17078494e-02 1.20702002e-03
      4.45193029e-04 9.02721658e-03 4.00151010e-04 6.85472414e-03
      6.64186254e-02 4.72193629e-01 1.79231033e-01 5.52411899e-02
      6.65667802e-02 3.76716033e-02 2.70246416e-02 5.06858435e-03
      2.28863843e-02 2.93528344e-02 1.09933756e-01 1.63450316e-01
      2.29613297e-02 2.08202079e-02 9.37410444e-03 6.44809306e-02
      7.60287698e-03 2.50045285e-02 2.58818269e-02 1.47577822e-01
      2.32422724e-01 9.53460410e-02 1.26607895e-01 4.80553284e-02
      2.14281455e-01 1.29576460e-01 5.13593666e-02 2.86957901e-02
      1.83211431e-01 1.74399510e-01 6.44994080e-02 1.22937441e-01
      9.39372554e-02 2.74036378e-01 1.34921864e-01 1.60568640e-01
      9.33902711e-02 2.77743340e-01 2.52560019e-01 8.51683617e-02
      1.59278437e-01 4.46465127e-02 1.53806239e-01 8.26007947e-02
      6.05286136e-02 3.26454975e-02 2.41770953e-01 2.51893938e-01
      7.15767071e-02 1.87258184e-01 1.04866274e-01 2.04533681e-01
      1.87480718e-01 2.01285511e-01 1.43630177e-01 3.22229922e-01
      1.45712629e-01 6.45745099e-02 9.24386606e-02 7.98575878e-02
      2.75045961e-01 1.22860968e-01 1.42244428e-01 8.15977678e-02
      2.25984991e-01 1.64598763e-01 7.10251108e-02 1.52091995e-01
      1.27803758e-01 1.89337462e-01 5.62387407e-02 9.33085084e-02
      5.49359098e-02 1.40214443e-01 2.47322619e-01 6.74956813e-02
      1.38692603e-01 1.39812127e-01 2.21776113e-01 1.95020825e-01
      1.68514699e-01 1.12547457e-01 2.77197748e-01 2.39529982e-01
      7.98662007e-02 1.32811472e-01 1.55679315e-01 1.52857244e-01
      1.46204740e-01 2.43863150e-01 2.23957241e-01 2.69869864e-01
      1.34406209e-01 5.03575280e-02 1.22667499e-01 8.12577456e-02
      1.19400926e-01 1.14576826e-02 4.79398668e-02 3.76077443e-02
      1.08363219e-01 1.42850295e-01 1.74633250e-01 2.05245227e-01
      4.41208668e-02 1.69640601e-01 8.33991729e-03 2.42542885e-02
      1.98183041e-02 1.15201548e-01 2.05788627e-01 8.62569958e-02
      1.55196935e-01 7.25635216e-02 9.05067399e-02 4.14952561e-02
      1.65616974e-01 1.92746386e-01 1.62158504e-01 3.15896183e-01
      4.11665708e-01 5.45945942e-01 3.98034528e-02 1.05690643e-01
      1.30064124e-02 4.13374566e-02 4.87023741e-02 1.40222907e-01
      2.71900773e-01 1.32436976e-01 9.16383341e-02 2.23157164e-02
      1.89976357e-02 2.90051457e-02 3.27202007e-02 6.58897907e-02
      2.63951659e-01 3.18312168e-01 1.81739360e-01 1.56344727e-01
      6.65423423e-02 4.05902825e-02 1.15686633e-01 8.17230269e-02
      9.02273953e-02 2.85279989e-01 2.70373106e-01 1.30103260e-01
      3.95819061e-02 8.95891432e-03 3.94944549e-02 1.64149292e-02
      5.14215678e-02 9.96653214e-02 2.88872361e-01 2.86023468e-01
      3.37769210e-01 2.13619724e-01 1.40132904e-01 3.16662714e-02
      7.75406286e-02 4.41312194e-02 1.11999102e-01 2.67218977e-01
      2.31174529e-01 1.33444682e-01 1.17822461e-01 6.39607683e-02
      4.42415997e-02 6.33561760e-02 6.54891133e-02 1.14497028e-01
      2.21551955e-01 1.97373390e-01 1.58115193e-01 9.53606069e-02
      4.73132282e-02 8.50843191e-02 2.38673929e-02 7.45737925e-02
      1.54399708e-01 2.53885150e-01 2.12696686e-01 2.37013534e-01
      1.63585186e-01 1.00805797e-01 2.93599702e-02 5.35030365e-02
      4.62479815e-02 1.62128970e-01 2.82883823e-01 3.28690737e-01
      2.19574496e-01 4.86979485e-02 1.20499600e-02 7.25910738e-02
      5.65880053e-02 6.12652674e-02 2.14119568e-01 4.35120106e-01
      1.86528474e-01 1.55880332e-01 9.53851491e-02 2.38640327e-02
      6.61339611e-02 1.67963374e-02 4.56155762e-02 7.95805231e-02
      1.68783963e-01 2.80696899e-01 3.32665354e-01 2.35386759e-01
      5.52627668e-02 8.09699371e-02 3.07600871e-02 3.41756493e-02
      3.23469117e-02 1.13747440e-01 2.98618525e-01 2.29526669e-01
      5.22129461e-02 4.46128426e-03 5.17574735e-02 4.31436673e-02
      3.55376378e-02 8.94897878e-02 2.77732670e-01 3.32770407e-01
      4.38817948e-01 2.07978889e-01 6.66555688e-02 4.57209311e-02
      1.60866007e-02 1.54140545e-02 2.75849309e-02 1.57590181e-01</_>
    <_>
      1.38237685e-01 3.22170228e-01 1.73746571e-01 7.70963281e-02
      1.44637197e-01 5.93660846e-02 4.04987857e-03 9.10396222e-03
      3.68037969e-02 1.52477711e-01 3.22170228e-01 3.22170228e-01
      9.50950831e-02 6.20652363e-02 1.26075875e-02 1.43047015e-03
      5.43818064e-03 3.34850438e-02 5.91368563e-02 2.02949196e-01
      1.03879549e-01 1.00193799e-01 3.22170228e-01 3.22170228e-01
      3.36410739e-02 0. 1.33487219e-02 4.91074324e-02 2.65165269e-01
      2.35049531e-01 1.73738182e-01 3.17459553e-01 1.74133241e-01
      5.59473857e-02 0. 1.10030966e-03 2.35655040e-01 3.22970152e-01
      3.22970152e-01 6.51896670e-02 2.87392959e-02 1.42375557e-02
      1.57770906e-02 1.15519837e-02 3.35215777e-02 3.01829189e-01
      1.95938513e-01 8.94766003e-02 3.44542973e-02 2.54042059e-01
      3.22970152e-01 8.58541206e-02 5.37172817e-02 6.45746291e-02
      5.29563613e-02 1.83282882e-01 2.32515827e-01 1.29139468e-01
      1.91157907e-01 1.13940716e-01 5.57323471e-02 1.38466591e-02
      1.14810048e-02 2.85565145e-02 3.30185257e-02 5.33480719e-02
      1.56299695e-01 3.22970152e-01 3.22970152e-01 7.14966953e-02
      2.41044275e-02 1.70854852e-02 1.68594703e-01 6.66043311e-02
      1.29248120e-03 6.33198619e-02 3.24102074e-01 3.24102074e-01
      6.36159256e-02 4.13921475e-02 5.43454550e-02 7.27265179e-02
      1.93887297e-02 4.26511355e-02 1.15118735e-01 3.04616958e-01
      3.10139835e-01 4.08011861e-02 2.34730374e-02 5.11991344e-02
      5.09783486e-03 3.78853409e-03 1.63389090e-03 2.00772911e-01
      3.24102074e-01 3.24102074e-01 4.48052995e-02 1.29632000e-02
      1.03902463e-02 6.14701845e-02 5.87963499e-02 1.39959991e-01
      2.73388743e-01 3.24102074e-01 2.50045568e-01 2.16032173e-02
      1.72037408e-02 6.26617819e-02 7.11161876e-03 7.37594819e-05
      4.15082293e-04 4.23560515e-02 3.31912816e-01 3.31912816e-01
      1.01604059e-01 2.07530349e-04 7.11161876e-03 2.74410238e-03
      4.74146008e-03 7.28824781e-03 1.69026330e-01 3.31912816e-01
      3.31912816e-01 8.76521990e-02 0. 4.32890607e-04 9.55811143e-03 0.
      0. 5.96528724e-02 3.31912816e-01 3.31912816e-01 9.37693417e-02
      3.56300944e-03 9.55811143e-03 0. 7.28841522e-04 4.41430882e-03
      1.60271764e-01 3.31912816e-01 3.31912816e-01 1.67980567e-01
      1.81352366e-02 0. 6.73406990e-03 8.34079459e-03 1.32363737e-02
      1.81805536e-01 3.28048527e-01 2.80520171e-01 8.11946467e-02
      3.65224085e-03 2.28425232e-03 4.48904792e-03 2.94285011e-03
      6.06464315e-03 8.53957310e-02 3.28048527e-01 3.28048527e-01
      1.06629156e-01 6.41921069e-03 2.54683965e-03 3.44671099e-03
      1.77701563e-03 1.31590981e-02 1.56336457e-01 3.28048527e-01
      3.28048527e-01 2.38402620e-01 4.30392250e-02 7.14493869e-03
      3.82019579e-02 1.18418131e-02 1.87483560e-02 4.92370240e-02
      3.28048527e-01 3.28048527e-01 1.26844481e-01 3.83530818e-02
      2.61823013e-02 1.91479421e-03 7.09529174e-03 2.83704605e-03
      8.34925398e-02 3.26232016e-01 3.26232016e-01 1.01571105e-01
      3.59640410e-03 2.66836002e-03 2.86113955e-02 3.91086526e-02
      4.08947021e-02 3.26232016e-01 3.26232016e-01 2.09120080e-01
      5.09579927e-02 4.11945162e-03 2.92858481e-02 3.27609815e-02
      1.73539985e-02 1.18123693e-02 3.64292972e-02 3.10496569e-01
      3.26232016e-01 1.13685578e-01 2.03259122e-02 1.93599164e-02
      2.82779112e-02 3.05269193e-02 2.99037732e-02 2.31600910e-01
      3.26232016e-01 3.26232016e-01 1.10940628e-01 2.72862278e-02
      2.96272710e-02 6.71541551e-03 0. 0. 1.77756269e-02 2.38991290e-01
      3.05013388e-01 2.48261541e-01 2.99639087e-02 6.71541551e-03 0.
      9.11230600e-05 4.09799744e-04 5.25081307e-02 2.89128512e-01
      3.05013388e-01 3.05013388e-01 1.13489695e-01 0. 4.36269073e-03 0.
      0. 5.78523241e-02 3.00751448e-01 2.29807481e-01 1.99703485e-01
      3.23311873e-02 7.60427630e-03 0. 0. 0. 1.44861177e-01
      3.05013388e-01 3.05013388e-01 3.05013388e-01 1.04133964e-01
      4.90349578e-03 4.82185092e-03 4.50983236e-04 5.89133473e-03
      5.80363758e-02 2.41409451e-01 3.25192392e-01 3.25192392e-01
      2.01875001e-01 2.98858751e-02 1.73020005e-01 4.76043485e-02
      1.95621476e-02 3.29247005e-02 6.85299337e-02 1.31168410e-01
      1.95534587e-01 1.47737697e-01 1.57162055e-01 1.24590565e-02
      1.53234811e-03 2.02991664e-02 1.67173743e-01 3.25192392e-01
      3.25192392e-01 3.25192392e-01 1.91196188e-01 4.62571084e-02
      2.38891184e-01 7.34603629e-02 5.50281070e-02 9.93879437e-02
      8.97531137e-02 1.01029351e-01 1.35319859e-01 1.37638152e-01
      1.61914408e-01 2.91921884e-01 1.13956898e-01 8.12399015e-02
      7.79420733e-02 1.31443813e-01 2.41697416e-01 9.83829349e-02
      1.11403614e-01 2.02569053e-01 1.15932249e-01 9.87081379e-02
      1.57529548e-01 1.17294222e-01 2.90125102e-01 2.78393596e-01
      1.13410316e-01 3.36960927e-02 9.36134532e-02 3.39486271e-01
      2.11392954e-01 1.50956288e-01 1.16375960e-01 7.26864785e-02
      5.75974807e-02 5.00307903e-02 8.61592889e-02 1.99289784e-01
      2.55889565e-01 2.49665141e-01 1.94972754e-01 6.01857230e-02
      1.09678067e-01 6.92821592e-02 3.09212990e-02 1.15997151e-01
      2.13338196e-01</_>
    <_>
      6.94695264e-02 6.74462840e-02 1.27217501e-01 3.50951552e-01
      3.50951552e-01 8.77320245e-02 9.01961233e-03 8.55309889e-03
      3.96709740e-02 1.58607647e-01 1.23618230e-01 6.86858743e-02
      8.37768763e-02 8.45335945e-02 1.99255660e-01 9.13798288e-02
      2.42770575e-02 8.53940025e-02 1.19720668e-01 2.29936481e-01
      3.50951552e-01 3.19851041e-01 3.07629257e-01 8.81171525e-02 0.
      3.76772392e-03 7.54239112e-02 2.99177885e-01 2.27957532e-01
      1.71888813e-01 7.65382051e-02 4.15718444e-02 2.08080225e-02
      7.27680279e-03 1.75406933e-02 1.40512824e-01 1.21275514e-01
      8.26885253e-02 4.84580621e-02 6.19513988e-02 1.20932654e-01
      3.73709917e-01 1.62936822e-01 1.50503898e-02 6.44686744e-02
      1.50817540e-02 1.91928484e-02 6.11369312e-02 1.06734440e-01
      1.99695498e-01 3.87506634e-01 3.87506634e-01 1.61454058e-03
      2.86896946e-03 3.19010586e-01 1.93853870e-01 1.24577664e-01
      5.31493202e-02 4.05269861e-02 6.77609518e-02 2.17185486e-02
      2.57788841e-02 1.52671382e-01 1.09583899e-01 1.16256304e-01
      2.41976246e-01 2.18875125e-01 1.36591256e-01 2.56227940e-01
      1.41473249e-01 1.87281147e-02 4.70771007e-02 3.97927128e-03
      1.52519122e-02 5.66909686e-02 9.48974192e-02 1.71899632e-01
      4.36227769e-01 4.36227769e-01 4.19887304e-02 7.66364904e-03
      4.00154740e-02 5.06711118e-02 7.10206702e-02 2.81149074e-02
      5.53516075e-02 1.38514310e-01 3.15455884e-01 1.31009221e-01
      4.98980135e-02 2.55205948e-02 8.17654952e-02 2.48322874e-01
      2.63390571e-01 1.76282495e-01 2.77376324e-01 2.43730202e-01
      2.39429995e-02 1.24564199e-02 4.19142097e-02 4.04114276e-02
      6.79443702e-02 7.72683620e-02 9.99370962e-02 1.03281491e-01
      2.41175979e-01 1.28355235e-01 6.32569119e-02 2.77526557e-01
      2.96477318e-01 2.29122624e-01 2.34199706e-02 1.05429450e-02
      3.48884170e-03 0. 1.86631568e-02 2.09846735e-01 3.33114326e-01
      3.23395133e-01 1.35039911e-01 9.25505906e-03 1.69898046e-03
      4.18745098e-04 3.87613848e-03 3.82203832e-02 1.20494090e-01
      3.33114326e-01 2.33008251e-01 1.20362327e-01 1.28434049e-02
      2.42668972e-03 1.67614932e-03 2.37643113e-03 3.18041965e-02
      2.80819774e-01 3.33114326e-01 2.68193960e-01 8.28382075e-02
      8.04132968e-03 6.75168121e-03 7.03983614e-03 2.59697810e-02
      8.33927244e-02 1.64288908e-01 3.39343756e-01 3.06130528e-01
      1.06239349e-01 6.22480409e-03 2.45679199e-04 1.38107862e-03
      3.79023924e-02 1.33353397e-01 2.02362910e-01 1.69766471e-01
      9.55580920e-02 9.03780460e-02 4.62391190e-02 2.09126770e-02
      6.45890972e-03 7.40204230e-02 2.00501844e-01 3.02137017e-01
      3.08088541e-01 2.34574065e-01 4.97708358e-02 6.45954441e-03
      1.73985902e-02 1.80008300e-02 8.64285976e-02 2.07248747e-01
      2.32963264e-01 1.36860922e-01 4.51122411e-02 1.42772356e-02
      4.57221717e-02 9.81660858e-02 5.01319580e-02 1.31392777e-01
      2.79835552e-01 3.76292914e-01 2.05851525e-01 2.05211371e-01
      1.81525901e-01 1.18914999e-01 7.26503432e-02 1.49091361e-02
      7.01242462e-02 1.54956207e-01 3.02059889e-01 2.14984059e-01
      3.01022589e-01 1.65478423e-01 9.44137946e-02 7.06191361e-02
      1.38660893e-02 2.92634293e-02 3.54637057e-02 9.63225737e-02
      2.30158567e-01 1.26157179e-01 4.27488983e-02 8.63054693e-02
      1.87523752e-01 1.00939102e-01 1.63756877e-01 2.33891755e-01
      4.36169952e-01 1.90000147e-01 2.61963218e-01 8.64658579e-02
      4.24260348e-02 1.18541189e-01 6.57668188e-02 1.07240118e-01
      3.91441062e-02 8.53106827e-02 2.94759005e-01 1.85903430e-01
      1.03061132e-01 8.81462544e-02 1.10610999e-01 4.12258878e-02
      2.22659446e-02 1.15914591e-01 3.42281252e-01 1.61036372e-01
      1.89110532e-01 1.05953872e-01 1.74205020e-01 2.16333896e-01
      1.70517609e-01 7.88127333e-02 1.34749144e-01 1.47230282e-01
      1.96641117e-01 2.70085752e-01 2.51960248e-01 9.53884199e-02
      1.18925370e-01 4.56216894e-02 1.50793837e-02 8.59442353e-02
      1.65712267e-01 1.04871072e-01 1.09942898e-01 6.81085587e-02
      2.38294616e-01 2.86145180e-01 2.25932330e-01 8.73879194e-02
      1.18658416e-01 1.03141509e-01 1.45837560e-01 1.70895487e-01
      8.82386938e-02 1.44192412e-01 2.37912625e-01 1.79618493e-01
      8.92159864e-02 1.15002871e-01 9.81368348e-02 2.14954302e-01
      1.08764119e-01 1.09445460e-01 1.19255871e-01 3.13804299e-01
      1.91100657e-01 9.05191898e-02 1.01808213e-01 1.10308245e-01
      9.84276235e-02 8.11101943e-02 5.90058081e-02 2.13560402e-01
      3.25327039e-01 2.34693602e-01 1.30507007e-01 8.66063461e-02
      6.76907152e-02 3.69649172e-01 1.37877196e-01 1.27144605e-01
      7.31574893e-02 2.01750785e-01 1.26437411e-01 1.19536959e-01
      9.32025239e-02 1.84983671e-01 1.97948843e-01 7.07481802e-02
      1.08346969e-01 1.10693224e-01 2.60767788e-01 2.00896353e-01
      1.22280411e-01 7.79022574e-02 1.08505256e-01 2.00468540e-01
      6.85672760e-02 3.49280126e-02 2.57378835e-02 8.92853066e-02
      9.81245786e-02 1.76803112e-01 1.06173851e-01 1.45980850e-01
      4.29607928e-01 1.73385382e-01 1.44191533e-01 4.23439220e-02
      1.02592476e-01 7.81820714e-02 9.88506451e-02 1.04691438e-01
      2.08712235e-01 4.32358772e-01 1.99011937e-01 7.53602609e-02
      1.95878763e-02 5.69537692e-02 5.31179421e-02 1.33819550e-01
      1.23894051e-01 2.58773506e-01</_>
    <_>
      4.01415527e-02 8.37764330e-03 1.11614177e-02 2.70173512e-03
      6.57043159e-02 1.28698722e-01 2.66393632e-01 2.07991764e-01
      1.07117549e-01 2.16216687e-03 2.73350906e-03 6.51464332e-04
      2.36029159e-02 2.09847212e-01 3.62738967e-01 3.62738967e-01
      2.01229900e-01 3.36525664e-02 4.86144945e-02 2.04575881e-02
      4.57299836e-02 9.88462493e-02 2.51006812e-01 1.99570596e-01
      8.41967538e-02 9.93792117e-02 1.11915551e-01 5.60250692e-03
      1.26771266e-02 2.21638922e-02 1.92699447e-01 3.62738967e-01
      3.62738967e-01 2.01717436e-01 9.61374566e-02 2.67646480e-02
      8.33964659e-05 4.60512121e-04 2.86527327e-03 3.73346619e-02
      2.34829858e-01 3.55670929e-01 3.05746287e-01 1.14460073e-01
      8.11753608e-03 2.45430763e-03 1.07174115e-02 1.28504904e-02
      7.74487630e-02 2.68027216e-01 2.49028355e-01 9.04469639e-02
      3.67350616e-02 2.93562585e-03 0. 0. 2.06381995e-02 1.88119993e-01
      3.55670929e-01 3.55670929e-01 1.30340874e-01 4.13975790e-02
      1.54174550e-03 5.96785976e-04 2.79450812e-03 6.46778122e-02
      2.15727374e-01 3.55670929e-01 2.66418308e-01 3.53573114e-02
      9.42992326e-03 2.08212528e-04 4.33946140e-02 5.81224002e-02
      3.88666838e-02 1.53909594e-01 3.61950099e-01 2.83718169e-01
      7.88588151e-02 1.74460132e-02 1.49314422e-02 2.05156222e-01
      9.58122537e-02 5.03496714e-02 8.58151987e-02 9.20244232e-02
      6.01369590e-02 6.17177449e-02 8.03973302e-02 1.77501351e-01
      2.77634617e-02 3.83185670e-02 1.37918547e-01 3.91696900e-01
      4.15830374e-01 3.25017393e-01 3.24148014e-02 4.60804859e-03
      3.64201912e-03 1.47709355e-01 9.94467810e-02 9.21739489e-02
      1.94106415e-01 2.59155929e-01 1.10180415e-01 6.57962039e-02
      6.86663762e-02 1.07484013e-01 1.95752047e-02 1.83540732e-02
      1.22637227e-01 2.63851792e-01 2.55560100e-01 5.66687137e-02
      1.32236416e-02 6.55301008e-03 1.93850566e-02 1.56155787e-03
      1.05643021e-02 1.88250214e-01 3.57086122e-01 3.57086122e-01
      5.43098561e-02 7.80307036e-03 5.35555230e-03 7.23890669e-04
      2.20916476e-02 1.85391679e-02 2.77774960e-01 3.57086122e-01
      2.04729065e-01 4.22913656e-02 2.47903671e-02 1.56582042e-03
      2.17577200e-02 1.82531925e-03 5.32739516e-03 3.01111907e-01
      3.57086122e-01 2.81873316e-01 1.74941551e-02 6.31393213e-03
      4.46002139e-03 1.66702317e-03 0. 0. 1.50574118e-01 3.48383278e-01
      3.48383278e-01 6.58819750e-02 7.06577394e-03 1.93619356e-03
      3.76351054e-05 8.37401394e-03 2.01235488e-02 2.55564690e-01
      3.48383278e-01 3.02371770e-01 5.09422980e-02 6.15710905e-03
      4.08627558e-03 4.33820160e-03 2.03132723e-03 8.50305296e-05
      1.88490167e-01 3.48383278e-01 2.94293493e-01 3.86234187e-02
      2.27599610e-02 1.55984443e-02 1.97809562e-03 4.67418879e-02
      2.22799927e-02 1.83145985e-01 3.48383278e-01 1.74539685e-01
      5.23894690e-02 4.83018383e-02 5.36445528e-02 6.05874285e-02
      3.19299027e-02 5.91752939e-02 3.38012666e-01 3.50388438e-01
      3.50388438e-01 5.25554642e-02 1.14003997e-02 3.57416496e-02
      4.50484417e-02 9.25376341e-02 6.42311946e-02 6.41400814e-02
      1.02320395e-01 1.79558948e-01 5.82071878e-02 6.33289665e-02
      1.02315813e-01 1.45847693e-01 1.24793649e-01 9.76496413e-02
      2.43174031e-01 3.50388438e-01 1.73796982e-01 4.98931259e-02
      5.77844344e-02 1.00873075e-01 1.55465186e-01 2.62359917e-01
      2.58130044e-01 1.12198316e-01 1.13394022e-01 1.24326363e-01
      4.03770059e-02 7.75617883e-02 1.30805254e-01 2.20937267e-01
      1.70063842e-02 9.02501028e-03 1.46612704e-01 3.43605369e-01
      3.43605369e-01 5.01143448e-02 2.34134719e-02 7.18659349e-03
      1.70063842e-02 2.13223435e-02 4.80087707e-03 1.35595798e-01
      3.43605369e-01 2.57513791e-01 6.14668764e-02 7.21282512e-02
      8.07836428e-02 3.68468203e-02 1.46436229e-01 1.85283720e-01
      1.80899844e-01 3.43605369e-01 3.43605369e-01 2.64766756e-02
      1.77367013e-02 7.41590606e-03 5.35588004e-02 1.02580175e-01
      1.10994913e-01 2.41738260e-01 2.40265399e-01 1.84128001e-01
      4.44449335e-02 6.79279119e-02 6.82944059e-02 4.83093411e-02
      4.59470376e-02 6.44891942e-03 1.18351318e-01 4.01967824e-01
      3.22946519e-01 8.28949213e-02 1.53726920e-01 2.07683817e-01
      7.09410682e-02 1.51430681e-01 1.83873866e-02 4.39602584e-02
      1.14508793e-01 1.19661704e-01 4.84755337e-02 1.79046050e-01
      2.44150072e-01 2.32006550e-01 1.58192202e-01 1.76591069e-01
      2.35565633e-01 2.34603718e-01 1.99979663e-01 4.28492017e-02
      1.04348108e-01 1.35167956e-01 7.59111121e-02 2.19022095e-01
      2.60528356e-01 1.54224426e-01 9.80677754e-02 1.10620186e-01
      9.68299434e-03 9.55200568e-02 1.04687504e-01 9.82639790e-02
      1.40544012e-01 7.73796812e-02 1.17727906e-01 6.43670484e-02
      3.48046236e-02 1.38492566e-02 7.67498910e-02 1.00692958e-01
      1.53102949e-01 2.09749147e-01 3.90439957e-01 3.63089144e-01
      1.37514383e-01 1.16992267e-02 9.68767330e-03 1.76296737e-02
      1.15476344e-02 8.82284790e-02 1.40319020e-01 2.23313063e-01
      2.58143961e-01 1.18082643e-01 6.25883788e-02 6.65619550e-03
      4.91590127e-02 4.12612446e-02 5.59040047e-02 1.25710085e-01
      3.90439957e-01 3.90439957e-01 2.48207003e-01 8.05719048e-02
      1.92581881e-02 1.03826849e-02 4.80413390e-03 7.21516758e-02</_>
    <_>
      3.41311321e-02 1.79020260e-02 2.11286414e-02 4.95570153e-02
      6.25685602e-02 4.93286625e-02 2.91768499e-02 3.11918743e-02
      3.70050631e-02 1.34133724e-02 5.20915585e-03 8.22096094e-02
      4.64235216e-01 4.64235216e-01 1.73141822e-01 1.58698745e-02
      1.52165983e-02 6.92505948e-03 9.10761654e-02 3.73620801e-02
      6.29496649e-02 1.47426993e-01 8.76350477e-02 5.29234447e-02
      3.23616341e-02 3.85642536e-02 6.74378499e-02 2.76377779e-02
      5.70354797e-03 5.68291619e-02 4.64235216e-01 4.64235216e-01
      1.53590351e-01 1.98507607e-02 2.69543324e-02 1.46090565e-02
      5.27021009e-04 3.95722076e-04 4.57992777e-02 3.46148610e-01
      3.46754283e-01 5.02013974e-02 1.80771516e-03 1.20195176e-03
      2.06089262e-05 5.97117069e-05 0. 1.27584755e-01 3.46754283e-01
      3.46754283e-01 1.58097483e-02 1.47924584e-03 6.24830893e-04
      2.41777161e-03 2.83780566e-04 2.13081119e-04 2.97904108e-02
      3.46754283e-01 3.46754283e-01 4.03582118e-02 3.48538719e-03
      3.42559000e-03 2.40644644e-04 2.55741272e-03 3.19251767e-03
      9.67904702e-02 3.46754283e-01 3.46754283e-01 3.60748805e-02
      1.27784312e-02 5.86738577e-03 2.15216745e-02 1.18828088e-03
      2.40391353e-03 1.18495375e-01 3.52722496e-01 3.52722496e-01
      1.40392277e-02 3.14246118e-03 1.64974597e-03 2.77786050e-03
      2.14532409e-02 7.32585508e-03 2.69058347e-01 3.52722496e-01
      1.26260221e-01 4.56449110e-03 2.74715503e-03 1.64229993e-03
      2.05512010e-02 2.43141688e-03 2.62096873e-03 1.13092639e-01
      3.52722496e-01 3.52722496e-01 3.32497284e-02 1.14066685e-02
      5.69225522e-03 2.32145637e-02 2.48819105e-02 1.49618713e-02
      3.38451982e-01 3.52722496e-01 1.23662159e-01 9.11706313e-03
      4.20519523e-03 1.78010401e-03 3.21080610e-02 3.72803509e-02
      2.74661053e-02 2.12150533e-02 1.22251906e-01 1.63562536e-01
      1.49662480e-01 3.18950862e-02 1.56257618e-02 2.07833070e-02
      2.73587741e-03 7.15934206e-04 1.53662749e-02 3.69057000e-01
      3.69057000e-01 1.34978920e-01 1.33068319e-02 2.55912496e-03
      2.20255274e-03 2.65898630e-02 1.27997845e-02 8.76308046e-03
      6.82534873e-02 1.93548992e-01 3.52506578e-01 1.07541926e-01
      2.15057414e-02 2.88681444e-02 8.91512726e-03 3.27422912e-03
      3.85005795e-03 3.63011837e-01 3.69057000e-01 3.69057000e-01
      2.27076128e-01 1.89996194e-02 2.16202997e-02 3.78325023e-03
      9.95842129e-05 9.66780633e-03 3.18663061e-01 3.18663061e-01
      7.63231292e-02 1.86856054e-02 9.91600566e-03 8.02583713e-03
      2.32678186e-02 7.17143863e-02 2.72442877e-01 3.18663061e-01
      3.00742388e-01 5.29793724e-02 3.40404548e-02 1.63370147e-02
      4.16992567e-02 2.74941195e-02 4.05215397e-02 3.99887189e-02
      2.23632812e-01 3.18663061e-01 3.18663061e-01 1.51198074e-01
      2.80994009e-02 3.32315676e-02 4.92260344e-02 1.67170227e-01
      3.18663061e-01 2.80133128e-01 8.79065543e-02 5.58216721e-02
      5.55240400e-02 2.62361988e-02 5.04546426e-02 1.98765099e-02
      8.46509039e-02 3.24650228e-01 3.24650228e-01 1.90088376e-01
      2.11907122e-02 2.57043988e-02 9.60613135e-03 3.12048942e-02
      7.67070726e-02 9.41400006e-02 2.87476391e-01 3.24650228e-01
      1.52711570e-01 2.95046084e-02 3.66303697e-02 6.33922871e-03
      5.53970709e-02 4.94232625e-02 1.99098676e-01 3.24650228e-01
      3.24650228e-01 5.67808859e-02 8.75432882e-03 1.56299137e-02
      8.68570991e-03 2.38371771e-02 1.96682885e-01 2.75283128e-01
      2.69769162e-01 2.32817933e-01 7.49647468e-02 1.73204020e-02
      2.28289962e-02 3.67938448e-03 6.07884675e-02 1.21448427e-01
      8.79142955e-02 4.78791259e-02 2.24090982e-02 1.83579046e-02
      1.59087986e-01 6.35932609e-02 3.84472869e-02 4.31666449e-02
      2.19952494e-01 6.83666989e-02 2.27556396e-02 1.57320295e-02
      6.10722750e-02 3.70208055e-01 2.79057145e-01 8.15863609e-02
      2.15989172e-01 3.70208055e-01 2.10872620e-01 6.31409213e-02
      1.49078202e-02 4.59758751e-03 3.96987274e-02 1.84245221e-02
      6.45267069e-02 3.07763159e-01 3.70208055e-01 1.39554337e-01
      3.19496840e-02 8.01606197e-03 1.00700045e-02 1.13967910e-01
      8.50051865e-02 1.03346854e-01 3.70208055e-01 2.16731399e-01
      1.40985206e-01 3.61251906e-02 5.95501205e-03 2.79842000e-02
      2.10221916e-01 1.55146688e-01 4.11562398e-02 1.80557370e-01
      2.70389080e-01 2.75204390e-01 2.80391872e-01 6.45448938e-02
      1.10302481e-03 5.25104441e-03 1.95327010e-02 1.49649940e-02
      1.39754146e-01 3.61411035e-01 1.15053669e-01 1.32148741e-02
      1.88513636e-03 3.68975825e-03 4.60671261e-02 4.36996706e-02
      3.57042253e-02 3.61411035e-01 3.61411035e-01 1.73568636e-01
      3.98734547e-02 4.67698602e-03 0. 7.11332832e-05 2.77595618e-03
      1.02990773e-02 3.61411035e-01 2.35087946e-01 2.30406687e-01
      2.74675936e-01 7.31426701e-02 1.76585687e-04 0. 1.59463350e-04
      8.95950012e-03 9.15059000e-02 2.42467806e-01 2.15099081e-01
      8.36360529e-02 6.37995228e-02 9.39128362e-03 0. 0. 1.56402756e-02
      1.21211469e-01 3.48326832e-01 2.52375245e-01 4.17021140e-02
      5.98088978e-03 0. 0. 0. 1.38085978e-02 3.48326832e-01
      3.48326832e-01 3.48326832e-01 9.32813436e-02 2.57632080e-02
      1.62597233e-03 0. 0. 4.43500541e-02 3.24726403e-01</_>
    <_>
      4.36180038e-03 4.36438830e-04 2.51952689e-02 3.01387459e-01
      2.42265239e-01 3.88472676e-02 4.95887036e-03 7.61174073e-04
      4.36180038e-03 0. 1.63700280e-03 2.44393528e-01 3.58466923e-01
      3.58466923e-01 5.15977629e-02 1.32622337e-03 0. 0. 6.46670209e-03
      0. 2.30967682e-02 3.58466923e-01 3.45589519e-01 2.22724043e-02
      7.62407260e-04 1.34324830e-04 6.46670209e-03 0. 0. 1.02040626e-01
      3.58466923e-01 3.58466923e-01 9.38991606e-02 4.63057868e-03 0. 0.
      1.08257715e-04 1.87172741e-02 3.45843643e-01 3.45843643e-01
      3.45843643e-01 9.75124240e-02 5.95768820e-03 1.56642738e-04 0.
      8.83665085e-02 1.31475866e-01 3.06532353e-01 1.91473708e-01
      8.25474635e-02 7.42630139e-02 2.22982243e-02 2.24602371e-02
      3.04674543e-02 0. 3.49596888e-03 1.65745288e-01 3.45843643e-01
      3.45843643e-01 2.32756838e-01 3.02031245e-02 8.87642382e-04 0.
      2.17996407e-02 2.74411850e-02 1.21937767e-01 1.50560737e-01
      2.04479828e-01 2.18969688e-01 7.98198730e-02 3.30085009e-02
      8.62761401e-03 1.31620452e-01 1.26735300e-01 1.53720587e-01
      2.02075318e-01 1.60062760e-01 4.69675586e-02 3.56833749e-02
      7.16652349e-02 6.64150342e-02 4.80995476e-02 1.59540307e-02
      1.07428208e-01 3.58403474e-01 3.58403474e-01 1.06514737e-01
      8.04707333e-02 1.03244759e-01 5.58421575e-02 2.97818445e-02
      2.71100216e-02 7.22698793e-02 3.58403474e-01 3.58403474e-01
      1.08006701e-01 6.69439211e-02 4.28950563e-02 1.15191145e-02
      2.67651994e-02 2.19851471e-02 1.23020038e-01 3.58403474e-01
      3.58403474e-01 4.01979312e-02 6.16160315e-03 9.57349781e-03
      2.12860331e-02 7.58671248e-03 0. 1.57568604e-02 3.42056870e-01
      3.42056870e-01 4.67455573e-02 2.73397309e-04 0. 7.58671248e-03
      9.80347795e-06 0. 3.47535424e-02 3.42056870e-01 3.42056870e-01
      6.31511286e-02 5.81688248e-03 1.78381347e-03 8.13147344e-04
      9.45605058e-03 0. 1.25045152e-02 3.42056870e-01 3.42056870e-01
      1.10608451e-01 4.17804495e-02 3.47216427e-02 1.28061781e-02
      1.86266261e-04 0. 5.97304245e-03 3.42056870e-01 3.42056870e-01
      8.84122625e-02 9.77980569e-02 1.37229979e-01 3.05432118e-02
      2.17464603e-05 5.05585398e-04 8.49119276e-02 3.41529429e-01
      3.41529429e-01 1.52210772e-01 3.76192331e-02 1.28337704e-02
      2.00749887e-03 4.22140723e-03 3.28463712e-03 1.00354865e-01
      2.19958007e-01 3.41529429e-01 1.67418435e-01 8.31804276e-02
      4.99324054e-02 8.42574239e-03 4.13183181e-04 3.98900826e-04
      2.14365833e-02 3.04221451e-01 3.41529429e-01 1.43340290e-01
      1.71116546e-01 2.73845106e-01 6.39151335e-02 2.34379265e-02
      2.47582905e-02 6.04975522e-02 1.17501058e-01 2.12236270e-01
      1.07594147e-01 1.66927025e-01 2.70121366e-01 6.37875646e-02
      2.53693736e-03 1.93670671e-03 4.06356268e-02 2.28160098e-01
      3.77560169e-01 8.35253373e-02 3.31761464e-02 2.43749134e-02
      4.59741661e-03 1.59145519e-02 1.22090112e-02 6.09719269e-02
      3.77560169e-01 3.77560169e-01 8.16008747e-02 3.57098033e-04
      1.58131792e-04 1.58904810e-02 1.82141531e-02 2.34076865e-02
      5.07514365e-02 1.60894915e-01 3.71831328e-01 7.75320381e-02
      6.50868416e-02 1.02909483e-01 3.01409196e-02 2.27842461e-02
      1.17315212e-02 5.10877483e-02 3.77560169e-01 3.77560169e-01
      1.30093977e-01 1.01174213e-04 5.54593978e-04 2.21004412e-02
      1.56377014e-02 5.17511566e-04 1.81318785e-03 6.41405582e-02
      2.21813157e-01 1.72763214e-01 2.40963861e-01 3.26189250e-01
      1.16204061e-01 1.03757608e-04 0. 1.82774398e-04 3.77493501e-02
      5.20601161e-02 1.12357222e-01 3.26189250e-01 3.26189250e-01
      4.66494970e-02 4.82719652e-02 1.59149431e-02 7.29424506e-03
      8.77476577e-03 3.78376357e-02 1.20125964e-01 2.82192826e-01
      3.23789507e-01 1.43265665e-01 1.92416683e-02 4.60647838e-03
      1.24790717e-03 8.73618294e-04 8.36414844e-03 2.43174538e-01
      3.26189250e-01 3.26189250e-01 8.75219405e-02 1.33027468e-04 0. 0.
      1.59787033e-02 1.59986336e-02 6.34709597e-02 3.29709738e-01
      3.29709738e-01 3.88750024e-02 5.49670532e-02 5.67709766e-02
      3.64287086e-02 1.52623029e-02 5.17804548e-03 8.69255885e-03
      2.13608935e-01 3.29709738e-01 8.59743282e-02 1.30781624e-02
      1.44582335e-03 0. 0. 3.24779656e-04 1.64186358e-01 3.29709738e-01
      3.29709738e-01 1.45940483e-01 1.65327191e-01 9.17085484e-02
      4.87291925e-02 1.66058056e-02 8.86948488e-04 1.00862337e-02
      2.86081165e-01 3.29709738e-01 3.29709738e-01 6.81972951e-02
      9.30628851e-02 1.61786452e-01 1.56520665e-01 4.41195443e-02
      5.91652934e-03 9.21777263e-02 1.98632851e-01 6.87912852e-02
      4.01156694e-02 6.25601783e-02 3.43368173e-01 3.43368173e-01
      2.15852708e-01 1.44529026e-02 3.90635600e-04 2.14129756e-03
      2.81195529e-02 2.08640665e-01 1.72136232e-01 2.48803154e-01
      1.39424086e-01 1.92302733e-03 2.68850150e-03 1.26900077e-01
      2.25188255e-01 2.90219784e-01 1.26470879e-01 1.53089672e-01
      3.43368173e-01 3.43368173e-01 6.98935427e-03 0. 1.30211847e-04
      1.78079063e-03 9.02947411e-02</_>
    <_>
      1.30447149e-02 7.53525971e-03 2.47121765e-03 1.51239010e-02
      1.95024267e-01 3.44515473e-01 2.53426999e-01 5.89151643e-02
      1.60454493e-02 4.49187942e-02 2.28745341e-02 2.56797262e-02
      1.37997055e-02 1.41758800e-01 3.44515473e-01 3.44515473e-01
      2.22954482e-01 1.10481091e-01 1.88638084e-02 1.61743648e-02
      5.65655669e-03 1.41107356e-02 8.19618627e-02 3.03690165e-01
      2.00666010e-01 4.85311300e-02 1.73212383e-02 1.35279959e-02
      2.21897289e-03 9.73366899e-04 9.86629818e-03 2.23899931e-01
      3.44515473e-01 3.44515473e-01 1.27611294e-01 4.28245999e-02
      9.94557515e-02 5.69457039e-02 6.53077811e-02 2.06661560e-02
      7.01057464e-02 3.03373784e-01 3.28743428e-01 2.38441512e-01
      1.75521687e-01 9.16225836e-02 7.55227953e-02 5.96678853e-02
      1.30104236e-02 2.78134253e-02 1.99467883e-01 2.98857152e-01
      1.45885706e-01 1.39050782e-01 3.72013003e-02 5.72458887e-03
      4.11207229e-03 1.33689828e-02 2.82103717e-01 3.28743428e-01
      3.28743428e-01 1.45646214e-01 9.30490866e-02 8.80533084e-02
      6.38879165e-02 4.31797020e-02 7.26339146e-02 1.69115067e-01
      2.02174038e-01 2.30787024e-01 1.02243125e-01 1.36035353e-01
      1.69309735e-01 9.99728665e-02 3.57986242e-02 5.51600149e-03
      2.26818863e-02 1.70862377e-01 2.34276623e-01 1.48883015e-01
      1.55751705e-01 3.37126821e-01 3.17237943e-01 2.00323924e-01
      1.72899097e-01 3.33419591e-02 1.39527461e-02 1.12305004e-02
      4.24038135e-02 1.63636088e-01 2.11295620e-01 1.50187895e-01
      1.33874580e-01 1.47285014e-01 1.09596156e-01 9.92613733e-02
      1.40889406e-01 8.55991170e-02 1.16650246e-01 3.37126821e-01
      3.37126821e-01 2.14104250e-01 1.59536675e-01 4.76267077e-02
      4.02197801e-03 2.75466731e-03 2.18543001e-02 2.01191157e-01
      1.16861071e-02 8.24221503e-03 6.38565049e-03 7.15017840e-02
      3.25846434e-01 9.19578001e-02 4.19958979e-02 9.41668078e-03
      1.15586966e-02 7.17123039e-04 8.80610169e-05 1.06231719e-02
      3.18779111e-01 4.06266689e-01 2.89155781e-01 4.26058248e-02
      4.20812238e-03 1.64868729e-03 2.23473739e-02 1.70729607e-02
      1.33900791e-02 1.77896485e-01 3.75436753e-01 7.98923895e-02
      1.49494968e-02 3.86575679e-03 1.40754608e-02 4.20028809e-03
      2.83701322e-03 2.34072804e-02 4.06266689e-01 4.06266689e-01
      1.00512654e-01 2.23172363e-02 6.79291831e-03 4.20028809e-03
      5.18190349e-03 6.49064640e-03 1.81479622e-02 2.78422922e-01
      3.38976771e-01 2.78710246e-01 3.51056606e-02 1.04013160e-02
      5.14251599e-03 3.74899320e-02 7.16743618e-02 9.98460799e-02
      2.93829024e-01 3.38976771e-01 1.63708478e-01 3.27111818e-02
      2.33311616e-02 1.88871454e-02 2.71823555e-02 1.95835140e-02
      3.98337431e-02 3.38976771e-01 3.38976771e-01 9.16977227e-02
      3.23131159e-02 1.58832278e-02 1.39072360e-02 5.72427288e-02
      1.20940909e-01 1.62566602e-01 3.38976771e-01 2.39793152e-01
      1.10955730e-01 7.30875283e-02 2.84112021e-02 2.45769955e-02
      4.70050052e-02 7.17826411e-02 1.50325015e-01 3.29962462e-01
      3.29962462e-01 7.34184310e-02 1.84914563e-02 1.34167206e-02
      1.49570927e-02 2.02810302e-01 1.06553555e-01 1.32061914e-01
      3.29962462e-01 2.91843414e-01 3.01356968e-02 9.41370148e-03
      1.12804286e-02 9.49927568e-02 4.17458303e-02 9.89011973e-02
      1.65595740e-01 3.29962462e-01 2.96425700e-01 8.99851918e-02
      7.58964717e-02 3.48013751e-02 1.83583219e-02 1.47108823e-01
      3.84358764e-02 6.75585493e-02 3.29962462e-01 2.49440864e-01
      4.68518808e-02 5.80255799e-02 8.83725137e-02 7.40958527e-02
      6.77440455e-03 6.79604243e-03 6.24703150e-03 1.43090338e-01
      3.12554300e-01 4.00357619e-02 4.04863153e-03 4.39286372e-03
      5.27724111e-03 4.64188866e-03 2.03529801e-02 1.09098688e-01
      3.87278885e-01 3.87278885e-01 3.38907130e-02 5.17203519e-03
      9.68170003e-04 1.44382962e-03 1.01325316e-02 5.71737904e-03
      5.22063673e-03 1.89546049e-01 3.87278885e-01 8.93102065e-02
      1.45756174e-02 1.44270109e-02 1.60302520e-02 1.64978150e-02
      5.59421368e-02 2.46300384e-01 3.87278885e-01 3.87278885e-01
      5.99628240e-02 6.39318023e-03 1.52949998e-02 6.85113668e-03
      2.32681409e-02 3.83019373e-02 1.65934473e-01 3.48097563e-01
      3.48097563e-01 4.13003080e-02 3.85736041e-02 2.06477921e-02
      3.22026983e-02 5.05489409e-02 5.17088994e-02 8.00163150e-02
      8.97620469e-02 7.32281283e-02 1.20629609e-01 2.83299237e-01
      1.00040093e-01 8.59342515e-02 3.77398320e-02 9.15400907e-02
      3.26511472e-01 3.48097563e-01 3.48097563e-01 8.14606249e-02
      6.17915355e-02 5.64830229e-02 3.66192870e-02 8.96441489e-02
      1.64906502e-01 1.89585000e-01 8.95821527e-02 7.21652508e-02
      1.49102986e-01 2.71862924e-01 1.37779832e-01 9.72211659e-02
      1.21373959e-01 7.83311576e-02 1.34967817e-02 5.77318929e-02
      7.58591741e-02 1.07954443e-01 2.63198018e-01 1.36914313e-01
      1.16458409e-01 3.05649132e-01 1.25270605e-01 2.36598565e-03
      2.33228114e-02 2.42426358e-02 9.50933173e-02 1.96109608e-01
      2.09267318e-01 1.80673093e-01 2.11540475e-01 2.34098434e-01
      1.25109583e-01 5.66451997e-02 4.14934531e-02 8.24152455e-02
      2.01788649e-01 1.14864491e-01 1.72271609e-01 3.05649132e-01
      1.88714072e-01 2.39783954e-02 1.18693467e-02 3.30240317e-02
      2.76488841e-01 3.05649132e-01 1.64040253e-01 2.85045028e-01</_>
    <_>
      2.27040976e-01 8.47174507e-03 0. 4.08784533e-03 2.61457404e-03
      1.75174593e-03 2.40790867e-03 8.06761682e-02 3.43837261e-01
      1.40355453e-01 1.61202718e-02 3.56272940e-04 2.22986075e-03
      2.78123561e-03 2.11034226e-03 1.70007236e-02 2.80072540e-01
      3.43837261e-01 3.02483946e-01 3.89254615e-02 4.28121421e-04
      1.22635365e-02 1.30997952e-02 1.41083384e-02 1.52104320e-02
      1.35983929e-01 3.43837261e-01 3.43837261e-01 1.28904745e-01
      3.66446702e-03 8.53730366e-03 1.14446068e-02 1.02038663e-02
      3.40546072e-02 3.43837261e-01 3.43837261e-01 1.87239185e-01
      1.24488790e-02 4.75506502e-04 0. 3.23193613e-03 1.54273666e-03
      1.83960069e-02 2.08778277e-01 3.15742999e-01 1.76113173e-01
      3.55889881e-03 5.87593997e-04 8.30826029e-05 6.09543733e-03
      6.91638270e-04 1.47052612e-02 2.72813588e-01 3.15742999e-01
      3.15742999e-01 1.25309035e-01 5.68225374e-03 2.48825504e-03
      7.68033229e-03 5.83997415e-03 2.73804478e-02 2.95817882e-01
      3.15742999e-01 3.15742999e-01 8.66859406e-02 3.68897524e-03
      1.13582180e-03 5.74430358e-03 2.33205338e-03 4.96673286e-02
      3.15742999e-01 3.15742999e-01 8.28780532e-02 3.52309132e-03
      9.19024693e-04 1.54263317e-03 5.32652810e-03 6.10566000e-04
      9.76416375e-03 3.38576466e-01 2.42446452e-01 3.94891202e-02
      1.06602600e-02 9.18044988e-03 6.80713495e-03 8.40730313e-03
      4.20663599e-03 1.28479097e-02 1.70967892e-01 1.55923873e-01
      2.48350516e-01 7.96037391e-02 8.20372195e-04 1.56717404e-04
      2.15426134e-03 1.73916121e-03 4.38168384e-02 3.66137356e-01
      3.66137356e-01 3.66137356e-01 1.41238615e-01 5.72645199e-03
      8.43189016e-04 2.93786568e-03 7.85088865e-04 1.01436302e-02
      3.66137356e-01 3.66137356e-01 2.73752689e-01 3.48681927e-01
      5.76157980e-02 7.79495807e-03 3.62181035e-03 2.03574002e-02
      8.70882440e-03 2.32595969e-02 1.75191566e-01 3.48681927e-01
      3.48681927e-01 3.58293951e-02 1.33712115e-02 1.26791857e-02
      1.45510482e-02 3.48543897e-02 2.52737403e-02 9.88509059e-02
      2.28349477e-01 3.48681927e-01 1.82956517e-01 3.14577967e-02
      9.51980334e-03 2.25160047e-02 4.20618802e-03 1.47916395e-02
      1.05499141e-01 3.48681927e-01 3.48681927e-01 1.99550226e-01
      2.62626335e-02 8.55809450e-03 1.29008992e-02 1.32892327e-02
      7.24591175e-03 6.30485639e-02 3.34304929e-01 3.34304929e-01
      1.22140758e-02 8.68681166e-03 1.40927481e-02 1.17137264e-02
      2.34366693e-02 1.72779746e-02 7.52104074e-02 3.34304929e-01
      3.34304929e-01 4.76585003e-03 2.63133575e-03 7.12201884e-03
      3.40594561e-03 1.30833406e-02 8.08685124e-02 1.32697523e-01
      3.34304929e-01 3.34304929e-01 8.38416815e-02 1.22926198e-02
      8.61444697e-03 9.21820756e-03 9.57998913e-03 3.30444030e-03
      9.02797431e-02 3.34304929e-01 3.11551273e-01 4.59582172e-03
      2.79718731e-03 9.46953706e-03 5.91278961e-03 7.15979422e-03
      1.69162471e-02 2.64039308e-01 3.28531295e-01 3.28531295e-01
      5.09983022e-03 6.30650029e-04 2.88605574e-03 1.71520549e-03
      1.16715794e-02 1.11249939e-01 1.64993405e-01 3.28531295e-01
      3.28531295e-01 6.11494808e-03 0. 6.18679449e-03 3.63475730e-04
      2.43451935e-03 1.23402476e-01 3.04436773e-01 3.28531295e-01
      2.55145043e-01 8.80707987e-03 1.96391065e-03 9.52889584e-03
      5.47729619e-03 1.12834331e-02 2.45542247e-02 2.18442619e-01
      3.28531295e-01 2.65030146e-01 1.15175238e-02 5.44262934e-04
      5.87705243e-03 2.16242787e-03 1.14360210e-02 2.38776281e-02
      1.28424257e-01 1.09028868e-01 3.34766805e-01 3.37746203e-01
      1.78091660e-01 4.11497168e-02 1.98046677e-02 1.84951420e-03
      1.74440630e-02 6.79777786e-02 1.95009142e-01 3.37746203e-01
      3.37746203e-01 8.76490474e-02 3.66301425e-02 1.23726884e-02
      5.37563814e-03 7.31186522e-03 3.08532976e-02 4.72288877e-02
      9.45830122e-02 3.37746203e-01 3.37746203e-01 1.69656679e-01
      4.62896004e-02 7.74332846e-04 6.62160164e-04 3.05086635e-02
      7.01168329e-02 1.43721983e-01 3.36032838e-01 1.34365678e-01
      1.15941934e-01 3.26729566e-02 1.18025988e-02 1.29354289e-02
      3.06621678e-02 3.16542029e-01 3.16542029e-01 3.16542029e-01
      7.85000473e-02 4.36111204e-02 1.43226339e-02 2.06693839e-02
      1.25796953e-02 1.14512041e-01 3.16542029e-01 7.73706809e-02
      1.37117412e-02 1.52971521e-01 2.70826817e-01 8.05911049e-02
      6.00047559e-02 7.72031322e-02 3.16542029e-01 1.02343008e-01
      1.13998041e-01 2.11006165e-01 8.64660591e-02 9.93825793e-02
      7.96659961e-02 5.57459295e-02 2.85118874e-02 6.41967058e-02
      4.63175476e-02 1.07566062e-02 1.55509626e-02 2.08655059e-01
      3.16542029e-01 3.16542029e-01 7.21942782e-02 2.94381231e-02
      5.14451340e-02 3.13479036e-01 4.28089835e-02 7.04933610e-03
      1.56171516e-01 3.13479036e-01 9.83671322e-02 9.70067382e-02
      1.22144438e-01 3.13479036e-01 2.66358495e-01 8.85204896e-02
      5.73613755e-02 1.21337377e-01 1.59664571e-01 4.83314954e-02
      9.28728580e-02 1.33399621e-01 1.97455406e-01 9.38205607e-03
      9.97334812e-03 1.23142730e-02 2.55869985e-01 3.13479036e-01
      3.12328905e-01 5.38107269e-02 2.69920956e-02 2.29717959e-02
      4.57757935e-02 3.48398387e-02 9.52971876e-02 2.27242753e-01
      3.13479036e-01 1.30198181e-01 2.88684648e-02 3.58861014e-02
      6.78082779e-02</_>
    <_>
      8.37113932e-02 4.75981385e-02 9.50651616e-03 2.23866180e-02
      2.35029161e-02 2.18552426e-01 3.05333644e-01 8.70967507e-02
      1.75781846e-01 8.79490189e-03 4.08562180e-03 4.00989084e-03
      2.54019573e-02 1.25682518e-01 3.32003117e-01 3.32003117e-01
      2.22504273e-01 1.27525270e-01 7.39822239e-02 4.11730595e-02
      5.38097275e-03 3.95057909e-03 1.03786001e-02 2.62934566e-01
      3.32003117e-01 1.56445816e-01 1.52858615e-01 5.28411567e-03
      2.10836250e-03 7.92331249e-03 6.09756000e-02 1.79383621e-01
      3.32003117e-01 3.32003117e-01 9.77863371e-02 5.90236932e-02
      6.40114886e-04 8.14043859e-04 2.37081293e-03 2.26345416e-02
      1.30362421e-01 3.18085343e-01 3.18085343e-01 1.52927682e-01
      4.94334400e-02 0. 0. 1.74081273e-04 3.55351008e-02 1.83930010e-01
      3.18085343e-01 3.18085343e-01 3.33200544e-02 0. 3.62731842e-03
      9.94942384e-04 5.99243864e-03 7.63608366e-02 2.57903069e-01
      3.18085343e-01 2.92528003e-01 5.50790466e-02 3.00490838e-02 0. 0.
      9.86460829e-04 1.37587085e-01 3.18085343e-01 3.18085343e-01
      1.67798132e-01 5.90931624e-03 0. 0. 0. 6.11042051e-05
      5.20539582e-02 2.03979522e-01 3.21241707e-01 3.05654228e-01
      2.29821634e-02 0. 1.20926350e-02 1.98126101e-04 1.57258252e-03
      4.20154259e-02 1.38769507e-01 3.21241707e-01 3.21241707e-01
      1.98475216e-02 1.22861285e-02 0. 0. 3.85839213e-03 2.07517922e-01
      3.21241707e-01 3.21241707e-01 1.43934324e-01 5.85614517e-03 0.
      3.10955662e-02 2.95305494e-02 6.89116567e-02 2.01048583e-01
      2.46710226e-01 3.21241707e-01 2.12689713e-01 7.97402021e-03
      2.49464121e-02 3.16112563e-02 1.00845494e-03 6.96742281e-05 0.
      3.75885447e-03 1.84267938e-01 3.67897809e-01 1.25473574e-01
      6.29299507e-02 1.03262987e-03 4.87270008e-04 1.59535115e-03
      2.03671716e-02 1.15709066e-01 3.67897809e-01 3.67897809e-01
      1.81598403e-02 2.38125189e-03 2.24963687e-02 1.00847369e-03
      3.88343324e-04 7.41067866e-04 7.09173130e-03 1.30290031e-01
      3.67897809e-01 9.72554013e-02 4.31284532e-02 9.77000687e-03
      1.18592232e-02 6.90919254e-03 1.67768057e-02 2.90358782e-01
      3.67897809e-01 3.67897809e-01 4.00772765e-02 9.17434972e-03
      6.88129803e-04 6.18588296e-04 4.39494895e-03 5.46861365e-02
      2.32713535e-01 3.28986943e-01 2.01908872e-01 7.88964424e-03
      1.29678403e-03 0. 4.95202548e-04 9.67874750e-03 2.37919182e-01
      3.28986943e-01 1.45040706e-01 1.84695274e-02 4.63171490e-03
      1.51151340e-04 1.29083153e-02 2.63724271e-02 6.92985803e-02
      8.12362283e-02 3.28986943e-01 3.28986943e-01 1.79811284e-01
      3.49938683e-02 1.06840320e-02 8.57263431e-03 6.80366457e-02
      3.28986943e-01 3.28986943e-01 3.28986943e-01 1.08646877e-01
      1.08306305e-02 1.98009312e-02 6.25951728e-03 0. 9.22325853e-05
      1.97908077e-02 3.33568305e-01 3.33568305e-01 8.40441063e-02
      2.59383302e-03 0. 0. 3.31289917e-02 5.43851517e-02 1.60293192e-01
      3.33568305e-01 2.11089417e-01 2.54917517e-02 3.48263746e-03 0.
      2.18500085e-02 3.14419594e-05 5.13132699e-02 3.33568305e-01
      3.33568305e-01 3.33568305e-01 4.28673588e-02 5.21835609e-05 0. 0.
      3.18506733e-02 6.21879958e-02 3.11177522e-01 3.33568305e-01
      1.68216914e-01 4.41479217e-03 0. 0. 1.95700862e-02 2.19780207e-02
      1.78549290e-02 2.11930424e-02 2.52598431e-02 6.28718287e-02
      9.94801745e-02 1.69872597e-01 1.11528262e-01 3.53305377e-02
      4.37088683e-02 1.56461239e-01 1.24548338e-01 2.64451832e-01
      3.38740319e-01 3.38740319e-01 2.48200059e-01 1.27691880e-01
      8.18968564e-02 1.65024608e-01 2.06924900e-01 6.12644218e-02
      2.47822776e-02 7.40960911e-02 6.29889145e-02 1.96214505e-02
      5.81039414e-02 6.27232343e-02 2.32972816e-01 2.55650252e-01
      1.92082658e-01 3.01887631e-01 3.38740319e-01 6.83360398e-02
      5.16325980e-02 1.34182826e-01 1.81845888e-01 2.84974799e-02
      1.73460513e-01 2.46997431e-01 1.69227719e-01 3.05611938e-01
      2.07588896e-01 7.62864873e-02 4.56309430e-02 3.70446518e-02
      1.67761408e-02 3.05611938e-01 3.05611938e-01 2.22773269e-01
      1.19922787e-01 3.06563545e-02 7.73203000e-03 1.01087121e-02
      9.49815102e-03 6.90853447e-02 1.54098883e-01 2.10118011e-01
      2.37341017e-01 2.35235065e-01 3.69629040e-02 2.17614304e-02
      4.53021228e-02 6.38453513e-02 3.90686560e-03 1.85963511e-01
      3.05611938e-01 3.05611938e-01 2.53264904e-01 2.22008787e-02
      2.39663129e-03 2.64062546e-03 2.57039233e-03 8.05223885e-04
      3.39828134e-01 3.39828134e-01 3.37768227e-01 9.47094709e-02
      4.50288644e-03 0. 0. 0. 2.95160208e-02 1.75527140e-01
      3.39828134e-01 3.04961711e-01 3.28885987e-02 0. 0. 0.
      1.64056569e-02 6.58819510e-04 1.82986975e-01 3.39828134e-01
      3.00623536e-01 2.00868621e-01 1.39987739e-02 8.31058132e-04 0. 0.
      2.58924179e-02 1.46056861e-01 2.77877957e-01 1.33498117e-01
      6.02740981e-02 4.26881108e-03 3.02573433e-03 1.75134430e-03
      2.12573316e-02</_>
    <_>
      1.08514734e-01 8.16460252e-02 1.68631047e-01 2.73165643e-01
      2.20052063e-01 6.87460303e-02 4.12766486e-02 3.71582732e-02
      9.74864736e-02 3.68690103e-01 2.16039345e-01 1.78878725e-01
      9.63578895e-02 5.73308431e-02 4.02850173e-02 1.58085786e-02
      6.81271628e-02 1.63273066e-01 2.75890261e-01 3.52217883e-01
      1.29212737e-01 8.56643245e-02 6.24358431e-02 6.14818819e-02
      4.36320826e-02 4.24038619e-02 1.10261194e-01 3.68690103e-01
      3.68690103e-01 6.45971969e-02 1.87868234e-02 9.79250949e-03
      1.77316535e-02 1.11297695e-02 2.85724532e-02 1.52476609e-01
      3.60441953e-01 1.94215223e-01 9.47611555e-02 5.69338202e-02
      4.29571681e-02 2.10682340e-02 6.44517224e-03 5.02553657e-02
      1.08481295e-01 3.60441953e-01 2.78141439e-01 5.86607307e-02
      1.77138206e-02 2.91121919e-02 1.13065969e-02 1.83869619e-02
      3.28444093e-02 1.10773057e-01 3.60441953e-01 3.60441953e-01
      7.80583620e-02 1.53718544e-02 9.80572216e-03 1.17094954e-02
      6.50607562e-03 2.49783285e-02 9.10924599e-02 3.60441953e-01
      3.60441953e-01 1.56016588e-01 1.25438450e-02 1.22421579e-02
      8.83023906e-03 2.34688856e-02 6.14437982e-02 9.98175815e-02
      3.28244776e-01 2.73136824e-01 3.58517766e-02 3.70037230e-03
      8.40872247e-03 9.73022729e-03 3.82774211e-02 4.69756834e-02
      1.09312408e-01 3.28244776e-01 2.98981071e-01 8.61479938e-02
      3.74811590e-02 9.24319327e-02 1.87496059e-02 7.90103897e-02
      6.00503907e-02 8.07251856e-02 3.28244776e-01 2.61940897e-01
      9.26774666e-02 5.88297332e-03 4.74932836e-03 1.32235466e-02
      8.20684284e-02 1.29894793e-01 1.48222595e-01 3.28244776e-01
      3.25365573e-01 1.71684176e-01 8.02225918e-02 6.32233247e-02
      2.78970767e-02 1.21740833e-01 1.57491550e-01 2.03446597e-01
      2.05891743e-01 2.58886367e-01 7.05607757e-02 1.55674774e-04
      1.01093063e-03 2.02047010e-03 1.30706094e-03 9.65716597e-03
      9.63154510e-02 3.71291816e-01 2.34700382e-01 3.83187495e-02
      2.84701586e-03 2.69616576e-04 1.64688274e-04 2.14508953e-04
      4.44462569e-03 9.20702890e-02 3.92533332e-01 3.92533332e-01
      5.03017381e-02 1.82273937e-03 0. 2.98985350e-03 2.76110484e-03
      1.47313541e-02 1.82463348e-01 3.92533332e-01 3.92533332e-01
      4.01398242e-02 8.14922713e-03 0. 4.48478153e-03 4.14165761e-03
      3.29591427e-03 1.23606853e-01 3.22047591e-01 2.45587960e-01
      4.66413274e-02 4.78476100e-03 9.77749296e-05 1.96927635e-04
      1.52654568e-04 5.64752892e-03 7.51753598e-02 2.66911685e-01
      1.97005436e-01 5.46579696e-02 3.33159068e-03 1.21425954e-04
      4.92319050e-05 4.82289307e-03 6.29774183e-02 1.92500949e-01
      3.79988879e-01 3.79988879e-01 2.69956011e-02 8.30334239e-03 0.
      3.31423315e-03 7.35337520e-03 5.71030192e-03 1.30113870e-01
      3.79988879e-01 2.56216437e-01 3.98059115e-02 1.46257794e-02 0.
      2.20295019e-03 1.19313849e-02 8.49274248e-02 3.79988879e-01
      2.43337661e-01 1.03245869e-01 4.87794392e-02 1.10746203e-02
      5.14367566e-05 4.62724827e-04 9.72020440e-03 8.23552758e-02
      2.17259303e-01 2.03929394e-01 1.88350365e-01 2.36751884e-01
      2.27242947e-01 8.57135653e-02 1.40160602e-02 8.60994402e-03
      5.10650054e-02 1.54060885e-01 3.33860755e-01 1.50625497e-01
      5.09667993e-02 1.75845157e-02 1.65812780e-05 1.14979257e-03
      7.89936259e-03 1.22627825e-01 3.33860755e-01 2.86793113e-01
      1.40879422e-01 1.31779462e-01 1.96531340e-01 8.06419924e-02
      1.68646872e-02 8.56198836e-03 3.33860755e-01 3.33860755e-01
      3.49091023e-01 3.26173931e-01 1.27962101e-02 2.75826757e-03 0.
      4.52440837e-03 8.05486925e-03 5.59514724e-02 2.11034462e-01
      3.49091023e-01 2.72427619e-01 1.92496665e-02 1.11702494e-02 0.
      6.78661233e-03 8.60247295e-03 2.08531823e-02 1.48387000e-01
      3.49091023e-01 8.19969997e-02 3.22018773e-03 1.58084230e-03
      8.18086695e-03 6.58309227e-03 1.48854300e-01 3.12439620e-01
      2.63506562e-01 3.09676319e-01 9.47285816e-02 2.76694708e-02
      5.02802012e-03 4.49620513e-03 4.81819548e-03 5.94459400e-02
      1.82676703e-01 2.01619431e-01 3.67495567e-01 2.27597371e-01
      2.17511412e-02 1.26454588e-02 0. 5.70244854e-03 1.10826017e-02
      2.27518026e-02 2.39570096e-01 3.67495567e-01 3.22989792e-01
      4.17701490e-02 1.57933775e-02 0. 2.40344927e-03 1.94753725e-02
      4.50066254e-02 2.90192634e-01 3.57772350e-01 1.01617463e-01
      5.20854704e-02 8.64672009e-03 3.95661546e-03 4.29375423e-03
      4.60381880e-02 1.33381411e-01 2.78524786e-01 2.62994200e-01
      1.28778502e-01 3.98104489e-02 6.88729808e-03 5.07977977e-03
      2.32815184e-03 6.39498532e-02 1.49827898e-01 2.64946729e-01
      3.25489968e-01 3.25489968e-01 6.42122850e-02 1.58202723e-02
      3.32882191e-04 6.36472506e-03 2.29732953e-02 6.93229288e-02
      3.25489968e-01 2.64143527e-01 1.05730362e-01 6.04505688e-02
      1.31310020e-02 9.99859720e-03 4.30070870e-02 5.66716827e-02
      3.25489968e-01 3.25489968e-01 2.17825249e-01 1.37225315e-01
      3.35842744e-02 4.77125309e-03 3.98207642e-03 7.04446901e-03
      6.73062354e-02 1.64767653e-01 2.41184920e-01 2.30255947e-01
      7.79346228e-02 4.40106653e-02 6.48611505e-03 1.53188892e-02
      4.83415313e-02 6.86703473e-02 1.88938960e-01 3.25489968e-01</_>
    <_>
      1.99640155e-01 1.01177588e-01 5.20189330e-02 6.40955865e-02
      9.01529342e-02 1.94787368e-01 1.78864732e-01 1.44775957e-01
      1.59837022e-01 1.40171736e-01 2.98062973e-02 2.37433631e-02
      2.75750645e-02 4.80020866e-02 1.50093362e-01 3.73582691e-01
      3.23864698e-01 1.71118885e-01 1.33136496e-01 5.17614149e-02
      1.98283643e-02 3.68474312e-02 5.50602153e-02 1.02579281e-01
      8.82272124e-02 2.17948660e-01 2.55160332e-01 1.54052600e-01
      3.56249735e-02 3.17360647e-02 4.72738184e-02 5.45990281e-02
      2.01949745e-01 3.43070388e-01 3.32296520e-01 1.92937866e-01
      1.15250587e-01 2.05365624e-02 3.02637219e-02 2.92155351e-02
      4.18328866e-02 1.94154665e-01 3.49683911e-01 2.35660121e-01
      9.57680196e-02 9.16115642e-02 2.96791606e-02 4.50669304e-02
      4.92337830e-02 6.00618422e-02 3.04227054e-01 4.22204286e-01
      1.11977696e-01 4.33301404e-02 1.76555097e-01 3.49367596e-02
      4.71988209e-02 4.77478392e-02 3.88934016e-02 1.67748973e-01
      2.83981085e-01 3.01596433e-01 1.37266412e-01 1.68540671e-01
      5.07998019e-02 5.62499985e-02 5.42126372e-02 6.60540983e-02
      1.61412418e-01 2.72393554e-01 2.04495683e-01 1.03329673e-01
      4.67688777e-02 3.23906392e-02 3.06393076e-02 4.26900610e-02
      6.19059056e-02 2.57808477e-01 3.60825390e-01 1.22006334e-01
      4.92763445e-02 1.45906955e-01 1.27091810e-01 4.31203246e-02
      1.45191878e-01 8.25124756e-02 2.05829933e-01 2.63864130e-01
      3.13259780e-01 2.75665402e-01 8.53481293e-02 4.60906178e-02
      3.90881635e-02 3.91128398e-02 8.48128647e-02 1.60409749e-01
      2.51576841e-01 1.78126097e-01 8.67076591e-02 2.85782009e-01
      6.64202645e-02 5.31448610e-02 3.53377387e-02 5.14443181e-02
      1.09122038e-01 1.52711466e-01 2.57754922e-01 2.75388598e-01
      6.90391809e-02 8.84152576e-02 7.59248808e-02 7.12055415e-02
      1.38129786e-01 1.46606266e-01 5.75211532e-02 9.78870392e-02
      1.20148554e-01 8.51609334e-02 4.80840765e-02 4.54806015e-02
      6.36992306e-02 1.08944058e-01 2.65727073e-01 2.41786778e-01
      1.92461520e-01 8.21875930e-02 7.77158812e-02 4.48302962e-02
      4.70162593e-02 2.32576244e-02 1.27922252e-01 2.40992606e-01
      2.83025324e-01 2.68072635e-01 1.74762666e-01 9.59241465e-02
      4.02576402e-02 2.53379792e-02 4.62879129e-02 1.41732529e-01
      3.30354273e-01 4.07282382e-01 3.33809376e-01 1.22743361e-01
      9.27736014e-02 5.25934547e-02 4.69765700e-02 7.25021884e-02
      8.79495889e-02 2.20208496e-01 2.49396637e-01 2.33244896e-01
      8.03073198e-02 9.33157578e-02 8.76229778e-02 5.37687503e-02
      7.77649581e-02 1.92646995e-01 2.55644411e-01 1.61032706e-01
      1.98214710e-01 1.55939519e-01 1.18111067e-01 7.65903145e-02
      3.74032632e-02 7.86342770e-02 1.24724448e-01 2.77271301e-01
      3.65806729e-01 2.79495627e-01 9.03470144e-02 1.19298108e-01
      1.31002888e-01 5.81780113e-02 1.41616851e-01 1.78800285e-01
      2.64275223e-01 1.91873699e-01 1.53710783e-01 1.48230165e-01
      1.01805091e-01 6.24684915e-02 2.82664020e-02 3.21314484e-02
      1.51605517e-01 1.69992849e-01 1.08735971e-01 1.48624644e-01
      1.59734458e-01 2.10382119e-01 6.94593266e-02 6.00216240e-02
      1.11617215e-01 2.33068153e-01 2.19194770e-01 1.38487265e-01
      1.26276016e-01 1.62263423e-01 1.35646045e-01 8.38848129e-02
      3.63896750e-02 7.40430281e-02 1.42654225e-01 1.58592075e-01
      1.28591135e-01 1.12956554e-01 1.74720004e-01 1.88682303e-01
      1.44376650e-01 9.32032540e-02 1.30357221e-01 5.01891494e-01
      3.47625703e-01 1.38577223e-01 7.39037767e-02 1.46388263e-01
      1.26937687e-01 2.18302608e-02 1.98540315e-02 2.18839617e-03
      1.65974330e-02 3.82460803e-02 1.52562201e-01 2.31222168e-01
      2.28568912e-01 1.09219953e-01 2.75122561e-02 1.10555207e-02
      6.60028402e-03 6.15860671e-02 1.52661532e-01 2.89281309e-01
      8.60557258e-02 9.48761031e-02 1.92816824e-01 1.47357797e-02
      1.05646886e-02 1.17836753e-03 1.09193241e-02 1.03324000e-02
      2.30075315e-01 3.93393010e-01 3.65329355e-01 3.57364416e-01
      3.35571170e-02 6.10181829e-03 5.72162739e-04 3.63531634e-02
      5.99900857e-02 1.92852244e-01 2.54465491e-01 3.06086302e-01
      9.18115154e-02 2.55320463e-02 1.46963773e-02 1.23130810e-02
      7.42233098e-02 1.81389570e-01 3.47077310e-01 1.05956830e-01
      8.03940520e-02 9.36971009e-02 2.47210339e-02 1.94117147e-02
      3.39296535e-02 6.40162006e-02 4.77585755e-02 1.87052950e-01
      1.70293003e-01 2.01280311e-01 3.53148490e-01 3.39974612e-02
      1.23809334e-02 3.37611092e-03 4.60350439e-02 7.73466304e-02
      2.57905126e-01 2.74396509e-01 3.02582890e-01 1.16960280e-01
      6.32539988e-02 3.97381447e-02 6.16441295e-02 9.15628895e-02
      2.81790383e-02 2.88127810e-01 3.48960400e-01 2.88784802e-01
      8.03291574e-02 1.89047419e-02 9.44049284e-03 4.29861657e-02
      1.18937634e-01 4.10126708e-02 9.22605991e-02 9.93010700e-02
      1.48236096e-01 7.56836683e-02 6.08126596e-02 1.35720134e-01
      2.14978844e-01 3.95827740e-01 1.17462151e-01 4.14590575e-02
      3.26900817e-02 7.78102949e-02 7.15991259e-02 5.94114996e-02
      6.57864213e-02 1.34199873e-01 2.59893954e-01 3.94017063e-02
      1.28351822e-01 1.60961881e-01 1.52252093e-01 6.55993745e-02
      3.06571759e-02 2.80818194e-01 4.50420380e-01 4.50420380e-01
      1.22377023e-01 2.81120781e-02 2.22324915e-02 7.36461878e-02</_>
    <_>
      3.35243647e-03 5.07969409e-03 2.63969917e-02 1.08251944e-01
      1.51334420e-01 9.78365242e-02 4.40471508e-02 4.48051095e-03
      2.78013921e-03 2.27384758e-03 4.78115417e-02 1.60297275e-01
      4.27736908e-01 4.15718496e-01 6.83218986e-02 1.55651718e-02 0. 0.
      2.22610962e-03 4.60421405e-04 8.72932151e-02 2.99333662e-01
      2.51022547e-01 7.89611414e-02 3.75647619e-02 3.83907184e-03
      2.22610962e-03 0. 2.53177970e-03 1.44508511e-01 4.27736908e-01
      4.27736908e-01 7.34228417e-02 7.34744454e-03 0. 0. 2.76164454e-03
      1.18878491e-01 2.43258163e-01 3.51596355e-01 2.57771373e-01
      1.60013195e-02 2.00811285e-03 0. 0. 1.31086484e-01 3.51596355e-01
      2.72256404e-01 1.66947216e-01 3.06079630e-02 2.11509177e-03
      8.84825736e-03 1.55793885e-02 2.82877609e-02 1.04447512e-03
      2.68240385e-02 1.80736765e-01 3.51596355e-01 3.51596355e-01
      5.27220219e-02 3.43944324e-04 0. 0. 7.83595294e-02 1.92983598e-01
      2.39688039e-01 2.87443519e-01 1.33049697e-01 5.41879348e-02
      7.07920454e-03 1.49998320e-02 1.44511554e-02 2.53543407e-01
      3.05701613e-01 1.80606470e-01 6.00924976e-02 4.53173853e-02
      3.49404477e-02 9.89042670e-02 8.21328014e-02 8.94194320e-02
      1.41285852e-01 5.38179912e-02 1.23815648e-02 1.02032386e-01
      1.65522009e-01 1.95849389e-01 2.94603527e-01 1.60944790e-01
      1.29296839e-01 1.45565838e-01 2.35214293e-01 2.11250171e-01
      2.84963310e-01 2.28002012e-01 8.02564174e-02 6.25934824e-02
      6.23028353e-02 3.89635637e-02 9.18185562e-02 3.52293476e-02
      7.02633336e-02 3.05701613e-01 3.05701613e-01 1.55604899e-01
      1.92814097e-01 9.48133618e-02 6.78672343e-02 2.83216918e-03
      6.75858231e-04 9.58871022e-02 3.13255429e-01 3.13301474e-01
      9.27051008e-02 8.99555720e-03 8.78325300e-05 2.83216918e-03 0.
      4.50572115e-04 1.02135219e-01 3.44661236e-01 3.44661236e-01
      7.70564824e-02 1.90343519e-04 0. 0. 5.29202446e-03 1.19269069e-04
      5.35012931e-02 3.44661236e-01 3.44661236e-01 1.06194720e-01
      1.72836222e-02 2.24113371e-03 5.29202446e-03 0. 7.95127125e-05
      5.10937236e-02 3.44661236e-01 3.44661236e-01 1.81363642e-01
      5.60097359e-02 1.12241041e-02 0. 3.94441631e-05 6.85983896e-03
      7.07651079e-02 3.51389378e-01 3.51389378e-01 1.48996845e-01
      5.92393382e-03 4.82390169e-04 1.81692903e-05 6.94617676e-03
      1.90377273e-02 7.53465295e-02 2.54574358e-01 2.82098174e-01
      1.87872857e-01 2.84404177e-02 2.29156204e-02 1.22517589e-02 0.
      1.43202730e-02 3.37272882e-02 3.41502279e-01 3.51389378e-01
      2.55985796e-01 1.02620296e-01 4.61760685e-02 2.38581956e-03
      1.18802357e-02 3.96312028e-02 6.87345415e-02 2.51742601e-01
      3.37587148e-01 1.37397662e-01 7.07817376e-02 8.33628476e-02
      2.72534154e-02 6.59248978e-03 1.14585580e-02 1.01053052e-01
      3.47246110e-01 2.63912886e-01 1.10719010e-01 1.87773667e-02
      1.86524689e-02 9.74477362e-03 1.05880409e-01 7.72564262e-02
      1.50863811e-01 3.47246110e-01 2.65390158e-01 4.39659581e-02
      1.36617664e-02 3.64634092e-03 6.48023039e-02 9.66051221e-03
      2.40866337e-02 7.78277069e-02 3.47246110e-01 3.47246110e-01
      1.06898248e-01 2.29521412e-02 4.07813229e-02 1.94400605e-02
      9.34449211e-02 6.08270615e-02 1.36522695e-01 3.47246110e-01
      3.47246110e-01 8.86967406e-02 1.42884825e-03 3.05932132e-04
      5.99332340e-02 7.84155261e-03 3.98173492e-04 3.92956380e-03
      1.82517588e-01 3.09616417e-01 2.62601286e-01 1.62053794e-01
      2.03067541e-01 4.07698266e-02 5.78635845e-05 4.16109069e-05
      2.41678488e-03 6.38360083e-02 1.69672295e-01 2.39866450e-01
      3.09616417e-01 2.62986809e-01 1.56796090e-02 2.68653911e-02
      1.58301163e-02 1.34779597e-02 1.60671063e-02 9.62221473e-02
      1.99443921e-01 2.01116830e-01 3.09616417e-01 8.81645083e-02
      1.46275545e-02 6.52502570e-03 8.34727194e-03 6.06960524e-03
      2.95101795e-02 2.85810381e-01 3.09616417e-01 3.09616417e-01
      6.84164390e-02 0. 1.15184777e-03 9.36731230e-04 1.85316075e-02
      8.32786784e-02 1.90615118e-01 3.28705043e-01 3.07486326e-01
      1.52163394e-02 4.41130325e-02 6.56046197e-02 5.12285717e-02
      1.07137784e-01 8.21580067e-02 2.81045660e-02 1.30476579e-01
      3.05354327e-01 1.37810364e-01 1.31629007e-02 9.52884788e-04
      2.54844525e-03 1.57700002e-03 1.21594183e-02 2.14854643e-01
      3.28705043e-01 3.28705043e-01 1.11727327e-01 1.97380185e-01
      1.11596622e-01 8.64008665e-02 6.42606691e-02 6.77142618e-03
      6.16434542e-03 1.97152108e-01 3.28705043e-01 3.28705043e-01
      4.20289859e-02 6.70626983e-02 7.80224353e-02 3.21136177e-01
      2.59454817e-01 1.76780690e-02 1.96938850e-02 1.19024187e-01
      9.64749455e-02 2.76170447e-02 3.21530513e-02 1.47050247e-01
      3.21136177e-01 3.21136177e-01 1.91887878e-02 0. 0. 1.87775902e-02
      2.04108149e-01 1.44586354e-01 1.89488947e-01 3.17480832e-01
      5.37013263e-02 1.35988303e-04 4.71542813e-02 1.64790064e-01
      2.49072939e-01 1.02531441e-01 1.10785909e-01 3.21136177e-01
      3.21136177e-01 1.86570197e-01 7.05633406e-03 0. 2.80313019e-04
      4.42130789e-02</_>
    <_>
      4.39130850e-02 3.37466262e-02 9.36913043e-02 3.33147973e-01
      3.33147973e-01 1.00124687e-01 1.41172828e-02 9.92304366e-03
      3.84296812e-02 3.66802923e-02 3.66318785e-02 3.18970047e-02
      1.29020214e-01 2.52557576e-01 1.04300968e-01 3.33147973e-01
      1.58349067e-01 6.29545152e-02 1.08456211e-02 5.10224700e-03
      4.14910093e-02 3.33147973e-01 3.33147973e-01 1.85680494e-01
      1.79845206e-02 8.47577292e-04 9.40556731e-03 1.34280361e-02
      2.54137907e-02 3.37509699e-02 2.35099256e-01 3.33147973e-01
      2.38617927e-01 1.61998510e-01 6.91148043e-02 3.31288762e-02
      1.29541187e-02 1.38619924e-02 1.24723343e-02 3.49105336e-02
      5.36008626e-02 1.17321253e-01 3.11376542e-01 2.25779518e-01
      4.35176603e-02 3.03161680e-03 7.46040884e-03 8.10954794e-02
      1.78516403e-01 3.11376542e-01 2.79397666e-01 2.66517192e-01
      2.63809025e-01 5.34358695e-02 8.54622480e-03 1.75366458e-02
      2.41268333e-02 7.32902437e-02 1.68664381e-01 3.11376542e-01
      1.89984038e-01 8.75112042e-02 2.74983551e-02 2.56525491e-05
      7.59097561e-03 4.32200469e-02 1.61558360e-01 3.11376542e-01
      3.11376542e-01 2.29437426e-01 1.23748094e-01 7.44558051e-02
      1.97228491e-02 2.69063544e-02 1.50104672e-01 2.12035343e-01
      2.51043975e-01 1.59291610e-01 1.21963449e-01 1.15978576e-01
      5.64985760e-02 9.13898423e-02 5.74694835e-02 1.85824677e-01
      1.86749011e-01 1.99097171e-01 2.10695520e-01 1.93277195e-01
      2.05844164e-01 2.17396289e-01 2.06688279e-03 1.65704526e-02
      8.40717182e-02 1.92659289e-01 2.51043975e-01 2.51043975e-01
      1.36979520e-01 9.23515856e-02 7.97265097e-02 5.52508794e-02
      3.74637172e-02 1.38365358e-01 2.32853055e-01 2.50626981e-01
      2.30058715e-01 1.41249537e-01 1.90247536e-01 2.51043975e-01
      5.00905840e-03 1.21242985e-04 2.96592480e-03 1.48642972e-01
      3.38026613e-01 3.38026613e-01 7.50729516e-02 0. 5.00725117e-03
      4.00614087e-03 1.20471772e-02 2.18283664e-02 8.78184959e-02
      3.38026613e-01 3.12797278e-01 1.37977943e-01 1.95409376e-02
      1.23953680e-02 8.26148409e-03 0. 0. 1.98117085e-02 3.38026613e-01
      3.38026613e-01 1.19036622e-01 2.39329835e-04 8.79529025e-03
      2.54439190e-03 1.13794142e-02 7.01113371e-03 6.19324148e-02
      3.38026613e-01 3.38026613e-01 1.54934093e-01 1.91174317e-02
      1.16315158e-02 4.33891127e-03 1.13927815e-02 1.91282984e-02
      4.68790419e-02 2.46639594e-01 3.31399947e-01 1.39525235e-01
      2.52906680e-02 1.70795582e-02 1.22460246e-03 2.62811058e-03
      6.43082336e-03 4.66101579e-02 3.41821074e-01 3.41821074e-01
      1.73359007e-01 1.73656121e-02 1.44323194e-02 3.60924215e-03
      1.69722997e-02 1.80938691e-02 7.26015642e-02 3.41821074e-01
      3.41821074e-01 1.46805704e-01 2.76694950e-02 1.85831599e-02
      1.85218209e-03 1.02157947e-02 1.81815457e-02 9.72829163e-02
      3.41821074e-01 3.41821074e-01 1.73543274e-01 1.60775613e-02
      1.18817221e-02 2.03766814e-03 1.47264951e-03 8.18891637e-03
      4.92123775e-02 3.39098781e-01 3.40782672e-01 1.03002362e-01
      7.39809312e-03 9.47884284e-03 2.68844068e-02 2.68310960e-03
      2.71426197e-02 8.28132182e-02 3.40782672e-01 3.40782672e-01
      3.69971767e-02 1.26242433e-02 4.42177467e-02 1.09720614e-03 0.
      5.59345307e-03 6.55962303e-02 3.40782672e-01 3.40782672e-01
      8.71056616e-02 8.99041697e-05 1.12538564e-03 9.47783049e-03 0.
      7.50280544e-03 1.76968992e-01 3.40782672e-01 3.40782672e-01
      1.16608748e-02 0. 9.78433248e-03 1.50477337e-02 1.55520916e-03 0.
      6.05544948e-04 1.95657268e-01 3.63155156e-01 1.51791885e-01
      1.83373084e-03 1.38429450e-02 7.28212617e-05 7.96076935e-03
      2.77182856e-03 1.81264766e-02 3.63155156e-01 3.63155156e-01
      1.81191757e-01 1.73683316e-02 4.47836611e-03 1.94912460e-02
      2.00671051e-03 0. 1.46299545e-02 1.76726669e-01 3.63155156e-01
      1.60447285e-01 1.20981340e-03 1.38712600e-02 0. 1.07683521e-03
      1.55939604e-04 5.51253138e-03 3.03741932e-01 3.63155156e-01
      3.02559346e-01 7.81219546e-03 1.82768644e-03 4.51363623e-04
      1.36272293e-02 6.99192518e-03 3.63210216e-02 3.27718377e-01
      3.31087351e-01 1.46168932e-01 3.36926132e-02 1.43480720e-02
      2.15762551e-03 9.08481888e-03 6.53387886e-03 6.17618859e-02
      3.31087351e-01 3.31087351e-01 1.51553288e-01 3.17262858e-02
      1.67181864e-02 9.80125042e-04 1.84332416e-03 2.66937102e-04
      5.38150128e-03 2.22256541e-01 3.31087351e-01 2.85529286e-01
      1.94918066e-02 1.15086176e-02 8.27073772e-03 1.22888270e-03
      1.77958049e-04 1.97915081e-02 2.12130159e-01 3.31087351e-01
      3.31087351e-01 4.15727124e-02 2.14562882e-02 1.18750276e-03 0.
      3.73356231e-03 5.71355671e-02 3.14505070e-01 3.14505070e-01
      1.35156795e-01 7.77990604e-03 4.48981766e-03 1.09654572e-02 0.
      3.14469673e-02 3.14505070e-01 3.14505070e-01 2.95025438e-01
      5.67097105e-02 1.32194010e-03 1.09654572e-02 5.00653964e-03 0.
      8.55309016e-04 3.79152633e-02 2.20975503e-01 3.14505070e-01
      2.74800122e-01 2.35419963e-02 8.85162223e-03 1.45481797e-02 0.
      1.38266785e-02 2.35605150e-01 3.14505070e-01 3.14505070e-01
      9.36600864e-02 3.28944623e-03 1.45481797e-02</_>
    <_>
      4.04189900e-02 1.18932150e-01 1.73903659e-01 1.69267908e-01
      3.54930401e-01 1.08487442e-01 3.38230166e-03 1.44998572e-04
      1.54072586e-02 1.11828689e-02 5.77136017e-02 1.80361688e-01
      3.54930401e-01 2.69873679e-01 1.22498281e-01 1.96253508e-02
      2.78366235e-04 0. 1.38015281e-02 3.46962392e-04 2.41533499e-02
      2.02613473e-01 3.54930401e-01 2.13561207e-01 4.00814414e-02
      2.75497581e-03 1.38015281e-02 7.90253561e-03 2.49818768e-02
      1.06314637e-01 3.54930401e-01 3.54930401e-01 2.25717053e-01
      5.91043755e-02 2.05103680e-03 1.12202868e-03 0. 1.87728349e-02
      1.52981505e-01 3.42322588e-01 2.61874616e-01 1.10435285e-01
      2.62243338e-02 1.08846428e-03 1.81211438e-03 1.13914181e-02
      3.96847092e-02 1.57694072e-01 3.42322588e-01 2.62638807e-01
      1.20999873e-01 6.14390299e-02 4.61645471e-03 8.23390950e-03
      1.19780488e-02 3.52424942e-02 1.20384306e-01 3.42322588e-01
      2.96388328e-01 2.25903824e-01 1.02663614e-01 5.59882401e-03
      6.50844164e-03 8.16914998e-03 4.15392891e-02 8.72954875e-02
      2.00908855e-01 2.42603704e-01 3.28893960e-01 2.07662538e-01
      1.30682308e-02 1.66766122e-02 4.12298627e-02 8.64896178e-02
      2.03602418e-01 2.57890552e-01 2.95625925e-01 1.61951438e-01
      1.00431673e-01 4.93464321e-02 3.53631154e-02 6.07266463e-02
      4.29089665e-02 3.91077101e-02 2.67109424e-02 6.04384877e-02
      1.15587607e-01 1.70986503e-01 1.89364254e-01 1.31600916e-01
      1.44193610e-02 6.11578971e-02 9.52655300e-02 2.04308003e-01
      3.91836047e-01 4.02552336e-01 2.67380893e-01 5.55207022e-02
      2.39733085e-02 4.40325737e-02 3.09063271e-02 8.06898847e-02
      1.42065331e-01 1.97714612e-01 1.92734495e-01 2.73309439e-01
      1.28488764e-01 4.13624085e-02 1.17470343e-02 4.45568076e-05
      2.88350303e-02 2.59906411e-01 3.51372987e-01 1.18400507e-01
      1.46612711e-02 1.08452886e-03 1.17470343e-02 2.15305183e-02
      3.79025340e-02 8.25699419e-02 3.51372987e-01 3.51372987e-01
      7.89016038e-02 1.41793163e-02 1.87913876e-03 9.62386467e-03
      1.21491160e-02 1.34468277e-03 1.28956422e-01 3.51372987e-01
      3.51372987e-01 7.28521645e-02 3.96673707e-03 1.65308779e-03
      1.23576438e-02 1.20032523e-02 1.75582170e-02 5.25355227e-02
      3.51372987e-01 3.51372987e-01 9.26546305e-02 1.86778617e-03
      5.30118239e-04 7.46428920e-03 6.88904226e-02 8.79604965e-02
      1.50506586e-01 3.93909276e-01 3.97274047e-01 9.79325399e-02
      3.84712219e-02 1.78553909e-02 6.78306594e-02 7.09223375e-02
      4.01880033e-02 5.35550788e-02 9.87861902e-02 2.19723552e-01
      3.00534487e-01 1.06720529e-01 4.88996617e-02 1.11341432e-01
      5.90274967e-02 5.36019914e-02 1.05619371e-01 3.97274047e-01
      3.97274047e-01 9.46058482e-02 5.90146054e-03 1.58499777e-02
      6.64217249e-02 1.29572302e-01 8.23937878e-02 8.05366710e-02
      9.27026644e-02 1.58749565e-01 7.92740509e-02 3.71343493e-02
      6.62939623e-02 1.58537120e-01 4.41131555e-02 2.22803634e-02
      3.71885337e-02 2.01785862e-01 3.24079931e-01 4.17843163e-01
      1.65433526e-01 5.31219356e-02 6.88926652e-02 5.01136892e-02
      1.73591748e-02 6.22601323e-02 1.96088836e-01 2.31715649e-01
      2.86947191e-01 1.90155461e-01 4.71639372e-02 4.99835648e-02
      1.15563326e-01 1.15102299e-01 8.33242461e-02 1.51326671e-01
      2.45439187e-01 1.99402228e-01 7.54518062e-02 6.35468662e-02
      1.19340859e-01 5.40540032e-02 9.78133753e-02 1.23976961e-01
      2.24188969e-01 2.75548577e-01 2.58367807e-01 9.75971296e-02
      1.89105645e-02 5.97343035e-02 1.70455258e-02 2.46295216e-03
      5.05307019e-02 1.35161653e-01 2.48884514e-01 1.35280579e-01
      1.32979363e-01 1.22285940e-01 2.20020451e-02 3.97369673e-04
      4.09648055e-03 1.73833538e-02 1.60881966e-01 3.38922203e-01
      3.38922203e-01 2.07651228e-01 2.34801490e-02 4.47684957e-04
      2.16269717e-02 6.83410151e-04 4.32308484e-03 4.38635536e-02
      2.46688172e-01 2.08547741e-01 3.38922203e-01 1.71630666e-01
      2.62470227e-02 1.57422928e-05 2.48193217e-04 3.47231911e-03
      3.96866389e-02 2.76435763e-01 3.38922203e-01 3.38922203e-01
      5.48375323e-02 4.27067309e-04 1.77909900e-02 2.69128103e-02
      3.93179879e-02 1.43645361e-01 3.70980650e-01 3.53901476e-01
      2.17354387e-01 6.01676069e-02 2.41057724e-02 1.05868593e-01
      6.27438575e-02 4.14685756e-02 2.36190315e-02 5.51233217e-02
      3.05741820e-02 6.74781054e-02 1.21311650e-01 1.40913159e-01
      5.85269323e-03 6.30258024e-03 9.14147869e-03 2.79103797e-02
      2.23442376e-01 3.70980650e-01 3.70980650e-01 1.66497052e-01
      2.47902051e-02 4.37923558e-02 1.48181841e-02 8.83632060e-03
      6.87159970e-03 3.75391506e-02 1.22558743e-01 2.85462618e-01
      3.39879602e-01 1.67576835e-01 1.70119554e-01 1.29885003e-01
      6.97779134e-02 1.63312685e-02 5.93267791e-02 3.48217860e-02
      7.69924521e-02 1.52210742e-01 2.00359523e-01 8.33880827e-02
      1.67899743e-01 1.58185542e-01 1.27877936e-01 1.04362234e-01
      8.93043354e-02 1.00715913e-01 7.10787177e-02 7.69619197e-02
      7.32457861e-02 2.56722532e-02 1.32255666e-02 3.05060623e-03
      5.58989830e-02 2.09009156e-01 3.64702225e-01 3.92480433e-01
      2.58085102e-01 6.94828928e-02 4.45408300e-02 3.30134928e-02
      4.53482792e-02 1.02900505e-01 3.96778405e-01 3.71133626e-01
      1.30419597e-01 1.22475371e-01</_>
    <_>
      2.44277883e-02 1.17239933e-02 7.19730370e-03 2.27562916e-02
      8.42163637e-02 1.87087119e-01 2.46790901e-01 1.79299727e-01
      6.25510365e-02 1.54940579e-02 1.74164735e-02 6.12781569e-03
      3.92810069e-02 2.40842462e-01 3.45914602e-01 3.45914602e-01
      1.26573637e-01 3.69095281e-02 6.57637492e-02 4.78870720e-02
      3.03142630e-02 6.46582758e-03 9.10153612e-03 8.72692764e-02
      2.90802032e-01 3.45914602e-01 1.13224700e-01 1.98559072e-02
      1.46170324e-02 2.92743230e-03 1.98686365e-02 1.76849380e-01
      3.45914602e-01 3.45914602e-01 1.85285747e-01 3.31883021e-02
      6.35941932e-03 8.53580795e-03 2.85312952e-03 2.62374226e-02
      3.11795175e-01 3.26694310e-01 2.39562228e-01 3.96373346e-02
      6.45251712e-03 7.93476880e-04 1.30291242e-04 0. 6.37149662e-02
      3.26694310e-01 3.26694310e-01 7.97478929e-02 1.04911963e-03 0.
      1.34644639e-02 8.12092889e-03 4.13874118e-03 4.08513397e-02
      2.84919262e-01 3.26694310e-01 2.81362295e-01 3.36847827e-02
      8.25986452e-03 3.27137229e-03 3.90873727e-04 4.61562909e-03
      1.55473888e-01 3.26694310e-01 3.26694310e-01 3.44762355e-02
      4.50971117e-03 4.18988336e-03 9.45942083e-05 1.21973269e-03
      1.76826399e-03 7.57981613e-02 3.57360572e-01 3.57360572e-01
      1.26204386e-01 8.90183510e-05 0. 1.03419218e-02 6.68167183e-03
      5.16777858e-03 2.24592071e-02 1.67156652e-01 3.57360572e-01
      1.66209087e-01 2.59006582e-03 7.85294268e-03 3.56670673e-04
      2.08199397e-03 6.46281056e-03 1.85605600e-01 3.57360572e-01
      3.57360572e-01 4.78730723e-02 7.81493582e-05 2.21484413e-04
      1.31922336e-02 4.93000448e-03 7.45785609e-03 5.88902570e-02
      3.23484123e-01 3.57360572e-01 8.30106586e-02 1.28936983e-04
      1.23369936e-02 7.99140409e-02 6.30820096e-02 9.83068198e-02
      1.22850187e-01 3.45943198e-02 4.22168337e-02 2.39998132e-01
      2.05204427e-01 4.83182818e-02 1.76755060e-02 1.58815347e-02
      1.05203846e-02 1.35601242e-03 3.14992487e-01 3.62000525e-01
      3.62000525e-01 1.36244819e-01 3.60763557e-02 4.02498618e-02
      4.39245887e-02 8.96124318e-02 2.53326327e-01 1.22409999e-01
      1.02818221e-01 1.11364506e-01 6.86391145e-02 2.40880605e-02
      4.70178388e-02 7.88411647e-02 3.39519307e-02 2.02571545e-02
      3.62000525e-01 3.62000525e-01 2.57757336e-01 1.08743601e-01
      7.10177645e-02 9.58002545e-03 1.17604993e-02 4.68444936e-02
      8.76649916e-02 2.40121901e-01 3.10292333e-01 2.04945996e-01
      2.12804824e-02 3.13885026e-02 6.21150574e-03 1.15809562e-02
      1.13968171e-01 3.10292333e-01 3.10292333e-01 1.89830169e-01
      8.09322391e-03 3.91720887e-03 2.06179023e-02 5.67806475e-02
      1.12806134e-01 8.44541714e-02 7.23404437e-02 3.10292333e-01
      3.10292333e-01 9.32022035e-02 4.31537144e-02 5.41409664e-02
      6.03504851e-02 1.90449163e-01 2.78747886e-01 3.10292333e-01
      3.10292333e-01 4.61819060e-02 3.96643346e-03 7.90707301e-03
      1.99676212e-02 1.07010715e-02 3.62832770e-02 1.44270495e-01
      3.47613901e-01 3.47613901e-01 1.54887065e-01 3.60096851e-03
      3.71284841e-04 1.12339738e-03 5.29767051e-02 1.17481962e-01
      1.07705235e-01 1.75230384e-01 1.86777517e-01 2.38107681e-01
      6.15439145e-03 5.56927291e-04 2.32790988e-02 7.21022040e-02
      2.03211248e-01 3.47613901e-01 3.47613901e-01 3.33812207e-01
      2.21588612e-02 3.89616267e-04 1.74107059e-04 3.05146072e-03
      1.79984957e-01 2.25342721e-01 1.86580151e-01 1.76920474e-01
      4.73715179e-02 2.42961422e-02 2.92883231e-03 5.21722017e-03
      7.26512223e-02 3.92973907e-02 4.53610420e-02 1.05806500e-01
      2.19461352e-01 1.20366558e-01 7.12350681e-02 1.93485636e-02
      1.12293586e-02 4.49166894e-02 1.75662816e-01 2.38873556e-01
      3.02695304e-01 3.37926745e-01 2.43159711e-01 1.99226275e-01
      6.55773208e-02 9.93961096e-02 1.49602801e-01 1.45407066e-01
      1.24220498e-01 8.29837248e-02 1.48175508e-01 8.65636244e-02
      3.03787421e-02 2.55728886e-02 1.19929630e-02 8.86628628e-02
      1.08544968e-01 2.05933824e-01 3.37926745e-01 3.37926745e-01
      3.37926745e-01 1.53412139e-02 1.33822495e-02 1.70881636e-02
      4.99539040e-02 1.70508757e-01 3.00843924e-01 2.79441595e-01
      1.83367059e-01 1.19301766e-01 9.12074968e-02 3.10946889e-02
      5.81423081e-02 1.06892139e-01 2.24574298e-01 3.00843924e-01
      3.00843924e-01 2.38869444e-01 4.67379093e-02 6.82978285e-03
      5.76818269e-03 9.55130253e-03 3.89047377e-02 7.26922452e-02
      1.78637460e-01 2.70224005e-01 3.00843924e-01 2.19607353e-01
      2.30746716e-02 8.21693428e-03 7.64796743e-03 2.29075346e-02
      1.17084555e-01 2.32158393e-01 3.00843924e-01 1.34828717e-01
      7.42985085e-02 3.66064012e-02 3.55743691e-02 1.08148670e-02
      1.82447527e-02 3.01555872e-01 3.43641669e-01 3.43641669e-01
      3.21934581e-01 5.34448326e-02 1.12709654e-02 2.04050019e-02
      2.05791723e-02 3.51785496e-02 2.69263595e-01 2.33028531e-01
      9.05731842e-02 6.20686822e-02 6.70380518e-02 5.38017116e-02
      6.51679784e-02 6.46876320e-02 1.29031584e-01 1.80997923e-01
      2.58796960e-01 3.43641669e-01 1.11699961e-01 7.80744031e-02
      4.70723882e-02 7.27974251e-02 3.52710970e-02 3.46903540e-02
      1.01762235e-01 9.40665677e-02 4.55596298e-02 1.23065688e-01
      2.94747472e-01 8.71965587e-02 8.19450542e-02 5.30298762e-02
      5.12442738e-02</_>
    <_>
      3.55047523e-03 0. 6.66871993e-03 2.67889053e-01 3.55528802e-01
      1.29607424e-01 2.10197475e-02 8.59522028e-04 3.72375688e-03 0.
      3.39225167e-03 8.77606273e-02 3.74412596e-01 3.74412596e-01
      8.98531154e-02 5.22574084e-03 0. 0. 4.40383609e-03 0.
      4.38656472e-03 2.65001833e-01 3.74412596e-01 1.66440010e-01
      1.79646276e-02 0. 4.40383609e-03 0. 4.09547152e-04 1.08270701e-02
      2.77970225e-01 3.74412596e-01 1.68648630e-01 9.63415764e-03 0. 0.
      7.18398718e-03 2.46169381e-02 1.78506956e-01 4.00204241e-01
      4.00204241e-01 5.93783744e-02 6.38613757e-03 1.57258590e-03
      2.58879154e-03 2.58819107e-02 4.03372273e-02 1.14328280e-01
      2.24412769e-01 1.89940229e-01 6.11967295e-02 1.11630954e-01
      3.60596292e-02 1.49413850e-02 1.10795535e-03 4.73405514e-03
      2.51936335e-02 2.29819849e-01 4.00204241e-01 1.70837507e-01
      2.28156541e-02 5.92774292e-03 8.83171568e-04 4.43182001e-03
      1.02196187e-02 6.36218414e-02 3.04928780e-01 4.00204241e-01
      1.31897926e-01 4.18177918e-02 1.35984886e-02 3.53268511e-03
      2.29345132e-02 3.28333601e-02 8.09468552e-02 3.28340888e-01
      2.87284285e-01 1.00046873e-01 1.96201146e-01 7.16544688e-02
      2.04620436e-02 1.24220885e-01 9.92866382e-02 9.32623148e-02
      2.15502977e-01 1.47688285e-01 8.02564546e-02 1.23234764e-01
      7.76711479e-02 8.92636254e-02 3.96542717e-03 2.00442169e-02
      1.41716719e-01 3.56599003e-01 3.56599003e-01 1.63969204e-01
      4.15254533e-02 1.20809060e-02 3.21386312e-03 1.35686859e-01
      1.70962334e-01 2.45879382e-01 3.56599003e-01 2.30205745e-01
      7.38890767e-02 3.62072885e-02 1.86486784e-02 8.39638263e-02
      6.63473457e-03 0. 4.35816852e-04 1.11019298e-01 3.72033656e-01
      2.04855710e-01 4.07034298e-03 0. 6.63473457e-03 0. 0.
      2.67887022e-04 9.23976749e-02 3.72033656e-01 3.01649958e-01
      5.18309250e-02 4.56998497e-03 4.77873837e-05 1.30276131e-02 0. 0.
      5.02782464e-02 3.72033656e-01 3.53809953e-01 3.91949043e-02
      1.26502221e-03 1.35133406e-02 1.71333610e-04 8.78230028e-04 0.
      3.80571932e-02 3.72033656e-01 3.72033656e-01 1.25240982e-01
      2.95007024e-02 4.68321989e-04 6.45925291e-04 2.58675264e-03
      2.78564170e-03 6.66332021e-02 3.30997735e-01 3.30997735e-01
      1.31576464e-01 4.80581224e-02 8.28377611e-04 1.45371584e-02
      1.15685808e-02 1.46252029e-02 1.16844535e-01 2.79720426e-01
      3.30997735e-01 1.12563439e-01 1.00303337e-01 1.11797564e-02
      6.77448348e-04 3.30876396e-03 8.60768560e-05 2.91304085e-02
      3.30997735e-01 3.30997735e-01 2.57845938e-01 1.50718689e-01
      3.68595752e-03 3.78762670e-02 1.87296737e-02 2.46028397e-02
      4.13432308e-02 9.22903940e-02 2.14649379e-01 2.36564919e-01
      3.18671733e-01 5.67944013e-02 1.24297598e-02 7.93550257e-03
      2.97614653e-02 1.32892787e-01 3.15555274e-01 3.48387063e-01
      3.78630869e-02 4.55123708e-02 8.61098059e-03 3.17926295e-02
      4.40530032e-02 1.26258746e-01 1.92588255e-01 3.48387063e-01
      2.78584152e-01 2.79161584e-04 3.90056666e-05 2.50013769e-02
      3.75820510e-02 2.01310981e-02 4.11210656e-02 1.10398851e-01
      2.57671624e-01 2.53912449e-01 9.61724669e-02 1.58106744e-01
      4.99863401e-02 3.15633900e-02 1.76462512e-02 8.50103125e-02
      3.48387063e-01 3.48387063e-01 2.49144852e-01 3.28609371e-04
      3.24522611e-03 3.10400277e-02 3.27474028e-02 1.23242161e-03
      2.50192039e-04 2.28769686e-02 3.26620340e-01 3.30157727e-01
      2.87135810e-01 1.26230925e-01 4.79577743e-02 1.49046478e-03
      2.34212168e-03 0. 5.58133563e-03 1.44597560e-01 2.52446383e-01
      3.30157727e-01 2.49481201e-01 4.46120510e-03 3.11416630e-02
      1.89960073e-03 1.41775527e-03 4.17786278e-03 4.47069108e-02
      1.22047007e-01 3.30157727e-01 2.56691813e-01 5.86009473e-02
      4.63229651e-03 7.12381443e-04 0. 7.74909882e-03 3.16284299e-02
      8.31268653e-02 3.30157727e-01 3.30157727e-01 2.40804162e-02
      8.06793920e-04 4.13550343e-03 0. 6.82545872e-03 5.43966256e-02
      1.24765150e-01 3.55994016e-01 3.15991700e-01 1.44035993e-02
      8.30893666e-02 8.38687047e-02 2.93783285e-02 4.50992817e-03
      2.07826798e-03 9.10889078e-03 2.15618029e-01 2.54070878e-01
      1.05983272e-01 5.26122516e-03 1.99510437e-03 4.70591616e-03
      1.34880645e-02 2.79144067e-02 3.54604162e-02 3.55994016e-01
      3.55994016e-01 5.37254363e-02 1.46710530e-01 1.14467144e-01
      3.92530560e-02 7.90707394e-03 1.04008429e-02 2.50071916e-03
      2.55830973e-01 3.55994016e-01 3.55994016e-01 1.40688896e-01
      1.21563129e-01 7.45045915e-02 1.07061364e-01 6.15962893e-02
      6.84778951e-03 9.00723934e-02 1.38996989e-01 1.20969705e-01
      1.02905355e-01 6.70402497e-02 7.66302496e-02 3.30573648e-01
      3.30573648e-01 4.99704406e-02 5.20379108e-04 7.04111485e-03
      5.18810302e-02 2.55951494e-01 1.69797316e-01 5.78972660e-02
