<?xml version="1.0"?>
<opencv_storage>
<my_svm type_id="opencv-ml-svm">
  <svm_type>C_SVC</svm_type>
  <kernel><type>RBF</type>
    <gamma>20.</gamma></kernel>
  <C>1.</C>
  <term_criteria><epsilon>2.2204460492503131e-16</epsilon>
    <iterations>100</iterations></term_criteria>
  <var_all>324</var_all>
  <var_count>324</var_count>
  <class_count>2</class_count>
  <class_labels type_id="opencv-matrix">
    <rows>1</rows>
    <cols>2</cols>
    <dt>i</dt>
    <data>
      -1 1</data></class_labels>
  <sv_total>200</sv_total>
  <support_vectors>
    <_>
      3.59605610e-01 3.59605610e-01 2.11247131e-01 1.27480179e-01
      1.12828247e-01 2.94617638e-02 2.57883109e-02 1.31413909e-02
      1.04931101e-01 3.46363485e-01 3.59605610e-01 3.43709558e-01
      1.02318466e-01 3.64517756e-02 1.87248159e-02 2.88425609e-02
      2.47640070e-02 6.96435496e-02 1.00466505e-01 1.01161674e-01
      1.30235150e-01 1.76979929e-01 2.26679727e-01 8.62745643e-02
      1.21978186e-01 6.14943095e-02 3.84192392e-02 1.33689463e-01
      1.11918226e-01 1.16253614e-01 6.83988929e-02 7.24425763e-02
      8.71475637e-02 1.92193285e-01 1.30611375e-01 5.08151688e-02
      3.33893239e-01 4.05945301e-01 4.05945301e-01 1.65167183e-01
      3.45697962e-02 1.66984312e-02 2.57509798e-02 1.86449885e-02
      6.48430213e-02 4.05945301e-01 2.54149854e-01 1.49840519e-01
      5.90553656e-02 4.27802801e-02 2.48611253e-02 4.74970303e-02
      6.41448125e-02 1.58399597e-01 1.28396496e-01 1.17756866e-01
      1.54844925e-01 1.00661777e-01 4.86835316e-02 9.75983739e-02
      1.85317382e-01 1.11607097e-01 7.09421262e-02 1.84015319e-01
      1.76499680e-01 1.36574611e-01 4.84596603e-02 3.93899344e-02
      3.55805680e-02 6.82450160e-02 4.55026925e-02 8.90250280e-02
      4.48637068e-01 1.79292738e-01 4.48675863e-02 1.53025286e-02
      6.70419633e-02 6.71174452e-02 1.06564380e-01 1.69582352e-01
      2.22807854e-01 2.07009912e-01 6.36957362e-02 3.21483314e-02
      2.80804019e-02 1.05656795e-01 2.38853127e-01 2.29906023e-01
      2.32906923e-01 1.82862282e-01 2.44003862e-01 2.33614862e-01
      1.62684694e-01 3.03831603e-02 6.48830310e-02 5.46071976e-02
      6.87570050e-02 6.21062145e-02 9.87389982e-02 2.36762390e-01
      1.53963923e-01 1.88232049e-01 1.25822246e-01 1.50444731e-01
      2.38049284e-01 1.32355914e-01 5.77525795e-02 7.34751970e-02
      2.10937396e-01 4.18069512e-02 2.35436838e-02 1.70968473e-02
      2.85214279e-02 8.66550021e-03 1.81113575e-02 1.03092566e-02
      8.12967196e-02 2.07863197e-01 3.02308500e-02 1.11851599e-02
      1.28888078e-02 3.24422792e-02 2.90038716e-02 5.31070307e-02
      3.46579626e-02 1.45889848e-01 4.63611364e-01 6.28684014e-02
      8.89366120e-03 2.49095308e-03 6.79688621e-03 3.35373427e-03
      7.66235823e-03 2.92557897e-03 4.63611364e-01 4.63611364e-01
      6.50040135e-02 7.72382831e-03 3.05608660e-03 8.85629468e-03
      5.32005494e-03 8.73088278e-03 1.88410524e-02 4.63611364e-01
      2.04675570e-01 5.09343110e-02 1.31907435e-02 6.77379500e-03
      1.42815551e-02 2.07847748e-02 3.73007841e-02 2.21791379e-02
      1.04498520e-01 3.09575200e-01 7.84949586e-02 1.86806619e-02
      4.72336193e-04 2.89471354e-04 1.76476396e-03 1.14746001e-02
      2.31403075e-02 1.63994059e-01 4.38874006e-01 9.35291424e-02
      9.23700072e-03 1.66562572e-03 4.13185498e-03 3.17854201e-03
      6.13662926e-03 1.59379411e-02 4.38874006e-01 4.38874006e-01
      1.64313257e-01 7.64042838e-03 0. 0. 4.50713778e-05 3.03314975e-03
      2.99365297e-02 4.38874006e-01 1.95252582e-01 4.19584215e-02
      1.56368054e-02 2.40824046e-03 8.47790332e-04 2.86775106e-03
      9.32649989e-03 4.12922204e-02 1.74410686e-01 2.19665214e-01
      3.81254628e-02 1.82744712e-02 9.12032370e-03 5.46208629e-03
      1.09650269e-02 1.15107298e-02 4.92103100e-02 1.86767966e-01
      4.25161749e-01 1.46538094e-01 1.67112821e-03 1.08218679e-04
      2.51187332e-04 8.52804282e-04 5.06126881e-03 5.66591583e-02
      4.25161749e-01 4.25161749e-01 2.89339572e-01 1.53005822e-03
      2.72686797e-04 1.79199444e-03 2.78822356e-03 8.33340082e-03
      6.42273277e-02 4.25161749e-01 3.70541483e-01 1.04114525e-01
      2.97099743e-02 3.48023064e-02 1.20516764e-02 2.36773840e-03
      5.74051822e-03 3.05305548e-05 2.78352827e-01 3.70541483e-01
      2.13186443e-01 1.40445288e-02 2.07507657e-03 1.20522967e-03 0. 0.
      1.63991831e-03 3.53583783e-01 3.70541483e-01 1.11072265e-01
      7.40514472e-02 1.73609152e-01 1.16841651e-01 1.16963666e-02
      1.83591829e-03 5.28890159e-05 1.42535388e-01 3.70541483e-01
      2.24130273e-01 3.27356532e-02 2.42795814e-02 2.31236424e-02
      1.18551170e-02 6.42260537e-03 9.26092966e-04 2.26137906e-01
      3.83115858e-01 2.48804539e-01 2.87093651e-02 1.91657396e-03
      7.44542631e-05 0. 5.13558742e-04 4.46498301e-03 2.85818547e-01
      3.83115858e-01 2.80290186e-01 5.13719246e-02 5.73976571e-03
      1.13945012e-03 0. 7.70338171e-04 5.14197908e-03 2.04993755e-01
      3.83115858e-01 2.32326403e-01 5.50690256e-02 1.02119381e-02
      6.48434926e-03 8.43847450e-03 5.85603109e-03 1.95483002e-03
      1.66571453e-01 3.83115858e-01 2.01012909e-01 1.00059725e-01
      1.44313881e-02 8.06468166e-03 2.37833965e-03 1.91397464e-03
      2.20251898e-03 7.49438256e-02 3.92412782e-01 3.67987901e-01
      2.68189106e-02 5.10008493e-03 2.00917036e-03 1.07989756e-04
      5.80797496e-04 3.64814745e-03 1.54176876e-01 3.92412782e-01
      3.92412782e-01 3.20068770e-03 1.45471550e-03 1.27431843e-03
      4.80894785e-04 8.02547089e-04 6.85782358e-03 1.66869804e-01
      3.92412782e-01 1.94034383e-01 5.39403297e-02 1.23780686e-02
      1.11307390e-02 2.07877113e-03 1.42355403e-03 2.24031508e-03
      4.83516939e-02 3.33331436e-01 1.90818027e-01 4.68683755e-03
      2.74417177e-03 8.86244792e-03 3.37755005e-03 3.59723368e-03
      9.87117831e-03 3.65546457e-02</_>
    <_>
      1.23643093e-02 6.68423774e-04 3.71869490e-03 2.33440921e-02
      1.15214922e-01 1.67872384e-01 2.44386405e-01 1.66244432e-01
      2.84360368e-02 7.86190573e-03 1.04199455e-03 3.92971747e-03
      6.17109565e-03 2.37855837e-01 3.80283147e-01 3.80283147e-01
      3.80283147e-01 3.45853940e-02 4.05325815e-02 7.56296935e-03
      1.08832661e-02 2.43323273e-03 1.72704179e-02 6.66179284e-02
      1.75216302e-01 1.44902498e-01 5.98111525e-02 3.56473513e-02
      1.14695886e-02 1.94759611e-02 7.35077914e-03 2.36692205e-02
      1.20739363e-01 3.80283147e-01 3.80283147e-01 7.80303478e-02
      1.93344802e-03 2.42818409e-04 9.11826850e-04 1.30088422e-02
      1.39475524e-01 2.79313564e-01 3.07771891e-01 3.07771891e-01
      4.77107167e-02 2.16953307e-01 2.95534991e-02 5.25261229e-03
      2.58968305e-02 9.42941159e-02 9.98735800e-02 2.20922351e-01
      3.07771891e-01 2.58552819e-01 7.39656808e-03 2.72851018e-03
      5.73989935e-03 8.13677814e-03 2.30515487e-02 8.53858665e-02
      2.86841571e-01 3.07771891e-01 4.33462001e-02 6.57455474e-02
      3.78576363e-03 5.70696453e-03 1.36341155e-02 3.70910242e-02
      1.65452838e-01 3.07771891e-01 3.07771891e-01 1.41615987e-01
      3.05867255e-01 6.57857731e-02 7.58770946e-03 1.74207743e-02
      4.01898399e-02 2.93565206e-02 1.63578317e-01 3.05867255e-01
      3.05867255e-01 3.05867255e-01 7.37853721e-02 1.60312224e-02
      1.50523940e-02 7.12830480e-03 5.08247269e-03 6.03140257e-02
      1.23257823e-01 3.05867255e-01 9.83189866e-02 6.26800256e-03
      6.68348465e-03 1.09240990e-02 2.61525344e-02 1.66130379e-01
      3.05867255e-01 3.05867255e-01 1.82069093e-01 1.65626287e-01
      4.57275379e-03 4.92651295e-03 5.77116711e-03 1.96568184e-02
      1.24005787e-01 2.41769791e-01 2.29910865e-01 2.39611164e-01
      1.01030611e-01 6.32737279e-02 1.03484422e-01 2.43578907e-02
      1.61995173e-01 1.29284963e-01 2.12982118e-01 8.97316039e-02
      1.43563345e-01 5.70085123e-02 7.29868114e-02 1.27101719e-01
      2.07560390e-01 2.94573426e-01 1.42139718e-01 1.16871491e-01
      6.16986752e-02 6.11715056e-02 1.26451105e-01 1.75176427e-01
      2.79888839e-01 7.38103911e-02 1.74091190e-01 7.44042173e-02
      1.14526719e-01 3.86885963e-02 1.73953846e-01 3.37943994e-02
      9.70169678e-02 2.41360620e-01 3.79461706e-01 4.52485889e-01
      1.60225913e-01 3.35080028e-02 9.85950977e-03 2.90751681e-02
      5.57297142e-03 1.70291197e-02 5.39804138e-02 1.80124730e-01
      1.97637305e-01 8.75968263e-02 7.98693001e-02 2.76044458e-02
      6.09054044e-03 0. 2.48912293e-02 1.55190244e-01 3.41495842e-01
      3.53433073e-01 2.75423944e-01 1.54613659e-01 5.39841987e-02
      2.19501322e-04 2.52062664e-03 1.80537365e-02 8.37893337e-02
      2.86326915e-01 3.22757870e-01 9.35580656e-02 6.58552581e-03
      2.07056524e-03 2.18448695e-03 0. 1.59840994e-02 1.28127009e-01
      3.87365431e-01 3.87365431e-01 1.36084065e-01 3.64592043e-03 0. 0.
      1.76151734e-04 3.15781124e-02 1.80662379e-01 2.73331046e-01
      2.36751795e-01 2.61312246e-01 1.57535955e-01 5.49916923e-02
      3.18284263e-03 1.56978946e-02 7.56127313e-02 2.32208580e-01
      1.73484117e-01 1.52067304e-01 2.97099590e-01 1.85041457e-01
      6.51077032e-02 4.41451818e-02 4.27758758e-04 2.65156869e-02
      1.64348260e-01 3.55896592e-01 3.55896592e-01 1.12080425e-01
      1.82000380e-02 3.02545051e-03 6.99885702e-03 4.40841913e-02
      9.90971252e-02 2.75129825e-01 2.30564654e-01 1.54123813e-01
      9.79405865e-02 6.49538115e-02 7.70880431e-02 1.26455426e-01
      3.82185802e-02 4.23867963e-02 5.08776270e-02 5.05537577e-02
      1.04443483e-01 1.40545607e-01 6.60233125e-02 8.14142376e-02
      5.35298698e-02 1.07578430e-02 8.98686424e-02 2.14989260e-01
      2.11294025e-01 2.67023712e-01 1.32303372e-01 2.48557460e-02
      1.84469055e-02 8.64313077e-03 2.66481377e-02 5.34233600e-02
      3.43565308e-02 7.87992924e-02 2.20230535e-01 3.04782778e-01
      1.06159367e-01 8.10486227e-02 3.50799784e-02 4.83503472e-03
      9.72950682e-02 3.11675698e-01 3.55185986e-01 4.26755488e-01
      3.93331736e-01 1.13187350e-01 8.32346361e-03 2.91669276e-03
      1.60788570e-03 3.14985961e-02 1.26542643e-01 1.64014459e-01
      1.76745623e-01 4.63107228e-02 4.37697303e-03 4.64593992e-03
      1.60998618e-03 3.54956626e-03 1.17401503e-01 1.92371011e-01
      3.39259237e-01 2.77265340e-01 9.23602879e-02 2.37617642e-04 0. 0.
      9.68712091e-04 4.15112562e-02 2.21401632e-01 3.20124418e-01
      3.06062937e-01 1.12212420e-01 3.37641537e-02 1.54864672e-03
      5.50014665e-04 2.79811062e-02 3.39259237e-01 3.39259237e-01
      3.39259237e-01 2.44210839e-01 4.02897075e-02 1.49935274e-03 0. 0.
      1.20107196e-02 1.72841594e-01 2.03982070e-01 2.69297153e-01
      1.88526124e-01 9.10357460e-02 1.50947936e-03 2.71550147e-04
      1.69419905e-03 1.15691818e-01 2.17596248e-01 2.44083673e-01
      1.05140418e-01 4.59577627e-02 3.38066295e-02 9.33063310e-03
      1.59555022e-02 7.79421777e-02 1.03200234e-01 3.34105670e-01
      3.34105670e-01 3.34105670e-01 9.75118950e-02 1.89711265e-02
      9.08470538e-05 7.17916875e-04 9.90307517e-03 2.93450415e-01
      3.34105670e-01 2.57179618e-01 7.19939545e-02 1.85933486e-02
      4.79556322e-02 3.63626517e-02 6.87198564e-02 1.85449958e-01</_>
    <_>
      1.46450132e-01 3.16141039e-01 9.95235518e-02 9.52726752e-02
      2.70968735e-01 1.07018448e-01 5.67146763e-02 1.88460834e-02
      9.36816260e-02 1.40273660e-01 1.52983397e-01 2.33992159e-01
      2.27071524e-01 2.32013524e-01 1.01956174e-01 5.21012470e-02
      5.42148948e-02 1.08373024e-01 6.61925450e-02 9.05876532e-02
      3.44250016e-02 5.89387119e-02 3.16141039e-01 3.16141039e-01
      9.15420949e-02 1.21521261e-02 5.37194237e-02 2.15410311e-02
      5.67804165e-02 1.80327848e-01 2.64851213e-01 3.16141039e-01
      3.05404365e-01 5.39263012e-03 1.25521841e-03 8.56602658e-03
      3.07247937e-01 1.45810992e-01 2.04323843e-01 1.51505664e-01
      7.54930228e-02 5.06274402e-02 4.53522839e-02 6.83829710e-02
      2.28416860e-01 3.39267939e-01 6.12494424e-02 3.70387919e-02
      4.61091697e-02 1.85721889e-01 1.18230037e-01 4.28728759e-02
      1.02213204e-01 3.39267939e-01 5.65798879e-02 8.33966956e-02
      2.01784283e-01 2.26580054e-01 3.14865083e-01 1.36481583e-01
      8.54751281e-03 1.23083452e-02 2.49866415e-02 6.56436682e-02
      4.83219251e-02 5.77171817e-02 2.02057660e-01 3.39267939e-01
      2.21101508e-01 6.00750670e-02 6.76131472e-02 8.40542167e-02
      2.76284069e-01 1.53251039e-02 3.11883283e-03 9.88361239e-02
      2.97945619e-01 1.10751778e-01 4.17237207e-02 7.84872845e-02
      3.38016123e-01 1.65575013e-01 5.59343165e-03 8.80589429e-03
      1.94602296e-01 3.38016123e-01 8.83367062e-02 2.99069975e-02
      7.88208693e-02 2.46287748e-01 2.19981577e-02 5.97876543e-03
      7.47565087e-03 2.46780902e-01 3.38016123e-01 2.11159542e-01
      4.42550443e-02 4.13525254e-02 5.25356010e-02 1.51210111e-02
      1.11564179e-03 5.93574066e-03 2.48339832e-01 3.38016123e-01
      1.65226027e-01 2.15466823e-02 1.52375810e-02 3.04797329e-02
      5.93230035e-03 4.99955713e-05 4.13856731e-04 1.40090343e-02
      3.77131522e-01 2.91751921e-01 4.70302887e-02 1.04145799e-02
      8.21913220e-03 0. 4.27531824e-03 1.37717957e-02 1.46240354e-01
      3.77131522e-01 2.45403901e-01 9.52067133e-03 2.93819769e-03 0.
      6.99746842e-03 0. 9.91717097e-04 2.17810683e-02 3.77131522e-01
      3.14417571e-01 2.22083665e-02 9.27059725e-03 9.04852711e-03 0. 0.
      9.88398911e-04 1.19320028e-01 3.77131522e-01 3.77131522e-01
      3.21549959e-02 1.09634399e-02 1.85622979e-04 2.90306425e-03
      1.15771899e-02 2.83465236e-02 1.83565021e-01 3.65375161e-01
      1.45284086e-01 2.26067193e-02 5.68142300e-03 2.78503541e-03
      4.35459660e-03 9.56006814e-03 1.82838589e-02 2.06460536e-01
      3.65375161e-01 2.51647532e-01 3.05008218e-02 3.96022899e-03
      4.17755404e-03 1.34071219e-03 1.67826691e-03 5.22697810e-03
      1.54748142e-01 3.65375161e-01 3.12646210e-01 6.33701161e-02
      2.38451641e-02 3.84812825e-03 3.92342405e-03 4.63476917e-03
      9.29585472e-03 1.86748743e-01 3.65375161e-01 3.65375161e-01
      5.98102398e-02 1.56734623e-02 6.80877827e-03 2.95855431e-03
      2.10544467e-03 5.42854099e-03 2.25094303e-01 3.71985108e-01
      3.71985108e-01 3.44038010e-02 9.13417898e-03 4.71846759e-03
      6.93639591e-02 1.34699168e-02 2.62720103e-04 5.94699010e-02
      3.19171190e-01 2.66059250e-01 6.90964609e-02 5.60381338e-02
      1.11725271e-01 4.92258510e-03 3.38068674e-03 6.46826159e-03
      1.73388049e-01 3.71985108e-01 3.71985108e-01 7.04541132e-02
      5.30406311e-02 2.45100763e-02 1.10174224e-01 1.53829874e-02
      2.27902387e-03 2.03417391e-02 1.51792005e-01 1.86201692e-01
      7.99414665e-02 1.53189287e-01 2.24334180e-01 4.35102824e-03 0.
      1.30348824e-04 2.81480011e-02 3.17121893e-01 3.17121893e-01
      3.43824513e-02 4.00475645e-03 4.58913483e-03 0. 0. 4.57687303e-04
      1.39936358e-02 3.17121893e-01 3.17121893e-01 1.33528203e-01
      1.09800942e-01 3.13325115e-02 4.73307446e-03 1.28968374e-03
      8.92611395e-04 2.09810976e-02 2.41015792e-01 2.71356672e-01
      1.66971251e-01 7.18412623e-02 1.33079765e-02 0. 0. 7.63310891e-05
      6.79074973e-03 3.01470429e-01 3.17121893e-01 3.17121893e-01
      3.16978008e-01 5.93964271e-02 5.47039881e-03 3.67417908e-03
      2.42262729e-03 1.96177606e-02 3.04496884e-01 3.04496884e-01
      1.68934688e-01 1.94632381e-01 1.31808430e-01 6.33326843e-02
      2.46346314e-02 2.50468757e-02 9.66253132e-02 1.80094332e-01
      1.06380269e-01 7.47747645e-02 1.60514340e-01 2.60394514e-01
      5.18960087e-03 1.22472632e-03 2.82603287e-04 3.53641622e-03
      2.03655124e-01 3.04496884e-01 3.02372307e-01 3.04496884e-01
      1.96338430e-01 6.87981471e-02 1.63910948e-02 1.52147412e-02
      2.42328253e-02 7.66229331e-02 7.98350051e-02 1.33353323e-01
      2.90346086e-01 3.04496884e-01 1.07590675e-01 3.72083299e-02
      4.98666950e-02 1.37990460e-01 2.68641502e-01 2.01864302e-01
      9.85688493e-02 1.76517099e-01 2.80798107e-01 1.02433346e-01
      4.84932624e-02 4.41445932e-02 4.41997685e-02 9.45171341e-02
      1.20722793e-01 1.29337028e-01 1.87379062e-01 2.27969676e-01
      1.27613887e-01 3.02715320e-02 3.43054496e-02 4.57769409e-02
      1.11307360e-01 1.18484326e-01 2.37320259e-01 3.17380667e-01
      3.47527832e-01 1.00028254e-01 4.52864543e-02 3.96729708e-02
      4.52593155e-02 8.83731321e-02 2.32702628e-01 3.47527832e-01
      2.16496691e-01 1.23784803e-01</_>
    <_>
      4.97020818e-02 7.70523818e-03 1.30731361e-02 2.90728975e-02
      1.20578431e-01 2.35289663e-01 3.24991494e-01 2.43404239e-01
      8.82325098e-02 5.09812199e-02 5.51148178e-03 5.63843735e-03
      3.48308776e-03 1.08286934e-02 1.88372806e-01 3.47328961e-01
      3.47328961e-01 2.63753980e-01 8.64462480e-02 3.99466418e-02
      8.98560882e-02 1.22340009e-01 6.19500652e-02 1.18815176e-01
      1.14791378e-01 1.14289112e-01 1.07609905e-01 1.08507797e-01
      2.82973461e-02 7.12814257e-02 7.99418017e-02 2.39160880e-02
      1.82953700e-01 2.76234508e-01 3.17237616e-01 2.79996783e-01
      1.50270509e-02 6.46210974e-04 4.59383940e-04 1.09868299e-03
      3.79131339e-03 1.02249302e-01 3.12487572e-01 3.12487572e-01
      1.51320338e-01 9.83960778e-02 1.55325339e-03 0. 1.79985669e-04
      1.50311692e-03 5.50144836e-02 3.12487572e-01 3.12487572e-01
      2.98489094e-01 3.46638709e-02 7.23133422e-03 2.21584477e-02
      3.41881290e-02 1.02612088e-02 1.22301526e-01 2.62877315e-01
      2.86227882e-01 1.59910351e-01 1.89819098e-01 2.64419522e-02
      1.08269900e-02 1.08171673e-02 3.40154162e-03 4.04706486e-02
      2.05888674e-01 3.12487572e-01 3.12487572e-01 1.59666568e-01
      6.82260329e-03 4.56295165e-05 1.95683236e-03 3.10123712e-03
      2.15908419e-02 2.06506804e-01 2.35162929e-01 3.50491166e-01
      3.18838865e-01 3.83178778e-02 7.85165466e-03 3.73999476e-02
      5.77854887e-02 3.14667374e-02 3.46592441e-02 6.70321733e-02
      3.50491166e-01 3.15868944e-01 5.15790470e-02 2.09429562e-02
      5.33774542e-03 2.29475996e-03 3.25003569e-03 4.72749956e-02
      1.68217659e-01 3.50491166e-01 3.50491166e-01 8.11656713e-02
      2.24446729e-02 4.24741954e-03 7.10763445e-04 1.85275835e-03
      1.60294790e-02 5.36834225e-02 3.50491166e-01 4.83574942e-02
      7.62621388e-02 2.02833548e-01 2.16256171e-01 1.13113761e-01
      9.13936347e-02 5.25905527e-02 1.11005954e-01 8.68210867e-02
      4.74411659e-02 8.14787373e-02 2.45285735e-01 2.94708967e-01
      1.17342629e-01 1.61028922e-01 1.34185582e-01 2.34234765e-01
      8.20484459e-02 1.20070495e-01 1.12659357e-01 1.66112870e-01
      1.28011137e-01 1.27518013e-01 1.14959925e-01 5.39222546e-02
      1.34430423e-01 1.28960341e-01 1.48971125e-01 2.09476203e-01
      4.31465119e-01 3.70562464e-01 8.76282156e-02 3.36464159e-02
      5.78302331e-02 1.58840209e-01 1.24620020e-01 2.54891012e-02
      4.86890152e-02 1.37301415e-01 1.55799329e-01 5.22632524e-02
      9.43810642e-02 1.19927049e-01 1.59734160e-01 5.39338253e-02
      2.08212256e-01 1.40324622e-01 1.06111608e-01 1.44674748e-01
      2.48320311e-01 7.00529888e-02 1.48728117e-01 1.12940460e-01
      1.18673734e-01 9.21141878e-02 1.35298580e-01 3.51639301e-01
      2.47620970e-01 4.61442471e-02 3.30446325e-02 6.44749925e-02
      7.36890435e-02 7.79181942e-02 1.36603072e-01 1.15207136e-01
      1.39186397e-01 1.53152481e-01 3.25638086e-01 1.54053092e-01
      3.64720583e-01 3.04785639e-01 1.54647321e-01 2.43560508e-01
      1.66883931e-01 1.04949564e-01 8.55887830e-02 1.74369708e-01
      3.92239913e-02 7.61935562e-02 5.42752892e-02 8.63630027e-02
      3.47299010e-01 1.92404136e-01 1.04364306e-01 2.19447445e-02
      2.20275130e-02 1.78211182e-02 7.64955729e-02 1.28606662e-01
      1.56616032e-01 1.63501963e-01 1.13682874e-01 5.11261299e-02
      6.57219961e-02 2.28443578e-01 1.00656167e-01 3.47558111e-01
      2.64334977e-01 1.34193271e-01 3.47558111e-01 3.47558111e-01
      7.84317553e-02 2.01132912e-02 2.86827311e-02 2.07513347e-02
      1.04997307e-01 1.39340609e-01 1.69416174e-01 5.14018349e-02
      6.53441250e-02 1.36336505e-01 1.84247553e-01 1.89185694e-01
      5.41761778e-02 2.01163553e-02 2.16459837e-02 5.96916452e-02
      1.31403759e-01 1.76152200e-01 2.75607884e-01 2.50531167e-01
      8.52149427e-02 1.61280688e-02 1.23088071e-02 8.02646801e-02
      1.04497395e-01 2.93007456e-02 3.08754295e-02 2.18274519e-01
      3.35885227e-01 3.54474097e-01 1.18478023e-01 1.73422638e-02
      8.02345853e-03 3.26780900e-02 1.07512020e-01 2.10610583e-01
      3.54474097e-01 3.54270607e-01 2.53955573e-01 4.72782999e-02
      1.39115127e-02 4.83545549e-02 4.53829318e-02 9.34381112e-02
      1.28536806e-01 2.28274405e-01 2.89922863e-01 3.95495445e-02
      4.34495555e-03 5.64056681e-03 4.29659784e-02 5.84825128e-02
      1.94696441e-01 1.52442068e-01 1.72462180e-01 3.08441699e-01
      3.71364057e-02 1.00406297e-02 1.47088945e-01 1.88180432e-01
      2.04452172e-01 8.30129460e-02 1.66611969e-01 3.25258642e-01
      3.25258642e-01 7.60734081e-02 1.10524083e-02 4.38514445e-03
      2.60190871e-02 2.29158793e-02 1.45229265e-01 2.10027114e-01
      3.25258642e-01 3.25258642e-01 5.50359264e-02 7.28239422e-04
      1.30331861e-02 3.84041294e-02 8.52554217e-02 2.62400359e-01
      2.20169663e-01 9.86599848e-02 1.00093439e-01 1.44490404e-02
      6.78957300e-03 1.24772333e-01 1.58679560e-01 1.89404353e-01
      3.34132999e-01 3.34132999e-01 8.17362517e-02 8.54907464e-03
      2.90711573e-03 6.64627994e-04 2.34775878e-02 3.17294709e-02
      1.42510355e-01 1.60982668e-01 2.49622867e-01 2.40687862e-01
      2.96545893e-01 5.41531928e-02 1.03186979e-03 1.08817015e-02
      3.09787355e-02 7.87057504e-02 3.34132999e-01 3.34132999e-01
      1.70297921e-01 1.19518898e-01 1.00566223e-01 1.90944737e-03
      2.22646352e-03 3.89232603e-03 9.88319665e-02</_>
    <_>
      1.51254088e-01 9.59451944e-02 8.07796791e-02 1.34490818e-01
      1.42395124e-01 8.00504014e-02 2.05239102e-01 1.38831586e-01
      1.18823960e-01 1.58132210e-01 7.15773255e-02 1.00469150e-01
      6.63358569e-02 2.30731800e-01 8.88034329e-02 3.04508150e-01
      2.00673223e-01 6.46237209e-02 1.53195024e-01 8.97526592e-02
      7.75031894e-02 9.56369117e-02 1.71960756e-01 2.02940181e-01
      3.04508150e-01 1.39871687e-01 1.39134273e-01 1.90369636e-01
      7.42920935e-02 8.99836794e-02 7.16137514e-02 3.04508150e-01
      2.51769632e-01 3.04508150e-01 1.88416466e-01 8.20796192e-02
      8.39758888e-02 3.24828960e-02 5.27920313e-02 5.36115952e-02
      3.04783970e-01 1.24591865e-01 2.71780640e-01 8.98422748e-02
      3.69818024e-02 2.28334907e-02 7.66703067e-03 3.90273519e-02
      1.15626849e-01 3.04783970e-01 2.73773223e-01 2.69390732e-01
      7.74332806e-02 2.79146731e-02 9.85648781e-02 2.64582969e-02
      5.70375063e-02 1.74584612e-02 3.04783970e-01 1.66681588e-01
      3.04783970e-01 7.87316412e-02 4.15190607e-02 9.92918015e-03
      1.69928162e-03 1.43527221e-02 7.72996917e-02 3.04783970e-01
      2.73787647e-01 3.04783970e-01 1.61409006e-01 1.59606058e-02
      2.10724175e-02 9.00832471e-03 5.04794009e-02 1.07708424e-01
      2.31495962e-01 2.76915818e-01 2.24279314e-01 8.10978785e-02
      2.63328459e-02 2.60766689e-02 1.53918425e-03 2.79693119e-02
      1.49506614e-01 3.00822198e-01 3.04665297e-01 1.39060348e-01
      2.37144399e-02 2.77787875e-02 9.64671746e-03 8.99070874e-03
      4.65038382e-02 1.20289877e-01 3.04665297e-01 3.04665297e-01
      3.04665297e-01 1.57683015e-01 1.76911112e-02 2.80235820e-02
      4.28552218e-02 1.02943458e-01 1.04566105e-01 3.04665297e-01
      3.04665297e-01 1.86913729e-01 2.35273670e-02 3.00346818e-02
      8.25908557e-02 3.18681374e-02 1.19943358e-01 1.14454567e-01
      1.34465113e-01 2.81855404e-01 1.51908055e-01 3.81738432e-02
      6.58981577e-02 2.39814054e-02 4.31882497e-03 4.60078986e-03
      3.13309245e-02 2.95505226e-01 3.01349372e-01 2.71798491e-01
      8.06570947e-02 2.70042904e-02 5.80738522e-02 2.92057395e-02
      9.79547575e-02 2.70279735e-01 3.01349372e-01 3.01349372e-01
      1.00546382e-01 2.10179556e-02 3.75521518e-02 6.81522787e-02
      8.02041292e-02 3.67725976e-02 2.29039788e-01 3.01349372e-01
      3.01349372e-01 2.03474119e-01 7.52364993e-02 1.98952444e-02
      1.66463014e-02 4.36311448e-03 4.79109120e-03 3.06475591e-02
      2.47426406e-01 2.89263129e-01 2.09688991e-01 7.89748877e-02
      2.44000293e-02 2.72352360e-02 3.60638015e-02 5.57477213e-02
      1.42584682e-01 2.89263129e-01 4.28250879e-02 8.79343301e-02
      3.75643745e-02 1.28207719e-02 1.26685962e-01 2.22450674e-01
      4.15918678e-02 1.84743017e-01 2.89263129e-01 2.89263129e-01
      2.11246759e-01 9.38790068e-02 4.38478403e-02 2.80482918e-01
      2.89263129e-01 2.26388961e-01 2.01523155e-01 2.89263129e-01
      2.41453890e-02 1.09645694e-01 3.71596739e-02 6.23966083e-02
      2.26824898e-02 5.50208986e-02 9.22254622e-02 1.87071621e-01
      3.26763391e-01 4.36886474e-02 4.37388644e-02 1.51426550e-02
      6.13014633e-03 4.90559079e-02 1.52037442e-01 2.29153976e-01
      1.26186773e-01 2.18035668e-01 4.97111380e-02 3.08160391e-02
      7.03486474e-03 3.89675386e-02 2.28226468e-01 3.26763391e-01
      3.08726341e-01 2.40116239e-01 3.26763391e-01 8.00969638e-03
      4.17696685e-02 1.02673164e-02 3.77807803e-02 1.41868368e-01
      3.26763391e-01 3.26763391e-01 1.35733366e-01 1.08745344e-01
      8.87339283e-03 9.10999626e-03 3.77395190e-03 7.93629810e-02
      1.83383301e-02 5.44430986e-02 8.14915970e-02 1.61426634e-01
      2.08275422e-01 2.18146905e-01 2.74987102e-01 1.35755822e-01
      5.30986153e-02 1.14321448e-01 2.74987102e-01 2.49481544e-01
      2.74987102e-01 2.74987102e-01 1.16494723e-01 1.24101698e-01
      6.25501424e-02 1.69671196e-02 6.60360232e-02 9.34399143e-02
      5.43576367e-02 5.09391949e-02 4.91868369e-02 1.08117186e-01
      2.74987102e-01 1.95726261e-01 9.97519419e-02 1.20776780e-01
      2.74987102e-01 2.74987102e-01 2.74987102e-01 6.13293909e-02
      6.16209805e-02 1.40249550e-01 8.14996138e-02 7.83791393e-02
      1.69979200e-01 2.89759576e-01 2.25029901e-01 2.89759576e-01
      1.41821727e-01 4.94159386e-02 4.56496626e-02 2.35921331e-02
      4.80413400e-02 2.87667185e-01 2.89759576e-01 2.87325859e-01
      4.87548374e-02 1.33823631e-02 1.24923943e-03 6.46143500e-03
      5.28484583e-03 1.15762882e-01 1.07315712e-01 2.89759576e-01
      2.89759576e-01 2.89759576e-01 2.90915128e-02 2.31272634e-02
      3.05902474e-02 1.53081417e-02 4.38968763e-02 1.08383901e-01
      2.89759576e-01 2.89759576e-01 7.83735365e-02 1.77323632e-02
      5.08823991e-03 6.38406118e-03 9.05392505e-03 5.19648753e-02
      3.02781165e-01 3.39070290e-01 3.39070290e-01 6.18715025e-02
      1.35104153e-02 1.46343431e-03 4.76862211e-03 2.94375559e-03
      8.27066675e-02 1.46255895e-01 3.39070290e-01 3.39070290e-01
      5.60896881e-02 5.45630604e-03 3.04951309e-03 3.36402142e-03
      1.21170189e-03 4.29104604e-02 1.01511449e-01 3.39070290e-01
      3.39070290e-01 9.98774543e-02 2.95734815e-02 1.80874597e-02
      2.40806509e-02 1.26775624e-02 4.01578397e-02 7.38768578e-02
      2.69751102e-01 2.55788356e-01 6.95877224e-02 2.09806748e-02
      2.91931424e-02 3.47862653e-02 1.83948483e-02 5.13778925e-02</_>
    <_>
      4.47187498e-02 2.48897844e-03 7.42676016e-03 1.36960363e-02
      6.93750381e-02 2.15266198e-01 3.63325536e-01 2.90715367e-01
      1.07400753e-01 1.29881456e-01 9.72243100e-02 6.66833892e-02
      2.26648264e-02 4.34934944e-02 1.35281131e-01 3.63325536e-01
      3.59292954e-01 1.92734331e-01 8.38074461e-02 3.80087458e-02
      4.08100449e-02 2.12342385e-02 1.34764150e-01 2.51671463e-01
      1.94542766e-01 1.22448593e-01 9.20313895e-02 1.14163622e-01
      6.96029812e-02 5.55723011e-02 8.93922802e-03 4.66869809e-02
      9.79133546e-02 2.53831208e-01 2.92863160e-01 1.69670969e-01
      1.29651621e-01 1.66140959e-01 2.21402779e-01 6.34713247e-02
      4.54980806e-02 5.19857630e-02 1.91882685e-01 2.07360700e-01
      1.45569667e-01 1.24749690e-01 2.78767496e-01 3.63284528e-01
      2.10664555e-01 6.89338595e-02 2.04367153e-02 1.00494862e-01
      9.25403535e-02 1.12571754e-01 1.02341421e-01 1.09985471e-01
      1.60883814e-01 4.70962971e-02 2.69964226e-02 4.84977923e-02
      1.12191990e-01 2.04113543e-01 1.55419543e-01 1.19543068e-01
      1.80862710e-01 3.63284528e-01 3.63284528e-01 1.27188280e-01
      1.05086833e-01 4.18034829e-02 4.32457440e-02 1.14224359e-01
      7.95586631e-02 1.06372193e-01 1.47025570e-01 8.94007608e-02
      3.33906896e-02 6.39493465e-02 2.02379733e-01 1.58359677e-01
      1.03934824e-01 1.91552266e-01 5.31052947e-02 2.21124720e-02
      6.21172553e-03 2.33070962e-02 1.42583191e-01 3.32615107e-01
      3.32615107e-01 3.32615107e-01 8.33951607e-02 7.56291002e-02
      1.71904117e-01 2.00743750e-01 1.09558530e-01 9.29905400e-02
      8.14809129e-02 1.07105173e-01 9.18629020e-02 2.61613369e-01
      1.18930347e-01 6.27208501e-02 4.69127893e-02 7.47407675e-02
      6.65536150e-02 1.57619804e-01 3.32615107e-01 3.32615107e-01
      1.82178035e-01 1.90380484e-01 1.06359601e-01 3.49489227e-02
      1.08418055e-01 6.77046403e-02 2.04500388e-02 5.53075336e-02
      1.47412866e-01 1.94819272e-01 2.11520031e-01 1.43113598e-01
      8.03162381e-02 1.02795340e-01 2.89766733e-02 7.12267831e-02
      2.61105239e-01 3.20798069e-01 1.92623764e-01 2.52370000e-01
      1.64227337e-01 1.22057676e-01 1.45506173e-01 1.89907122e-02
      3.47994664e-03 6.61817491e-02 1.18821926e-01 2.37350330e-01
      3.29865515e-01 2.11026788e-01 1.81603998e-01 1.55418143e-01
      5.55385016e-02 7.76216760e-02 1.89478680e-01 2.85086215e-01
      1.36601582e-01 8.47242028e-02 6.00903034e-02 5.59522100e-02
      6.00300506e-02 1.88794099e-02 3.47219706e-02 1.32696286e-01
      2.64921099e-01 2.99700499e-01 4.85062748e-02 6.12829216e-02
      7.94149190e-02 7.76320919e-02 8.26943740e-02 8.92562717e-02
      1.65729329e-01 3.52234930e-01 1.56226724e-01 1.20845959e-01
      7.61536509e-02 1.01420537e-01 1.14558049e-01 3.03073544e-02
      5.94516657e-02 1.53340414e-01 2.77059317e-01 3.32348913e-01
      7.38153458e-02 6.86882585e-02 1.17315717e-01 1.65949568e-01
      1.00149095e-01 1.79855421e-01 3.08254898e-01 3.52234930e-01
      1.86385781e-01 1.39839090e-02 2.99587641e-02 4.48422879e-02
      5.35825826e-02 1.18397817e-01 1.49638161e-01 1.90937549e-01
      3.16902757e-01 6.64873943e-02 2.07885299e-02 1.85567252e-02
      2.36825850e-02 3.64212617e-02 1.07216246e-01 3.16902757e-01
      2.43646428e-01 1.47267431e-01 2.12585643e-01 4.20303121e-02
      4.66352552e-02 6.11362867e-02 8.74064714e-02 1.84766352e-01
      2.07810536e-01 2.38678113e-01 3.16902757e-01 9.40360129e-02
      2.01671291e-02 1.30064450e-02 1.81012340e-02 3.08354702e-02
      1.83183372e-01 3.16902757e-01 2.75594145e-01 2.58657247e-01
      6.83477670e-02 8.01935345e-02 7.92227089e-02 1.57158628e-01
      2.76101768e-01 1.54675514e-01 8.24925601e-02 2.25199163e-02
      5.06872013e-02 1.53543279e-01 1.10356033e-01 9.71165001e-02
      1.43704429e-01 2.03049064e-01 2.05469772e-01 1.20778188e-01
      1.25613272e-01 1.62235409e-01 1.28709003e-01 5.13090007e-02
      1.11439012e-01 1.42859370e-01 2.54588217e-01 1.99434221e-01
      1.46728456e-01 7.80094713e-02 9.73992199e-02 1.28321946e-01
      2.09007815e-01 3.47773015e-01 3.12450409e-01 2.53893793e-01
      2.63256907e-01 1.54227987e-01 7.23737702e-02 5.66648282e-02
      1.19295791e-01 6.06331713e-02 6.26218170e-02 6.53799027e-02
      1.27836287e-01 1.05955295e-01 7.08466396e-02 1.77223474e-01
      1.77156791e-01 1.08586736e-01 1.13687657e-01 1.45408392e-01
      1.98583990e-01 1.65440693e-01 7.76346475e-02 1.01706237e-01
      1.91656023e-01 1.46785036e-01 1.54329717e-01 2.01203361e-01
      3.24242055e-01 1.94579989e-01 1.36892840e-01 1.14257030e-01
      6.64502382e-02 1.45872816e-01 1.25153646e-01 3.24242055e-01
      3.24242055e-01 2.42577955e-01 2.17645109e-01 1.06732555e-01
      3.46862413e-02 3.26815061e-02 1.90119639e-01 2.03041434e-01
      7.95693547e-02 1.72346428e-01 1.64988458e-01 1.98565900e-01
      1.06663816e-01 6.90675452e-02 7.37041906e-02 9.03170258e-02
      1.05346650e-01 1.91062927e-01 2.06026852e-01 9.91797596e-02
      7.33287856e-02 2.95363795e-02 4.35864106e-02 1.33959979e-01
      1.81722686e-01 3.14162165e-01 2.41796836e-01 3.14162165e-01
      2.06680298e-01 2.35514492e-01 9.18492451e-02 3.03763691e-02
      1.86374057e-02 7.47116357e-02 1.39450178e-01 2.44349897e-01
      3.14162165e-01 1.97204620e-01 1.49992526e-01 6.26874194e-02
      1.90898683e-02 1.92423649e-02 5.34423217e-02 2.98902780e-01</_>
    <_>
      3.75111178e-02 2.34895498e-02 1.95480004e-01 2.47803390e-01
      6.37174994e-02 3.24886702e-02 8.44986737e-02 9.97794494e-02
      8.46909061e-02 1.92017891e-02 3.36669162e-02 1.34753063e-01
      3.13195914e-01 3.13195914e-01 3.13195914e-01 1.77457362e-01
      7.54473880e-02 2.60038804e-02 6.02588467e-02 1.01455212e-01
      2.75243044e-01 3.03186774e-01 4.53022718e-02 3.81114967e-02
      9.00075808e-02 6.09264411e-02 6.70838133e-02 4.39762920e-02
      4.53849435e-02 6.40977398e-02 1.02577820e-01 1.87741607e-01
      3.13195914e-01 3.13195914e-01 2.39943475e-01 7.11514428e-02
      3.96719687e-02 3.36937048e-02 7.47484937e-02 1.92318290e-01
      2.60393500e-01 2.54837155e-01 1.89618543e-01 4.45241518e-02
      2.74344049e-02 7.00784624e-02 4.16106693e-02 4.34173681e-02
      4.73876186e-02 1.03892729e-01 2.57337630e-01 3.03491265e-01
      2.32139200e-01 1.69334322e-01 1.38190137e-02 8.24414752e-03
      6.99235685e-03 3.06895692e-02 1.36372745e-01 3.30034375e-01
      3.30034375e-01 1.71181157e-01 2.98229940e-02 6.24479912e-03
      8.24276824e-03 8.42740014e-03 1.15221096e-02 1.18067272e-01
      3.30034375e-01 3.30034375e-01 1.30436346e-01 2.30032653e-02
      2.76515540e-02 1.63661465e-02 1.06372675e-02 2.67794356e-03
      5.74161150e-02 2.69702703e-01 2.52131075e-01 2.36941069e-01
      1.21938303e-01 2.74077840e-02 0. 0. 5.68617648e-03 1.88609421e-01
      3.51944476e-01 2.48404995e-01 1.22815110e-01 4.71693128e-02
      3.57097085e-03 8.61102808e-03 3.47273680e-03 9.86840390e-03
      1.48604527e-01 3.51944476e-01 3.51944476e-01 7.77320862e-02
      1.94423459e-02 1.41629875e-02 7.03456253e-03 1.58970966e-03
      7.15351328e-02 3.51944476e-01 3.51944476e-01 1.21609874e-01
      2.87552997e-02 1.82732213e-02 2.06351101e-01 3.11670780e-01
      3.11670780e-01 1.47464707e-01 1.21300099e-02 7.18485983e-03
      2.29879674e-02 4.09686305e-02 9.28937569e-02 2.02994436e-01
      8.00791606e-02 3.04339230e-02 9.20589734e-03 2.43445411e-02
      9.85064954e-02 2.27019221e-01 3.11670780e-01 2.23396674e-01
      2.55256712e-01 3.09152752e-01 2.01941535e-01 6.15109764e-02
      5.65556213e-02 1.39775956e-02 2.81635262e-02 6.44396245e-02
      1.76775202e-01 1.82206169e-01 1.15827419e-01 5.66582829e-02
      2.84778029e-02 3.68728898e-02 6.91396073e-02 1.66764975e-01
      3.01040709e-01 2.22803220e-01 4.70876284e-02 6.95445202e-03
      6.12585573e-04 8.14081461e-04 3.00066210e-02 1.28427476e-01
      2.30888501e-01 2.36523330e-01 1.13646396e-01 2.11881226e-04 0. 0.
      8.25003628e-03 2.12282777e-01 3.59079957e-01 3.59079957e-01
      1.55583665e-01 2.74958964e-02 3.90225537e-02 1.81419551e-02
      3.34798545e-02 5.93560077e-02 8.91433135e-02 9.96803492e-02
      1.39735952e-01 1.95130840e-01 1.15344442e-01 2.47074128e-03
      9.77772102e-03 5.50735965e-02 3.01512986e-01 3.59079957e-01
      3.59079957e-01 2.62994766e-01 9.71689448e-02 2.82341391e-02
      3.11215455e-03 1.72064677e-02 1.70787126e-02 2.63341218e-02
      1.59931600e-01 3.17957133e-01 2.93838859e-01 5.75154871e-02
      6.93990756e-03 2.65051760e-02 3.70550677e-02 1.06775716e-01
      3.17957133e-01 3.17957133e-01 1.50570408e-01 6.90621287e-02
      3.81167009e-02 2.88903676e-02 4.58562048e-03 2.79661641e-02
      1.12652645e-01 2.07667455e-01 3.17957133e-01 3.17957133e-01
      1.52652666e-01 4.95632254e-02 4.46376577e-03 4.32852469e-02
      7.68084079e-02 3.17957133e-01 3.17957133e-01 1.67257920e-01
      6.64723739e-02 5.41875735e-02 4.54154871e-02 4.25376408e-02
      7.24316090e-02 4.80142683e-02 3.14674191e-02 1.81442238e-02
      2.11423323e-01 2.51262456e-01 1.38505384e-01 7.10133985e-02
      1.20270431e-01 4.37833406e-02 8.78738388e-02 2.98835516e-01
      1.57931164e-01 1.73762321e-01 1.08318612e-01 6.06512353e-02
      3.61273773e-02 3.47914845e-02 2.76829451e-02 4.88818530e-03
      1.79984495e-02 2.49336995e-02 3.28582227e-01 3.28582227e-01
      2.44488016e-01 3.61936726e-02 4.50032800e-02 7.82168359e-02
      1.12578146e-01 3.12860370e-01 1.97901502e-01 3.28582227e-01
      3.21397662e-01 1.32443875e-01 2.73844227e-02 5.60978204e-02
      1.67965069e-02 4.19771895e-02 2.24110216e-01 1.91701338e-01
      1.13666683e-01 4.34227772e-02 2.30430905e-02 1.43365972e-02
      1.58780143e-02 2.89458483e-02 2.81137675e-01 3.46570909e-01
      3.46570909e-01 2.09934294e-01 4.52689901e-02 1.79175511e-02
      1.10729563e-03 1.62400641e-02 5.27823754e-02 1.23625241e-01
      3.46570909e-01 1.84829935e-01 1.33193761e-01 7.62870908e-02
      4.17455994e-02 8.13907571e-03 3.01221795e-02 4.39387113e-02
      3.46570909e-01 3.46570909e-01 2.80183494e-01 6.55698404e-02
      2.33039316e-02 1.72583126e-02 0. 2.23955885e-02 1.62561536e-02
      2.35530838e-01 3.54256243e-01 2.60443389e-01 1.16297401e-01
      1.85282081e-02 8.22904147e-03 1.00696133e-03 6.77308626e-03
      2.78686732e-02 1.82961702e-01 3.54256243e-01 3.22798818e-01
      2.35830545e-02 4.14086506e-03 2.45467876e-03 1.33015844e-03
      2.62392145e-02 1.69030894e-02 3.54256243e-01 3.54256243e-01
      1.60452917e-01 2.52046045e-02 4.04816074e-03 2.25224555e-03 0.
      8.75857659e-03 1.78386699e-02 2.04249829e-01 3.54256243e-01
      1.49865553e-01 1.18110487e-02 5.54271601e-03 2.61647790e-03 0.
      1.62173882e-02</_>
    <_>
      1.07997060e-01 2.51758128e-01 2.56521195e-01 3.11673824e-02
      8.05316344e-02 7.24681094e-02 5.63695170e-02 8.61461684e-02
      1.46983609e-01 2.96111792e-01 1.82905793e-01 1.71201915e-01
      3.07085924e-02 4.32757959e-02 7.29563087e-02 4.63448763e-02
      1.50514886e-01 3.43887687e-01 1.93578973e-01 3.12260777e-01
      2.12895095e-01 6.92925826e-02 1.79769650e-01 1.65047258e-01
      4.91639264e-02 4.56333272e-02 1.00156546e-01 2.07303092e-01
      2.30146393e-01 2.04831973e-01 1.10348977e-01 1.32254750e-01
      2.22342238e-01 7.81009719e-02 6.66552782e-02 1.49728462e-01
      2.93184936e-01 1.35220394e-01 9.96268243e-02 2.04779189e-02
      2.72380970e-02 6.60148263e-02 5.88913076e-02 1.42017648e-01
      3.18007767e-01 2.33962253e-01 1.90596431e-01 4.13778797e-02
      4.39405860e-03 3.13549154e-02 1.26736000e-01 2.44931653e-01
      2.53875732e-01 2.74084091e-01 2.08561853e-01 2.03654140e-01
      1.95619658e-01 9.28504616e-02 5.10364175e-02 1.03935711e-01
      6.33485094e-02 5.36568724e-02 1.51727915e-01 2.73109645e-01
      3.12111944e-01 1.37210324e-01 3.86896841e-02 9.56922695e-02
      1.48188934e-01 1.35972872e-01 1.10426016e-01 1.16159223e-01
      2.02165782e-01 1.99954242e-01 5.56737036e-02 1.21141095e-02
      1.57905240e-02 7.45988414e-02 1.76004186e-01 2.06395775e-01
      2.53823191e-01 3.43034267e-01 1.33025199e-01 5.66358082e-02
      4.26731519e-02 3.21482494e-02 2.25965232e-02 1.61856279e-01
      2.27757037e-01 3.43034267e-01 2.29291722e-01 2.80718774e-01
      1.02600820e-01 3.02953459e-02 7.36858025e-02 1.18905313e-01
      1.05324991e-01 9.06170532e-02 8.93692598e-02 2.75936395e-01
      1.95634052e-01 1.61534756e-01 9.78804007e-02 9.01351646e-02
      2.90063620e-02 4.10469323e-02 7.91065916e-02 2.72569358e-01
      1.30187035e-01 1.11649461e-01 7.61596635e-02 9.39551070e-02
      2.28923604e-01 1.39754817e-01 5.66378981e-02 4.01059352e-02
      8.83551538e-02 8.26148391e-02 2.21195087e-01 1.30534813e-01
      2.20486298e-01 2.36790374e-01 2.29793116e-01 1.32264704e-01
      4.63764779e-02 3.01015247e-02 9.48434547e-02 8.58099237e-02
      2.95229051e-02 4.86974120e-02 2.69357711e-01 2.49369115e-01
      1.07475273e-01 6.27389327e-02 1.91656113e-01 4.88296822e-02
      9.86107364e-02 9.85398814e-02 3.15285832e-01 3.47603649e-01
      3.47603649e-01 2.01718315e-01 7.16135502e-02 4.28341143e-02
      7.72232860e-02 1.74222365e-01 1.41512513e-01 2.15332687e-01
      1.51620567e-01 1.21192329e-01 1.03334583e-01 3.82039659e-02
      2.97732912e-02 1.08296379e-01 1.75671458e-01 1.44390389e-01
      1.34002298e-01 2.23045096e-01 2.73856461e-01 1.00602686e-01
      5.44677898e-02 3.75026651e-02 7.04146251e-02 9.84856710e-02
      1.25598595e-01 3.23114216e-01 3.06939602e-01 2.15515450e-01
      1.38357431e-01 4.95797656e-02 4.36163135e-02 1.09158807e-01
      2.08624974e-01 2.62411416e-01 2.68486202e-01 2.43252754e-01
      2.08887920e-01 1.35149717e-01 5.59445098e-02 5.60565107e-02
      9.18601826e-02 1.93979710e-01 1.15786739e-01 7.43321851e-02
      2.26864606e-01 3.35253209e-01 1.10225514e-01 5.57486042e-02
      4.55295034e-02 1.30817190e-01 2.13386565e-01 2.30889216e-01
      1.01368226e-01 1.11293934e-01 1.71534747e-01 8.72404203e-02
      3.80471237e-02 9.09167901e-02 1.00369707e-01 1.94361359e-01
      1.94225237e-01 1.67127743e-01 2.16565549e-01 2.32990369e-01
      1.95093840e-01 1.23043194e-01 8.94881561e-02 1.59527972e-01
      1.27907455e-01 1.87738299e-01 1.27765357e-01 1.29598483e-01
      2.15169594e-01 2.22090960e-01 1.90878600e-01 2.16703027e-01
      6.79086000e-02 6.95798546e-02 2.32814178e-02 4.97948006e-02
      2.12466806e-01 2.49739915e-01 1.11754924e-01 8.37756544e-02
      1.01064168e-01 1.79732516e-01 1.48987204e-01 8.79361331e-02
      1.50995895e-01 2.36326322e-01 3.84826511e-01 2.30092242e-01
      1.89152166e-01 1.53544754e-01 1.45896912e-01 6.50433600e-02
      3.79225798e-02 9.34067145e-02 1.57245606e-01 9.80617628e-02
      6.34784847e-02 7.03902021e-02 8.40834007e-02 2.73562640e-01
      2.98638016e-01 2.43387565e-01 8.69502202e-02 5.49835451e-02
      2.32694194e-01 1.26496270e-01 1.46723077e-01 1.83252513e-01
      1.85706183e-01 1.62616938e-01 1.85247257e-01 1.33874178e-01
      9.77016911e-02 2.26610184e-01 9.42136422e-02 8.91578197e-02
      1.00870721e-01 1.58539116e-01 2.65130669e-01 3.54827851e-01
      2.02472225e-01 9.80130285e-02 6.90210536e-02 7.00165257e-02
      2.63014473e-02 4.40107398e-02 1.83075190e-01 2.15496689e-01
      2.53093749e-01 1.56946450e-01 2.81219725e-02 9.02082697e-02
      5.31002730e-02 6.53036833e-02 9.47854295e-02 1.26409262e-01
      1.64481282e-01 3.54827851e-01 3.51040632e-01 1.09711081e-01
      5.92357926e-02 6.15228191e-02 2.75444034e-02 7.25483820e-02
      7.97959343e-02 1.72825471e-01 3.20217162e-01 1.39551297e-01
      1.28800958e-01 7.13114440e-02 1.06915809e-01 1.02803685e-01
      5.91354333e-02 6.25688955e-02 3.04501895e-02 3.24130617e-02
      9.19691622e-02 2.50817031e-01 1.65243730e-01 2.00597286e-01
      2.19162002e-01 1.40778899e-01 5.97641878e-02 9.60593075e-02
      2.96851158e-01 2.04832137e-01 1.46678552e-01 1.11871183e-01
      1.12548620e-01 1.02331370e-01 9.97471958e-02 4.38851789e-02
      2.20701080e-02 4.21451516e-02 1.02243759e-01 2.67418861e-01
      2.52411485e-01 3.20217162e-01 3.20217162e-01 1.17405720e-01</_>
    <_>
      2.05344185e-02 8.99487827e-03 1.83753952e-01 3.53708565e-01
      1.88616499e-01 1.12424381e-02 1.47419665e-02 4.63414285e-03
      2.09650118e-02 1.76577969e-03 1.25022298e-02 1.29716918e-01
      1.83596089e-01 3.53708565e-01 3.53708565e-01 8.05052966e-02
      1.85365677e-02 7.01759150e-03 1.25685893e-02 7.12358952e-03
      9.74369124e-02 2.57095397e-01 3.53708565e-01 8.87074098e-02
      4.20394680e-03 2.12715962e-03 1.27507430e-02 1.16956350e-03
      9.93457902e-03 8.87710825e-02 1.15676589e-01 3.53708565e-01
      3.53708565e-01 1.10686086e-01 8.50863568e-03 7.17080664e-03
      1.52337749e-03 6.37644669e-03 3.50522585e-02 8.08923170e-02
      3.09441507e-01 3.09441507e-01 5.38133085e-02 6.02693437e-03
      2.98608816e-03 4.19869684e-02 8.33576825e-03 2.34127697e-02
      6.13279454e-02 2.70694554e-01 3.09441507e-01 3.09441507e-01
      1.37359843e-01 8.44536722e-03 2.91480590e-03 7.24002346e-03
      2.31087878e-02 4.90846746e-02 2.92436302e-01 3.09441507e-01
      7.91593492e-02 3.54126724e-03 6.35900721e-03 5.40897697e-02
      9.90280509e-03 1.36786457e-02 6.34100661e-02 3.09441507e-01
      3.09441507e-01 3.09441507e-01 1.38959363e-01 1.94735378e-02
      3.01529244e-02 4.30263858e-03 8.56390409e-03 3.40516157e-02
      1.78244755e-01 3.03582489e-01 3.14647526e-01 1.60376742e-01
      7.55968736e-03 2.08453033e-02 5.32843079e-03 6.89436076e-03
      1.51796425e-02 7.45769739e-02 1.15434989e-01 3.14647526e-01
      1.76731154e-01 3.40056308e-02 3.85149531e-02 4.16530250e-03
      4.44658007e-03 3.61970626e-02 3.14647526e-01 3.14647526e-01
      3.14647526e-01 1.86622873e-01 1.48403905e-02 3.71971354e-02
      4.97506512e-03 1.99151319e-03 1.28246797e-02 1.64098367e-01
      1.72507286e-01 3.14647526e-01 3.14647526e-01 6.16556965e-02
      1.11874929e-02 3.06663383e-03 3.14143859e-02 4.72419783e-02
      3.45573276e-01 3.45573276e-01 7.68063515e-02 6.50674396e-04
      1.06911855e-02 2.75223196e-04 1.11899022e-02 6.16344064e-02
      5.50202765e-02 2.08661750e-01 3.45573276e-01 2.28046596e-01
      2.60269665e-03 1.78271427e-03 2.25231703e-02 2.18961164e-02
      5.92545979e-02 6.48874417e-02 3.19691658e-01 3.45573276e-01
      1.71331391e-01 8.45172629e-03 1.85884126e-02 2.58088787e-03
      1.41702602e-02 4.04066481e-02 6.89862296e-02 2.99646795e-01
      3.45573276e-01 2.24714264e-01 1.57643424e-03 7.99785601e-04
      1.41996832e-03 7.61729572e-03 2.38893200e-02 1.97028313e-02
      9.22759175e-02 3.48993152e-01 2.94854105e-01 1.97787583e-02
      5.68590919e-03 4.35428089e-03 2.50010495e-03 0. 9.31724533e-03
      2.06927031e-01 3.48993152e-01 3.48993152e-01 9.86549482e-02
      2.23683678e-02 6.38943026e-03 1.47460802e-02 2.61204373e-02
      3.57871950e-02 1.48221478e-01 2.67100662e-01 2.76642084e-01
      3.46921757e-02 4.13632626e-03 2.32799035e-02 1.17999902e-02
      8.00268818e-03 9.72306821e-03 5.89583367e-02 3.48993152e-01
      3.48993152e-01 2.42747337e-01 3.07339448e-02 2.34027999e-03
      2.61198008e-03 4.93252743e-03 9.99849197e-03 2.30322912e-01
      3.03738147e-01 3.03738147e-01 6.26866519e-02 1.42331701e-02
      2.31635254e-02 6.09003380e-03 1.13408258e-02 6.93695620e-02
      3.03738147e-01 3.03738147e-01 2.00828850e-01 7.89129809e-02
      3.10475193e-02 1.27444277e-02 1.11534167e-02 8.23864713e-03
      3.68780759e-03 5.95237538e-02 3.03738147e-01 3.03738147e-01
      1.63193852e-01 4.05042693e-02 6.80559501e-02 5.53093962e-02
      4.01294492e-02 1.41651899e-01 3.03738147e-01 2.88382262e-01
      2.84093022e-01 7.10554570e-02 1.01680815e-01 2.11208537e-02
      1.81910172e-02 6.56006113e-02 1.08806387e-01 1.56810522e-01
      1.52260736e-01 4.55680974e-02 4.15812172e-02 3.03687137e-02
      7.28804991e-02 1.56300828e-01 2.98824161e-01 2.53631413e-01
      3.46839547e-01 2.62745619e-01 5.40911444e-02 9.54336207e-03
      7.56515330e-03 1.42236268e-02 9.99130774e-03 3.65968458e-02
      1.61810115e-01 3.63737464e-01 7.20250607e-02 1.96920093e-02
      2.62224227e-02 2.25638486e-02 8.69464651e-02 1.52814433e-01
      2.91746885e-01 3.63737464e-01 3.63737464e-01 5.91731966e-02
      6.80639595e-03 6.78507471e-03 6.30210247e-03 2.02913821e-01
      2.31684178e-01 2.84919947e-01 1.92433581e-01 2.57134765e-01
      1.64743170e-01 4.01636735e-02 5.68279019e-03 3.60905752e-03
      3.14507604e-01 1.24158427e-01 2.97371596e-02 1.94769874e-02
      2.04837788e-02 5.94552755e-02 1.59521893e-01 1.29486799e-01
      1.84983522e-01 2.25255907e-01 2.12855682e-01 2.64764220e-01
      2.90716767e-01 3.14507604e-01 3.04774828e-02 3.63803888e-03
      3.44764048e-05 6.37733331e-03 3.14507604e-01 9.17638019e-02
      1.16823819e-02 7.52182491e-03 9.95993614e-03 4.17265901e-03
      1.14529058e-02 4.18124646e-02 1.81137040e-01 2.67427295e-01
      4.03334983e-02 9.44141019e-03 7.04207341e-04 2.30504782e-03
      1.03737183e-01 2.79210836e-01 2.21491501e-01 3.31561774e-01
      3.31561774e-01 1.06146380e-01 5.39907925e-02 7.45757595e-02
      1.05293676e-01 8.53196457e-02 1.92566618e-01 1.78700328e-01
      3.31561774e-01 2.32627094e-01 2.25586668e-02 2.40254751e-03
      1.24271872e-04 1.14622479e-03 7.36669824e-03 2.25016065e-02
      8.52143168e-02 3.31561774e-01 2.46979102e-01 2.07657870e-02
      7.25605525e-03 2.14841776e-03 1.47749917e-04 6.05828548e-03
      1.58154685e-02 6.81936368e-02 3.31561774e-01</_>
    <_>
      1.23636723e-01 9.01330486e-02 1.61863282e-01 1.78797528e-01
      3.23410153e-01 6.10077940e-02 3.09611242e-02 2.61778794e-02
      1.02517940e-01 2.07952574e-01 7.26154819e-02 9.02500451e-02
      8.94963965e-02 1.72117636e-01 6.16442934e-02 1.38388157e-01
      1.09960839e-01 1.42911866e-01 2.33054861e-01 2.29932755e-01
      3.25955570e-01 6.81694448e-02 1.20352641e-01 5.38424961e-02
      4.69557829e-02 6.38797283e-02 1.81672096e-01 4.21568692e-01
      2.12942630e-01 7.38699809e-02 1.39943399e-02 1.00853808e-01
      6.24265224e-02 1.51216909e-01 1.57161102e-01 2.78734773e-01
      2.04182103e-01 7.44960979e-02 7.39723369e-02 5.01562171e-02
      1.22727782e-01 5.69461547e-02 1.20755397e-01 1.16888382e-01
      1.60526305e-01 1.91925168e-01 1.26762807e-01 1.53546795e-01
      4.57275882e-02 9.88522619e-02 1.51425809e-01 8.80758986e-02
      1.17515482e-01 2.21237168e-01 3.58888239e-01 1.90445945e-01
      6.99227825e-02 1.81514677e-02 7.46164247e-02 3.62997055e-02
      1.29045844e-01 1.78013951e-01 2.69303590e-01 2.67611593e-01
      3.41473103e-01 1.96261376e-01 1.53643399e-01 1.29603848e-01
      9.08284262e-02 9.49727073e-02 1.92516461e-01 2.56482214e-01
      1.31312877e-01 1.23992309e-01 1.27212092e-01 5.56206033e-02
      9.29440483e-02 1.14036173e-01 8.44500810e-02 1.17280856e-01
      1.73445657e-01 1.31349444e-01 1.36387423e-01 7.64834285e-02
      1.28214598e-01 7.84945786e-02 6.18041269e-02 1.53955594e-01
      1.77905619e-01 1.45260349e-01 1.81012377e-01 3.23160887e-01
      1.56618774e-01 1.37567043e-01 1.03179023e-01 8.05833191e-02
      9.52150226e-02 1.90372810e-01 2.30332345e-01 1.56023651e-01
      1.81883320e-01 7.19929487e-02 1.21596590e-01 5.22128716e-02
      4.52484451e-02 1.28569990e-01 4.57709879e-01 3.48334223e-01
      1.31921366e-01 1.00429498e-01 9.55597758e-02 1.07286334e-01
      2.67940372e-01 1.08024895e-01 5.09528816e-02 6.49191141e-02
      1.56684339e-01 1.19316988e-01 1.10794522e-01 7.36144260e-02
      6.37570098e-02 2.23104894e-01 8.44451115e-02 8.50476101e-02
      1.09963380e-01 1.09390050e-01 3.57425898e-01 1.63475692e-01
      8.91207904e-02 1.40582234e-01 2.00149909e-01 1.10538706e-01
      1.19580500e-01 1.68974772e-01 4.01853979e-01 1.90529883e-01
      2.25901932e-01 2.58552462e-01 1.49058342e-01 2.13203609e-01
      7.59032220e-02 4.59629968e-02 1.26965165e-01 1.52344093e-01
      1.28119364e-01 1.49402380e-01 8.00915435e-02 4.73010354e-02
      9.57497582e-02 2.83507071e-02 6.25157133e-02 1.06601931e-01
      1.11629874e-01 2.33944267e-01 3.74496669e-01 9.38945934e-02
      7.78226033e-02 1.07763559e-01 3.35981324e-02 6.57199919e-02
      8.51140022e-02 8.90195370e-02 2.00691223e-01 3.01103532e-01
      2.14925691e-01 1.24110214e-01 1.21502817e-01 3.71991172e-02
      2.42562834e-02 7.56992400e-02 1.10017575e-01 3.13673913e-01
      4.71575767e-01 1.86393768e-01 2.31107950e-01 9.31133032e-02
      3.59400250e-02 2.14767288e-02 8.19743201e-02 1.21269681e-01
      1.86680079e-01 2.80801833e-01 8.18417147e-02 8.71692970e-02
      9.19656679e-02 4.76309434e-02 7.36409426e-02 7.70731270e-02
      8.37957859e-02 1.20962285e-01 1.51916608e-01 1.91471815e-01
      2.21049458e-01 8.60331878e-02 3.14193517e-02 5.40462509e-02
      1.21046484e-01 1.58488005e-01 2.76045322e-01 3.19789261e-01
      1.83177337e-01 2.03050017e-01 6.85557127e-02 3.42850797e-02
      2.49452982e-02 1.09990053e-01 1.72062978e-01 1.92291960e-01
      2.17387855e-01 3.48996282e-01 2.35313013e-01 1.59267768e-01
      2.67801918e-02 3.51643935e-02 1.24822676e-01 2.40928620e-01
      1.83971480e-01 5.28243221e-02 6.47061924e-03 3.44147766e-03
      1.08436402e-02 1.44422323e-01 2.14655831e-01 2.51442790e-01
      2.65611202e-01 2.51695961e-01 1.65844545e-01 1.08685985e-01
      1.00689288e-02 1.22378087e-02 8.42306670e-03 2.95760594e-02
      1.00852303e-01 2.48961657e-01 1.59406811e-01 4.74258848e-02 0. 0.
      8.68399963e-02 2.36560479e-01 3.36057484e-01 3.50329638e-01
      2.83072859e-01 2.03199998e-01 9.22338143e-02 3.01790591e-02
      6.58140561e-05 6.35375232e-02 8.63452703e-02 1.59221053e-01
      1.39761314e-01 2.62534142e-01 2.61620820e-01 2.06013322e-01
      1.46702155e-01 1.62662808e-02 2.33743377e-02 2.36776303e-02
      2.01750956e-02 7.44730160e-02 2.58719355e-01 2.12418720e-01
      2.49731079e-01 3.54822665e-01 1.63623020e-01 2.76015662e-02
      3.59218344e-02 3.06063406e-02 3.53803858e-02 1.14032425e-01
      2.57619798e-01 1.17961146e-01 6.58290237e-02 1.06434189e-02
      7.98074231e-02 4.91100289e-02 9.68445316e-02 1.03288196e-01
      3.03714365e-01 3.38506579e-01 2.58109063e-01 2.83416897e-01
      6.66409880e-02 7.48813450e-02 3.93476747e-02 8.37945864e-02
      5.14062792e-02 1.52938902e-01 1.77515179e-01 2.04398543e-01
      3.71181697e-01 1.78401038e-01 1.75100099e-02 2.29008477e-02
      2.77441032e-02 4.41788360e-02 7.59167522e-02 1.66239515e-01
      1.23306334e-01 1.24038376e-01 6.62472397e-02 4.66782078e-02
      2.76873894e-02 4.45229709e-02 1.96419165e-01 2.85153538e-01
      2.64877528e-01 2.70573437e-01 2.82053351e-01 6.60379380e-02
      3.94937582e-02 2.79146470e-02 8.10659751e-02 6.28055036e-02
      8.97478461e-02 2.58677840e-01 4.07030672e-01 1.32733986e-01
      3.97488847e-02 1.54801505e-02 8.76777153e-03 2.89576668e-02
      1.17940716e-01 2.03083664e-01</_>
    <_>
      1.36300847e-01 2.79126614e-01 2.28860974e-01 1.99156273e-02
      4.34319191e-02 9.35268253e-02 1.41280830e-01 1.58526719e-01
      2.02391833e-01 1.53260633e-01 2.79126614e-01 1.24642432e-01
      7.48112947e-02 4.89216745e-02 9.02981088e-02 1.90302610e-01
      2.18155697e-01 2.09308878e-01 8.63550827e-02 1.82644024e-01
      2.79126614e-01 1.30635709e-01 2.79126614e-01 1.84868842e-01
      1.04183577e-01 7.54819363e-02 1.01938352e-01 5.57481050e-02
      1.33248955e-01 9.21818763e-02 2.05584228e-01 2.79126614e-01
      1.94781080e-01 1.21630393e-01 8.11459050e-02 8.29598010e-02
      8.85705575e-02 2.32234523e-01 7.22063333e-02 4.36472781e-02
      1.30222887e-01 2.00005800e-01 7.63472468e-02 9.56298783e-02
      7.93337449e-02 3.35917808e-02 4.49523367e-02 1.93773713e-02
      3.45366932e-02 3.99281025e-01 3.99281025e-01 9.54584703e-02
      4.61738668e-02 3.03604566e-02 1.97326280e-02 7.77657777e-02
      5.56926355e-02 1.16945811e-01 3.29627961e-01 2.32335165e-01
      3.83850932e-02 3.98483947e-02 2.97172200e-02 4.70062532e-03
      1.25030875e-02 1.94253176e-02 4.07259129e-02 3.99281025e-01
      3.99281025e-01 4.18221019e-02 2.16963124e-02 8.59886408e-03
      5.49847912e-03 2.80549331e-03 9.53158177e-03 2.18812749e-02
      3.61252338e-01 3.61252338e-01 7.92628825e-02 4.46874648e-03
      4.46203351e-03 1.02300588e-02 0. 7.25389749e-04 1.90886424e-03
      2.31553525e-01 3.61252338e-01 1.30937472e-01 1.48567837e-03
      1.02300588e-02 3.09468503e-03 1.99159118e-03 1.46625033e-02
      2.87068821e-02 3.61252338e-01 3.61252338e-01 3.48793417e-02
      9.07490437e-04 3.05249472e-03 1.24815973e-02 1.23655563e-03
      7.55649433e-03 2.17560232e-02 3.61252338e-01 3.61252338e-01
      4.28458638e-02 6.58422359e-04 1.25349341e-02 4.71832529e-02
      2.63880435e-02 5.13896085e-02 1.66156590e-01 3.39261353e-01
      3.15439433e-01 1.70420796e-01 5.43602258e-02 4.93323319e-02
      3.04771811e-02 5.41498959e-02 6.62787557e-02 1.64013788e-01
      3.39261353e-01 2.87966490e-01 1.50583759e-01 5.94511293e-02
      4.60470915e-02 1.02453694e-01 2.79436372e-02 1.18925879e-02
      5.90939075e-02 1.67550072e-01 3.36976618e-01 3.39261353e-01
      1.59958556e-01 1.02343097e-01 4.15604897e-02 7.36329481e-02
      1.28476143e-01 7.96813667e-02 1.82169080e-01 2.02306375e-01
      1.63821250e-01 1.01974711e-01 6.20356388e-02 9.45319049e-03
      2.29355115e-02 3.46985571e-02 7.19778165e-02 2.65074432e-01
      1.80496290e-01 5.79009913e-02 2.32070312e-02 1.66404229e-02
      1.88635383e-03 4.78386274e-03 2.33834758e-02 4.29115668e-02
      4.44698900e-01 4.44698900e-01 1.01857871e-01 1.30620403e-02
      4.19111084e-03 1.27629703e-02 3.09383851e-02 6.31573126e-02
      2.97172535e-02 8.76880884e-02 1.32989809e-01 9.28203315e-02
      3.74166220e-02 2.67916601e-02 9.58594773e-03 7.08164740e-03
      1.61210950e-02 1.80915240e-02 4.34649825e-01 4.44698900e-01
      2.07644790e-01 1.68662835e-02 1.20744891e-02 1.93841639e-04
      4.23437916e-03 1.99359301e-02 3.75393815e-02 3.48692060e-01
      3.48692060e-01 6.94220439e-02 8.52538086e-03 9.51129361e-04
      1.38174267e-02 2.82291928e-03 1.84751786e-02 6.90557435e-02
      3.48692060e-01 3.15629989e-01 3.47986817e-02 5.92280366e-03
      1.43222846e-02 2.12522433e-03 1.99782522e-03 8.46678298e-03
      2.55264267e-02 3.33501279e-01 3.48692060e-01 1.40695661e-01
      1.25571918e-02 1.69551291e-03 1.61525831e-02 4.98162175e-04
      2.35419553e-02 1.24451891e-01 3.48692060e-01 3.48692060e-01
      7.18680769e-02 1.49216531e-02 1.72379967e-02 4.78771441e-02
      2.37122877e-03 1.13523647e-03 2.86412030e-03 2.19752155e-02
      3.33808511e-01 3.33808511e-01 2.00008288e-01 6.13890477e-02
      6.50905222e-02 1.41148753e-02 1.20967235e-02 6.06742967e-03
      2.62014661e-02 3.61080803e-02 2.15711683e-01 2.30345085e-01
      1.29110783e-01 3.79248410e-02 3.22177424e-03 0. 2.10331175e-02
      3.04646015e-01 3.33808511e-01 3.33808511e-01 1.60738736e-01
      4.54021208e-02 6.95011616e-02 1.04191061e-02 1.68039324e-03
      1.19436644e-02 4.86599393e-02 1.07423924e-01 3.18553209e-01
      3.33808511e-01 1.64395317e-01 8.70981961e-02 3.03529520e-02
      1.47351986e-02 7.39837298e-03 3.14488672e-02 5.89081682e-02
      1.91680327e-01 1.45567492e-01 1.30809739e-01 5.21974750e-02
      5.39522730e-02 4.51678261e-02 4.71789874e-02 3.21336329e-01
      3.67279500e-01 2.07357049e-01 4.40605208e-02 3.80062722e-02
      7.84113780e-02 1.95739474e-02 3.89401428e-03 7.55607290e-03
      1.58914961e-02 1.09676115e-01 3.67279500e-01 3.04473728e-01
      1.66507438e-01 8.83133039e-02 5.17681316e-02 3.99251804e-02
      1.91503130e-02 1.57742962e-01 3.67279500e-01 3.67279500e-01
      1.70514330e-01 5.67408837e-02 1.51738338e-02 1.68957096e-02
      2.00666990e-02 3.09087280e-02 2.62100905e-01 3.34618598e-01
      1.69864073e-01 1.87294353e-02 1.41494414e-02 2.70033292e-02
      1.50616383e-02 4.15773056e-02 1.52956411e-01 3.34618598e-01
      3.34618598e-01 1.86952963e-01 3.11278310e-02 3.48763652e-02
      5.14069125e-02 2.61986330e-02 2.23905072e-02 9.01899487e-03
      1.44488513e-01 3.34618598e-01 1.93825573e-01 6.63681030e-02
      2.50878334e-02 6.32781237e-02 6.18214086e-02 9.03465003e-02
      1.59064367e-01 3.34618598e-01 3.34618598e-01 2.03596324e-01
      9.35707092e-02 5.25198765e-02</_>
    <_>
      4.19105440e-02 4.55897301e-02 2.51616761e-02 3.88698503e-02
      2.01267913e-01 1.91756114e-01 8.65656435e-02 3.83773632e-02
      2.64664982e-02 1.89395472e-02 2.64120325e-02 1.56631526e-02
      9.38698351e-02 2.97501057e-01 2.97501057e-01 2.97501057e-01
      9.61324200e-02 1.29306167e-02 6.77966624e-02 1.58749018e-02
      1.94854699e-02 3.03679369e-02 1.47951692e-01 2.10884020e-01
      2.97501057e-01 2.97501057e-01 1.04162872e-01 7.71429986e-02
      8.20584893e-02 1.64984971e-01 2.15924993e-01 2.97501057e-01
      2.77430713e-01 2.22327277e-01 2.22603410e-01 8.77463967e-02
      1.36761162e-02 2.55358778e-02 1.03032170e-02 5.29946871e-02
      1.83139026e-01 2.14952245e-01 1.99158967e-01 4.88992818e-02
      3.69454809e-02 5.67780212e-02 4.05923873e-02 3.12350616e-02
      4.52044159e-02 1.77152142e-01 2.41897747e-01 2.95769542e-01
      2.39861533e-01 1.92849085e-01 2.61701513e-02 4.12568003e-02
      1.00176156e-01 1.66919932e-01 2.95769542e-01 2.10280895e-01
      8.46676379e-02 3.70239951e-02 2.94987708e-02 5.01973629e-02
      4.75398749e-02 1.15345895e-01 2.85539448e-01 2.95769542e-01
      2.95769542e-01 2.95769542e-01 1.85245022e-01 1.11223564e-01
      3.43975052e-02 1.78399440e-02 1.65393483e-02 1.61350667e-02
      6.48410097e-02 2.02335849e-01 3.39357615e-01 1.74194679e-01
      1.13933876e-01 1.13071054e-02 0. 0. 1.46990555e-04 3.98435676e-03
      2.13346809e-01 3.39357615e-01 6.19577430e-02 1.37534291e-02
      3.22600827e-02 2.46270560e-02 5.13011217e-02 1.38972715e-01
      3.24346274e-01 3.39357615e-01 3.39357615e-01 1.59179658e-01
      7.43600950e-02 2.17031408e-02 0. 0. 1.42947992e-03 4.70498763e-02
      3.39357615e-01 3.39357615e-01 4.92435284e-02 2.57468522e-02
      2.93977320e-01 5.38570695e-02 1.26268128e-02 8.00778437e-03
      3.30449156e-02 1.86683685e-02 1.19145654e-01 2.35991120e-01
      2.93977320e-01 2.93977320e-01 1.98338091e-01 1.75666735e-01
      3.91534604e-02 3.04639284e-02 7.21699931e-03 1.53145697e-02
      1.57527268e-01 2.93977320e-01 2.93977320e-01 7.11978674e-02
      2.92726550e-02 3.60139385e-02 2.08199054e-01 1.03948176e-01
      4.70202453e-02 7.66590461e-02 2.93977320e-01 2.93977320e-01
      1.70979559e-01 1.42313793e-01 5.11504523e-02 3.71336490e-02
      2.57787108e-02 7.02549191e-03 9.90489796e-02 2.93977320e-01
      2.03866795e-01 1.74372509e-01 2.79001921e-01 1.56565621e-01
      1.05411559e-01 1.43552013e-02 2.83613824e-03 3.13594751e-02
      1.59015119e-01 3.22017521e-02 7.54249468e-02 2.93064803e-01
      2.93064803e-01 2.93064803e-01 1.61229700e-01 6.57840148e-02
      3.09288856e-02 4.76624258e-02 2.05920801e-01 1.82214096e-01
      2.93064803e-01 1.24894999e-01 3.05892657e-02 1.83688756e-03
      1.61848275e-03 3.47367488e-02 2.27610424e-01 3.47884335e-02
      1.28216043e-01 2.93064803e-01 2.93064803e-01 2.50095576e-01
      4.28402200e-02 1.69400498e-02 7.65674002e-03 4.49299328e-02
      1.66287869e-02 7.31662149e-03 1.31981626e-01 2.68896639e-01
      3.15704912e-01 2.38075703e-01 1.00085296e-01 2.98847482e-02
      3.95853370e-02 1.81135610e-02 0. 2.56518164e-04 6.87182099e-02
      3.15704912e-01 3.15704912e-01 1.61520511e-01 9.45710391e-03
      2.39301287e-02 1.43007319e-02 2.18586326e-02 2.48432502e-01
      3.15704912e-01 3.15704912e-01 7.10918829e-02 2.23970301e-02
      7.54887378e-03 3.45026031e-02 1.91628132e-02 0. 7.10168928e-02
      3.15704912e-01 3.15704912e-01 1.80231094e-01 2.13475041e-02
      2.34488002e-03 2.42132824e-02 2.81223170e-02 6.55082334e-03
      1.23291453e-02 3.43572572e-02 2.35620201e-01 2.98827738e-01
      2.18701690e-01 8.62922445e-02 4.19658683e-02 7.86564201e-02
      5.34081645e-02 1.17798194e-01 1.27412751e-01 2.25175425e-01
      1.62467286e-01 5.64658530e-02 1.23096704e-01 1.21884987e-01
      3.30482163e-02 1.15711316e-02 5.65937627e-03 1.30952829e-02
      1.39606267e-01 2.98827738e-01 2.98827738e-01 2.98827738e-01
      1.09977573e-01 2.96224356e-01 5.19580506e-02 3.41852382e-02
      5.40173426e-02 1.81699485e-01 1.49560079e-01 1.18853033e-01
      2.98827738e-01 2.98827738e-01 7.76728541e-02 8.88775587e-02
      2.23411039e-01 1.16303056e-01 1.25328928e-01 2.29253098e-02
      1.41858244e-02 4.97001968e-02 7.52497166e-02 3.92672941e-02
      1.69064522e-01 3.39778155e-01 3.20494592e-01 1.17455997e-01
      5.22062462e-03 2.19856389e-04 1.19766954e-03 1.34357540e-02
      3.39778155e-01 1.32659987e-01 1.58552572e-01 5.45710176e-02
      9.10974666e-02 2.25287713e-02 2.54636109e-02 1.40353531e-01
      3.39778155e-01 2.16329098e-01 3.39778155e-01 3.39778155e-01
      2.14170799e-01 3.07048485e-02 5.20842569e-03 0. 1.98688218e-03
      4.54293825e-02 3.64324660e-03 6.88612610e-02 3.48345369e-01
      3.48345369e-01 1.05860248e-01 1.71409757e-03 2.80742621e-04
      1.14371534e-04 3.35485581e-03 1.34579828e-02 2.11104914e-03
      2.62904286e-01 3.48345369e-01 1.66780084e-01 1.91386277e-03
      1.87161757e-04 2.85928836e-05 1.35951117e-02 3.41546498e-02
      1.96698427e-01 3.48345369e-01 3.22048396e-01 2.34069955e-02 0. 0.
      0. 3.09322099e-03 1.85503736e-02 6.65722638e-02 3.48345369e-01
      3.48345369e-01 7.81940892e-02 0. 0. 9.13404219e-04 1.21538173e-02</_>
    <_>
      7.05912411e-02 3.28951329e-01 3.28951329e-01 3.28951329e-01
      2.08174154e-01 3.71100456e-02 1.64611044e-03 9.66087449e-03
      2.12398712e-02 1.74265385e-01 3.28951329e-01 2.54209816e-01
      7.99474493e-02 2.89265849e-02 1.82989973e-03 8.87939168e-05
      1.87484752e-02 1.21487081e-02 3.98843288e-02 1.01342082e-01
      1.92639545e-01 3.28951329e-01 3.28951329e-01 1.18267410e-01
      8.05907696e-03 1.43047161e-02 2.77148765e-02 1.33144125e-01
      2.30069011e-01 1.39482886e-01 1.20597631e-01 1.38942927e-01
      1.74497087e-02 2.35011373e-02 6.29794300e-02 4.13626954e-02
      3.26268703e-01 3.43122840e-01 2.17161044e-01 6.49078861e-02
      1.29763326e-02 0. 1.93159707e-04 3.23867872e-02 3.55023555e-02
      3.43122840e-01 3.43122840e-01 1.00696847e-01 1.77846402e-02
      7.36263022e-03 0. 5.01509232e-04 5.00818761e-03 2.61443257e-01
      2.30515987e-01 3.43122840e-01 1.34354725e-01 6.49833158e-02
      3.75636332e-02 3.82604124e-03 3.15304846e-02 1.06654771e-01
      9.01257098e-02 2.84639746e-01 2.29301900e-01 1.12095095e-01
      4.00480740e-02 2.10628640e-02 2.99829844e-04 5.68662584e-03
      3.94647941e-02 1.98287845e-01 3.29168499e-01 2.01321855e-01
      5.61492369e-02 1.14721311e-02 9.76235699e-03 3.36125423e-03
      4.31463644e-02 5.22705875e-02 3.29168499e-01 2.03625888e-01
      3.68436612e-02 1.76892094e-02 6.31814310e-03 6.30498212e-03
      3.54821570e-02 1.73749268e-01 2.80843735e-01 3.04295003e-01
      2.84717619e-01 1.40065089e-01 8.53582323e-02 4.39471677e-02
      2.64322758e-02 1.14011560e-02 6.44245371e-02 8.75539407e-02
      2.53481388e-01 1.92772537e-01 2.65234169e-02 2.39951070e-02
      1.25660207e-02 8.69001541e-03 3.37638855e-02 2.05053732e-01
      3.29168499e-01 3.29168499e-01 3.39961834e-02 6.02889108e-03
      3.86560820e-02 2.46582612e-01 2.60451078e-01 9.41925272e-02
      8.14370364e-02 2.60451078e-01 1.88199311e-01 1.23838885e-02
      7.82506447e-03 4.13079485e-02 7.34236315e-02 1.04876600e-01
      1.27202794e-01 2.60451078e-01 2.25146696e-01 7.15743601e-02
      2.60451078e-01 5.61624467e-02 1.04422741e-01 1.26467392e-01
      1.56851947e-01 1.41079351e-01 1.14370942e-01 2.60451078e-01
      2.60451078e-01 9.10704285e-02 2.82375775e-02 1.58727571e-01
      1.44115061e-01 1.32442385e-01 2.60451078e-01 2.60451078e-01
      2.44978040e-01 1.72487721e-01 2.37397961e-02 2.70608943e-02
      5.76953404e-02 8.23291317e-02 9.56310332e-02 2.10909635e-01
      3.35321516e-01 2.19280973e-01 3.68252546e-02 1.53545424e-01
      8.94778073e-02 4.51180004e-02 8.34498256e-02 6.64654970e-02
      7.35709891e-02 1.08937815e-01 8.53535011e-02 9.02224630e-02
      2.23846082e-02 4.41172197e-02 1.60922170e-01 1.50597379e-01
      2.23206446e-01 3.35321516e-01 3.35321516e-01 2.97343612e-01
      1.00477487e-01 1.76921487e-01 1.10837728e-01 1.83778107e-02
      5.93192913e-02 1.51250303e-01 2.24094152e-01 2.71872431e-01
      2.39512265e-01 1.26413569e-01 2.39799067e-01 1.24703705e-01
      8.21788907e-02 9.27257389e-02 5.91877736e-02 4.85301688e-02
      5.45560867e-02 1.10729218e-01 1.90809175e-01 2.88090676e-01
      5.45912497e-02 6.55510053e-02 2.38396581e-02 2.07069032e-02
      3.78273353e-02 5.69754280e-02 1.74734384e-01 3.59590918e-01
      2.72370547e-01 1.34693116e-01 3.35297212e-02 6.11059181e-02
      1.15057066e-01 1.40651628e-01 1.86340198e-01 2.42899686e-01
      2.71685481e-01 3.25377882e-01 1.51999265e-01 6.43788800e-02
      2.49622352e-02 4.38929424e-02 9.05283093e-02 7.58259147e-02
      1.34348467e-01 3.59590918e-01 2.71263570e-01 3.63692828e-02
      9.20167789e-02 5.26536070e-02 1.31106809e-01 1.48006573e-01
      1.82617769e-01 1.56891495e-01 3.07814896e-01 7.50342980e-02
      1.35741970e-02 4.34318818e-02 5.64487055e-02 9.04756486e-02
      3.07814896e-01 3.07814896e-01 1.48043007e-01 2.29073882e-01
      6.43927008e-02 7.90162571e-03 2.72625666e-02 5.65200066e-03
      1.00704886e-01 2.20349953e-01 2.66121119e-01 1.23747528e-01
      1.55008957e-01 6.11237530e-03 1.66006945e-03 2.80897162e-04
      1.73945781e-02 2.60630727e-01 3.07814896e-01 3.07814896e-01
      5.25288172e-02 4.04086821e-02 1.52016059e-02 8.76696501e-03
      2.62823999e-02 3.44778672e-02 8.64202678e-02 3.67084801e-01
      3.67084801e-01 1.61259666e-01 9.03847516e-02 4.47564274e-02
      1.95317492e-02 7.62563059e-03 1.38453329e-02 8.21175128e-02
      2.93565512e-01 1.87901661e-01 1.60839200e-01 1.16718970e-01
      1.05034746e-03 0. 0. 2.24235766e-02 3.25393736e-01 3.67084801e-01
      2.73421258e-01 3.23537812e-02 1.19634373e-02 2.57113446e-02
      1.22416103e-02 1.82166435e-02 1.50363175e-02 1.75466001e-01
      3.67084801e-01 1.52517438e-01 4.25158329e-02 5.98240308e-02
      1.04322471e-01 4.28123884e-02 2.83578578e-02 3.91226783e-02
      1.01521835e-01 1.72491878e-01 1.75115675e-01 2.32097208e-01
      2.97373772e-01 3.09222728e-01 2.59095192e-01 1.05892844e-01
      8.51233453e-02 8.45053494e-02 6.77835792e-02 5.74718229e-02
      1.07954398e-01 3.32752645e-01 6.64848983e-02 4.00358774e-02
      6.83928654e-02 5.76434471e-02 1.76833585e-01 3.32752645e-01
      1.85735792e-01 8.67380276e-02 1.55498102e-01 1.55374318e-01
      1.51601091e-01 1.39175996e-01 1.40375435e-01 2.01879218e-01
      2.24467695e-01 1.12323828e-01 4.53049242e-02 1.89062864e-01</_>
    <_>
      3.18714441e-03 1.29069609e-03 5.81472320e-03 8.90537053e-02
      2.25688398e-01 9.58835408e-02 4.49954234e-02 5.96360071e-03
      3.13732447e-03 0. 1.37939089e-04 1.68034974e-02 4.80438918e-01
      4.80438918e-01 7.33954236e-02 9.96235292e-03 2.04221299e-03 0.
      4.06676391e-03 0. 8.79799365e-04 1.10017404e-01 3.40539157e-01
      1.31253541e-01 4.09844220e-02 1.65576749e-02 5.85885206e-03 0. 0.
      4.82677761e-03 2.32633740e-01 4.80438918e-01 1.59102321e-01
      5.31481765e-03 1.24557386e-03 0. 9.43577196e-03 7.53575377e-03
      5.90131953e-02 4.25182164e-01 4.25182164e-01 3.56041975e-02
      1.53324404e-03 2.62184697e-03 2.41815415e-03 3.77430767e-02
      1.71489641e-02 7.28114322e-02 2.22384468e-01 2.49033213e-01
      9.01976973e-02 1.23593137e-01 3.55841704e-02 1.11773172e-02
      1.88430457e-03 2.51890905e-03 1.69161558e-02 2.28592560e-01
      4.25182164e-01 1.04145005e-01 4.13638446e-03 2.03743647e-03
      8.06394266e-04 7.53721548e-03 5.03860833e-03 2.75304243e-02
      2.11330652e-01 4.25182164e-01 1.17893279e-01 3.89289558e-02
      9.13931709e-03 3.22557613e-03 7.13874549e-02 4.97366041e-02
      1.04010545e-01 1.89711601e-01 2.82752514e-01 2.26919591e-01
      3.05316508e-01 9.54513550e-02 2.26246342e-02 7.15129077e-02
      1.97619244e-01 2.13134930e-01 1.13229066e-01 8.51399526e-02
      9.61667970e-02 1.34078175e-01 1.22365952e-01 6.03696369e-02
      1.75223183e-02 1.46856317e-02 7.06459358e-02 3.56533855e-01
      3.81880999e-01 2.10714936e-01 1.05991349e-01 5.27833067e-02
      2.29523536e-02 1.42211780e-01 4.06829417e-02 9.10013840e-02
      1.43633232e-01 2.12116033e-01 6.98385760e-02 1.41002566e-01
      2.37030670e-01 1.94626212e-01 8.37562513e-03 0. 1.26403713e-04
      2.95215473e-02 2.57685453e-01 2.04943851e-01 7.24062771e-02
      2.78591812e-02 1.35079660e-02 0. 0. 1.20088635e-05 4.84283604e-02
      4.41938311e-01 2.55359739e-01 9.81835742e-03 8.25673284e-04 0.
      1.11099873e-02 1.22428220e-03 1.51324051e-03 1.38068143e-02
      2.97802925e-01 3.68836790e-01 1.29208177e-01 3.15371826e-02
      1.50811141e-02 2.64051487e-04 2.20241811e-04 2.74005870e-04
      4.17361744e-02 4.41938311e-01 4.20286685e-01 2.05908567e-02
      4.34565009e-05 1.13865462e-04 8.23282287e-04 2.95326055e-04
      7.16004055e-04 3.69370691e-02 4.05680329e-01 2.57919192e-01
      8.70778412e-03 1.04117231e-03 5.39679499e-03 3.78252775e-03
      1.18130387e-03 1.06498254e-02 7.27443323e-02 4.05680329e-01
      2.39586666e-01 1.44884819e-02 4.16468782e-03 2.20765732e-02
      3.91969079e-04 5.21163529e-05 1.26353625e-04 2.67792474e-02
      4.05680329e-01 3.43415320e-01 3.31656970e-02 8.75188131e-03
      5.03477687e-03 7.30633084e-03 3.33602959e-03 1.57568417e-02
      4.09245118e-02 4.05680329e-01 2.78735340e-01 6.12289794e-02
      4.30929475e-02 3.11374739e-02 8.85068346e-03 8.39470513e-03
      3.33445631e-02 1.22203894e-01 3.70227188e-01 2.46109337e-01
      1.11018876e-02 7.03142630e-03 2.30593160e-02 1.39631107e-01
      9.73021537e-02 1.20550282e-01 1.57214999e-01 3.21535826e-01
      9.08308178e-02 7.32087577e-03 1.95523761e-02 7.32067674e-02
      9.95099545e-03 7.35956337e-03 2.91491412e-02 1.37606248e-01
      3.70227188e-01 3.18024337e-01 4.28506769e-02 4.34936956e-02
      3.26314457e-02 5.39274365e-02 8.33872780e-02 1.46967113e-01
      3.70227188e-01 3.70227188e-01 1.62841693e-01 0. 5.86295209e-04
      3.26561406e-02 3.83033790e-02 1.93277001e-02 1.04011977e-02
      3.48939896e-02 2.79409349e-01 2.03784347e-01 1.40065655e-01
      1.96025833e-01 5.68592697e-02 7.21272500e-03 9.47611500e-03
      6.96035102e-03 2.62668896e-02 3.49288672e-01 3.49288672e-01
      1.39765620e-01 2.15096343e-02 1.01642944e-02 3.91969942e-02
      2.19298154e-02 1.59408860e-02 2.76759248e-02 1.20500341e-01
      7.27730319e-02 1.47416294e-01 3.32783967e-01 6.91026598e-02
      1.64939892e-02 1.42726805e-02 1.18954582e-02 2.33846307e-02
      3.41396183e-01 3.49288672e-01 3.49288672e-01 1.58692881e-01
      2.17548646e-02 2.55874195e-03 3.53362062e-04 6.93042646e-04
      5.25801722e-03 3.59260887e-01 3.59260887e-01 2.37252206e-01
      3.23751681e-02 2.64541898e-03 1.37539003e-02 1.61066428e-02
      3.98909263e-02 3.90814468e-02 1.40286580e-01 1.31118312e-01
      2.36292049e-01 1.59758553e-01 5.69323711e-02 9.06458870e-03
      3.62583832e-03 3.92724248e-03 6.02777442e-03 2.55550414e-01
      3.59260887e-01 3.59260887e-01 1.14232071e-01 5.55875292e-03
      3.39194164e-02 4.78837825e-02 5.51694892e-02 2.54464820e-02
      2.99390350e-02 8.21007267e-02 3.59260887e-01 2.48440713e-01
      1.16727903e-01 1.47298817e-02 2.20716670e-02 7.16228634e-02
      1.79024845e-01 3.65352124e-01 8.19026157e-02 1.08997770e-01
      1.27579138e-01 6.35387525e-02 1.56912860e-02 9.84917954e-03
      7.74579421e-02 3.65352124e-01 3.65352124e-01 1.27676487e-01
      3.85517669e-05 3.77854519e-03 2.43192948e-02 5.61433882e-02
      9.08486694e-02 1.18657365e-01 1.30839989e-01 2.06981361e-01
      3.58856842e-02 1.96625769e-01 1.94256589e-01 1.24423653e-01
      4.83362451e-02 7.23114833e-02 1.11857526e-01 3.00962031e-01
      3.65352124e-01 2.68929362e-01 7.32484390e-04 6.35378435e-03
      2.74583232e-02</_>
    <_>
      1.99640155e-01 1.01177588e-01 5.20189330e-02 6.40955865e-02
      9.01529342e-02 1.94787368e-01 1.78864732e-01 1.44775957e-01
      1.59837022e-01 1.40171736e-01 2.98062973e-02 2.37433631e-02
      2.75750645e-02 4.80020866e-02 1.50093362e-01 3.73582691e-01
      3.23864698e-01 1.71118885e-01 1.33136496e-01 5.17614149e-02
      1.98283643e-02 3.68474312e-02 5.50602153e-02 1.02579281e-01
      8.82272124e-02 2.17948660e-01 2.55160332e-01 1.54052600e-01
      3.56249735e-02 3.17360647e-02 4.72738184e-02 5.45990281e-02
      2.01949745e-01 3.43070388e-01 3.32296520e-01 1.92937866e-01
      1.15250587e-01 2.05365624e-02 3.02637219e-02 2.92155351e-02
      4.18328866e-02 1.94154665e-01 3.49683911e-01 2.35660121e-01
      9.57680196e-02 9.16115642e-02 2.96791606e-02 4.50669304e-02
      4.92337830e-02 6.00618422e-02 3.04227054e-01 4.22204286e-01
      1.11977696e-01 4.33301404e-02 1.76555097e-01 3.49367596e-02
      4.71988209e-02 4.77478392e-02 3.88934016e-02 1.67748973e-01
      2.83981085e-01 3.01596433e-01 1.37266412e-01 1.68540671e-01
      5.07998019e-02 5.62499985e-02 5.42126372e-02 6.60540983e-02
      1.61412418e-01 2.72393554e-01 2.04495683e-01 1.03329673e-01
      4.67688777e-02 3.23906392e-02 3.06393076e-02 4.26900610e-02
      6.19059056e-02 2.57808477e-01 3.60825390e-01 1.22006334e-01
      4.92763445e-02 1.45906955e-01 1.27091810e-01 4.31203246e-02
      1.45191878e-01 8.25124756e-02 2.05829933e-01 2.63864130e-01
      3.13259780e-01 2.75665402e-01 8.53481293e-02 4.60906178e-02
      3.90881635e-02 3.91128398e-02 8.48128647e-02 1.60409749e-01
      2.51576841e-01 1.78126097e-01 8.67076591e-02 2.85782009e-01
      6.64202645e-02 5.31448610e-02 3.53377387e-02 5.14443181e-02
      1.09122038e-01 1.52711466e-01 2.57754922e-01 2.75388598e-01
      6.90391809e-02 8.84152576e-02 7.59248808e-02 7.12055415e-02
      1.38129786e-01 1.46606266e-01 5.75211532e-02 9.78870392e-02
      1.20148554e-01 8.51609334e-02 4.80840765e-02 4.54806015e-02
      6.36992306e-02 1.08944058e-01 2.65727073e-01 2.41786778e-01
      1.92461520e-01 8.21875930e-02 7.77158812e-02 4.48302962e-02
      4.70162593e-02 2.32576244e-02 1.27922252e-01 2.40992606e-01
      2.83025324e-01 2.68072635e-01 1.74762666e-01 9.59241465e-02
      4.02576402e-02 2.53379792e-02 4.62879129e-02 1.41732529e-01
      3.30354273e-01 4.07282382e-01 3.33809376e-01 1.22743361e-01
      9.27736014e-02 5.25934547e-02 4.69765700e-02 7.25021884e-02
      8.79495889e-02 2.20208496e-01 2.49396637e-01 2.33244896e-01
      8.03073198e-02 9.33157578e-02 8.76229778e-02 5.37687503e-02
      7.77649581e-02 1.92646995e-01 2.55644411e-01 1.61032706e-01
      1.98214710e-01 1.55939519e-01 1.18111067e-01 7.65903145e-02
      3.74032632e-02 7.86342770e-02 1.24724448e-01 2.77271301e-01
      3.65806729e-01 2.79495627e-01 9.03470144e-02 1.19298108e-01
      1.31002888e-01 5.81780113e-02 1.41616851e-01 1.78800285e-01
      2.64275223e-01 1.91873699e-01 1.53710783e-01 1.48230165e-01
      1.01805091e-01 6.24684915e-02 2.82664020e-02 3.21314484e-02
      1.51605517e-01 1.69992849e-01 1.08735971e-01 1.48624644e-01
      1.59734458e-01 2.10382119e-01 6.94593266e-02 6.00216240e-02
      1.11617215e-01 2.33068153e-01 2.19194770e-01 1.38487265e-01
      1.26276016e-01 1.62263423e-01 1.35646045e-01 8.38848129e-02
      3.63896750e-02 7.40430281e-02 1.42654225e-01 1.58592075e-01
      1.28591135e-01 1.12956554e-01 1.74720004e-01 1.88682303e-01
      1.44376650e-01 9.32032540e-02 1.30357221e-01 5.01891494e-01
      3.47625703e-01 1.38577223e-01 7.39037767e-02 1.46388263e-01
      1.26937687e-01 2.18302608e-02 1.98540315e-02 2.18839617e-03
      1.65974330e-02 3.82460803e-02 1.52562201e-01 2.31222168e-01
      2.28568912e-01 1.09219953e-01 2.75122561e-02 1.10555207e-02
      6.60028402e-03 6.15860671e-02 1.52661532e-01 2.89281309e-01
      8.60557258e-02 9.48761031e-02 1.92816824e-01 1.47357797e-02
      1.05646886e-02 1.17836753e-03 1.09193241e-02 1.03324000e-02
      2.30075315e-01 3.93393010e-01 3.65329355e-01 3.57364416e-01
      3.35571170e-02 6.10181829e-03 5.72162739e-04 3.63531634e-02
      5.99900857e-02 1.92852244e-01 2.54465491e-01 3.06086302e-01
      9.18115154e-02 2.55320463e-02 1.46963773e-02 1.23130810e-02
      7.42233098e-02 1.81389570e-01 3.47077310e-01 1.05956830e-01
      8.03940520e-02 9.36971009e-02 2.47210339e-02 1.94117147e-02
      3.39296535e-02 6.40162006e-02 4.77585755e-02 1.87052950e-01
      1.70293003e-01 2.01280311e-01 3.53148490e-01 3.39974612e-02
      1.23809334e-02 3.37611092e-03 4.60350439e-02 7.73466304e-02
      2.57905126e-01 2.74396509e-01 3.02582890e-01 1.16960280e-01
      6.32539988e-02 3.97381447e-02 6.16441295e-02 9.15628895e-02
      2.81790383e-02 2.88127810e-01 3.48960400e-01 2.88784802e-01
      8.03291574e-02 1.89047419e-02 9.44049284e-03 4.29861657e-02
      1.18937634e-01 4.10126708e-02 9.22605991e-02 9.93010700e-02
      1.48236096e-01 7.56836683e-02 6.08126596e-02 1.35720134e-01
      2.14978844e-01 3.95827740e-01 1.17462151e-01 4.14590575e-02
      3.26900817e-02 7.78102949e-02 7.15991259e-02 5.94114996e-02
      6.57864213e-02 1.34199873e-01 2.59893954e-01 3.94017063e-02
      1.28351822e-01 1.60961881e-01 1.52252093e-01 6.55993745e-02
      3.06571759e-02 2.80818194e-01 4.50420380e-01 4.50420380e-01
      1.22377023e-01 2.81120781e-02 2.22324915e-02 7.36461878e-02</_>
    <_>
      1.23592727e-02 2.90428810e-02 1.76885918e-01 2.29540676e-01
      2.67134070e-01 5.10423332e-02 1.40393886e-03 6.07168674e-03
      1.40936868e-02 8.26838166e-02 2.25947246e-01 3.32026839e-01
      1.72882095e-01 1.11900195e-01 2.75925752e-02 0. 1.99913196e-02
      1.61725413e-02 1.28190611e-02 1.47150932e-02 2.76066720e-01
      3.32026839e-01 3.32026839e-01 1.08486310e-01 4.27292939e-03 0.
      1.27599370e-02 5.27790859e-02 2.51019269e-01 3.32026839e-01
      3.32026839e-01 1.72965124e-01 1.60599779e-02 0. 0. 7.73634668e-03
      9.52456295e-02 2.61347860e-01 3.24673116e-01 2.00507715e-01
      3.56775634e-02 9.25713871e-03 0. 1.56380571e-02 1.14673944e-02
      1.17697708e-01 2.28479952e-01 3.24673116e-01 3.24673116e-01
      6.04577689e-03 0. 4.12610639e-03 2.60180123e-02 5.74411750e-02
      7.92969838e-02 3.24673116e-01 3.24673116e-01 2.03061566e-01
      6.38164952e-02 5.58713358e-03 1.93205359e-03 6.79095509e-03
      1.03961574e-02 7.53808394e-02 2.74911374e-01 3.24673116e-01
      1.96671292e-01 1.57798231e-02 3.22310366e-02 2.13591140e-02
      3.60438451e-02 1.08103938e-02 1.75870910e-01 2.43532524e-01
      3.04343075e-01 2.67841309e-01 1.80908889e-02 1.09297142e-03
      5.24001336e-03 3.04707587e-02 7.96018019e-02 3.04343075e-01
      3.04343075e-01 2.15660557e-01 2.15104654e-01 6.98595122e-02
      4.37188428e-03 1.36108766e-03 6.29848801e-03 1.05709150e-01
      5.77840731e-02 1.54950961e-01 3.04343075e-01 2.36510977e-01
      6.27614632e-02 4.44733389e-02 2.22842600e-02 2.85542365e-02
      1.15694897e-02 1.38186127e-01 1.82863235e-01 3.04343075e-01
      2.92315453e-01 1.38984621e-01 4.83305529e-02 1.01132067e-02
      3.48561211e-03 7.03090355e-02 5.93523867e-03 5.22540940e-04
      3.25208716e-02 1.38943136e-01 3.52144361e-01 3.52144361e-01
      1.47552025e-02 1.13946048e-03 5.93523867e-03 3.80297401e-03
      4.67432551e-02 1.46429434e-01 2.06596076e-01 3.42044383e-01
      1.90845370e-01 1.41377142e-03 1.84091774e-03 1.07517058e-03
      7.34517165e-03 0. 5.59688080e-04 2.18552519e-02 3.52144361e-01
      3.52144361e-01 4.58212271e-02 3.88390967e-03 7.34517165e-03
      6.65437301e-06 1.30115924e-02 2.91828047e-02 6.96667805e-02
      3.52144361e-01 3.52144361e-01 5.61671481e-02 1.78752057e-02
      5.03795280e-04 3.19781601e-02 1.57988906e-01 2.68440604e-01
      2.46679783e-01 3.42442602e-01 1.44006327e-01 8.96983501e-03
      1.95866171e-02 6.75608311e-03 4.08058204e-02 1.24879129e-01
      1.09814242e-01 1.31756812e-01 3.03238809e-01 1.35390192e-01
      5.73474430e-02 6.67336732e-02 7.91055243e-03 1.54065238e-02
      4.62671854e-02 7.69954175e-02 1.38421863e-01 3.42442602e-01
      3.42442602e-01 1.31115600e-01 7.00508654e-02 1.43170683e-02
      3.39647382e-02 4.00655605e-02 6.31206334e-02 2.88575351e-01
      3.42442602e-01 1.75562486e-01 8.35726187e-02 6.63845167e-02
      2.44658329e-02 2.14136913e-02 4.46162559e-02 1.10585816e-01
      1.83001354e-01 2.88294226e-01 1.23677537e-01 5.07289395e-02
      4.06422541e-02 7.14780297e-03 1.16851993e-01 1.45907834e-01
      3.34490985e-01 2.70002723e-01 1.19292967e-01 3.38219665e-02
      1.35208061e-02 2.53177085e-03 5.76653779e-02 1.88999176e-02
      1.50896292e-02 8.36303532e-02 3.34490985e-01 3.34490985e-01
      1.59481227e-01 3.34081240e-02 1.46645801e-02 1.21615920e-02
      5.11700660e-02 5.98773696e-02 3.34217310e-01 3.34490985e-01
      3.34490985e-01 7.76301771e-02 3.90348863e-03 3.76478012e-04
      3.47825475e-02 9.07987170e-03 4.55677655e-04 5.00841066e-04
      3.42194783e-03 2.69029856e-01 3.44691426e-01 6.76540509e-02
      9.83635336e-03 8.72989744e-03 0. 2.77531886e-04 1.26455561e-04
      4.09466738e-04 2.71278322e-01 3.44691426e-01 2.69566834e-01
      2.54017152e-02 2.50066747e-04 2.18298137e-02 2.10583229e-02
      1.37251001e-02 4.49066460e-02 3.37235689e-01 3.44691426e-01
      5.34482412e-02 1.65718962e-02 2.89650802e-02 0. 0. 6.31077681e-04
      7.73552014e-03 3.31464201e-01 3.44691426e-01 2.56707519e-01
      2.30472181e-02 9.74342693e-05 8.90024658e-03 2.54099164e-03
      3.23910383e-03 5.63081773e-03 1.72443286e-01 3.50336641e-01
      3.50336641e-01 1.39844596e-01 2.85813529e-02 7.30632618e-02
      3.30662131e-02 7.84797668e-02 8.08243379e-02 9.74750668e-02
      8.82786438e-02 2.30212614e-01 2.09393635e-01 7.99022987e-02
      1.71798107e-03 1.47833998e-04 4.12987865e-05 0. 2.50793934e-01
      3.50336641e-01 3.50336641e-01 1.39773056e-01 1.44716036e-02
      9.32378098e-02 5.69655299e-02 4.28428762e-02 3.38159390e-02
      8.58892724e-02 7.62777552e-02 3.50336641e-01 2.71764576e-01
      9.12264809e-02 7.01423883e-02 4.35963571e-02 1.20768368e-01
      1.67803690e-01 3.34446877e-01 1.32314786e-01 8.63193497e-02
      1.07113130e-01 6.01288155e-02 2.90022939e-02 3.54297794e-02
      1.06847629e-01 3.20763946e-01 3.34446877e-01 2.97453731e-01
      4.15073894e-02 2.88731331e-04 2.53311228e-02 1.29914448e-01
      1.10283703e-01 1.16542988e-01 1.23019487e-01 1.37552917e-01
      6.81760982e-02 1.88685432e-01 1.74275950e-01 1.15578897e-01
      7.24177733e-02 9.74229351e-02 1.69108763e-01 2.88135797e-01
      3.34446877e-01 2.63195336e-01 5.60848564e-02 5.24417963e-03
      6.91350251e-02</_>
    <_>
      3.38471293e-01 2.57589877e-01 4.86031324e-02 2.40505151e-02
      4.30941470e-02 1.89165007e-02 3.87047380e-02 5.36027551e-02
      1.46504626e-01 3.38471293e-01 1.84058234e-01 5.08250706e-02
      2.43617781e-02 5.71980476e-02 6.56886473e-02 1.32728964e-01
      1.31219655e-01 2.98429370e-01 3.38471293e-01 2.50608534e-01
      1.28137067e-01 9.47255343e-02 1.18266724e-01 6.26254752e-02
      6.03577271e-02 1.37043521e-02 9.85897705e-02 3.38471293e-01
      2.84970671e-01 1.66986898e-01 7.35129714e-02 7.45951384e-02
      3.77953164e-02 7.54794180e-02 8.52616206e-02 1.35552600e-01
      2.83285052e-01 1.02352455e-01 3.11978664e-02 2.52933409e-02
      6.13527298e-02 7.61451274e-02 2.05820933e-01 1.75891995e-01
      2.52110571e-01 3.24357599e-01 2.11758688e-01 3.84838060e-02
      1.86776072e-02 4.21290025e-02 5.16754501e-02 2.15430811e-01
      2.42125884e-01 2.94484258e-01 2.77172625e-01 1.62111327e-01
      9.11700130e-02 5.34869097e-02 6.71317875e-02 4.65255417e-02
      1.21168137e-01 1.19797811e-01 1.54116616e-01 3.24357599e-01
      1.80096984e-01 1.01860136e-01 6.28043413e-02 9.14719030e-02
      5.83563559e-02 1.20191365e-01 1.42588794e-01 1.94086283e-01
      3.27890307e-01 1.74299672e-01 3.12294718e-02 2.03669127e-02
      1.98597908e-02 1.37307029e-02 1.12649903e-01 1.82325482e-01
      2.97126323e-01 3.27890307e-01 1.67042568e-01 1.50253192e-01
      8.61055404e-02 6.49637505e-02 3.93218584e-02 6.36402443e-02
      1.50645837e-01 3.13495338e-01 3.07185292e-01 1.44958481e-01
      8.98559391e-02 4.95547168e-02 5.34800850e-02 2.33978759e-02
      6.16691075e-02 1.15027487e-01 1.79578096e-01 3.27890307e-01
      1.37868449e-01 1.03943855e-01 2.64544208e-02 1.31380986e-02
      1.70610808e-02 6.74598441e-02 1.64064303e-01 2.79096097e-01
      5.40707521e-02 6.99917749e-02 1.64076030e-01 2.07322508e-01
      2.52903581e-01 1.69458389e-01 1.49091959e-01 4.03248817e-02
      1.21094901e-02 1.98123753e-01 9.28218141e-02 1.12423286e-01
      1.61318243e-01 2.62213856e-01 1.48727030e-01 7.02032968e-02
      1.00818343e-01 6.16810992e-02 4.47471812e-02 3.08634918e-02
      1.28123775e-01 2.08324015e-01 2.81016111e-01 2.95091629e-01
      2.15881497e-01 6.53430298e-02 1.16959913e-02 8.45684409e-02
      7.02159852e-02 1.07275233e-01 3.16320151e-01 3.40959728e-01
      2.69861460e-01 8.42265636e-02 6.05629906e-02 5.06540313e-02
      2.46947974e-01 7.59405866e-02 9.28684995e-02 1.32382557e-01
      2.32580319e-01 1.19674258e-01 5.94462603e-02 1.37874901e-01
      1.22114703e-01 1.30252540e-01 9.34971422e-02 1.02506377e-01
      1.68191224e-01 2.32408628e-01 2.62401432e-01 1.11714154e-01
      9.46786255e-02 1.18629254e-01 1.64842457e-01 1.10954933e-01
      1.16429299e-01 2.22252950e-01 3.46304566e-01 2.00369924e-01
      6.53731897e-02 8.76822323e-02 9.21363607e-02 1.62777528e-01
      1.02612138e-01 9.07072574e-02 1.35755584e-01 2.12458834e-01
      3.22087169e-01 2.18899667e-01 1.14703342e-01 1.35213494e-01
      7.54269287e-02 1.38124168e-01 1.32108420e-01 1.62169099e-01
      1.55993968e-01 1.87565356e-01 1.01678863e-01 5.76720834e-02
      6.80572540e-02 2.14684591e-01 3.21266860e-01 2.04122230e-01
      9.41775516e-02 8.64510238e-02 6.95285276e-02 3.90469804e-02
      3.22117805e-02 8.19359347e-02 7.13681951e-02 1.02122277e-01
      1.28405452e-01 1.81209028e-01 1.79792657e-01 2.98932493e-01
      2.44591951e-01 8.49028304e-02 8.25896934e-02 1.78669438e-01
      3.26205015e-01 3.05553317e-01 1.76824331e-01 1.72235608e-01
      1.57118112e-01 2.07872286e-01 4.94152270e-02 7.35363513e-02
      3.45159434e-02 2.47815382e-02 8.08284432e-02 1.65087342e-01
      1.42993107e-01 2.99662977e-01 1.98651105e-01 1.52449623e-01
      3.59478369e-02 1.62663564e-01 3.04699838e-01 1.88279584e-01
      2.35354781e-01 1.57080501e-01 1.12529159e-01 1.02042854e-01
      1.51001319e-01 4.90713529e-02 8.53847414e-02 4.44733724e-02
      4.11402136e-02 4.33399677e-02 9.01107937e-02 2.10588634e-01
      2.09641993e-01 2.51082182e-01 8.06886405e-02 2.43503883e-01
      3.25248599e-01 2.66250581e-01 1.28792733e-01 1.42950296e-01
      4.00664024e-02 8.83602649e-02 1.93456680e-01 7.19393566e-02
      1.42354220e-01 3.21963131e-01 1.97860539e-01 1.74093962e-01
      1.02857515e-01 5.46459071e-02 5.04133999e-02 5.87138832e-02
      2.89261248e-02 6.03906363e-02 2.52085835e-01 1.40970081e-01
      1.27544641e-01 6.80298060e-02 1.20249435e-01 1.95144415e-01
      1.14383355e-01 1.45359546e-01 1.89049438e-01 3.21963131e-01
      2.89272040e-01 1.24655448e-01 1.45953268e-01 1.57516133e-02
      2.57271435e-02 5.99563420e-02 2.99392752e-02 4.71394770e-02
      3.04734617e-01 1.68508455e-01 1.04260042e-01 1.77275464e-01
      2.42024601e-01 2.55804896e-01 1.59183770e-01 8.85612518e-02
      1.92306396e-02 7.85233751e-02 4.25032787e-02 6.48733377e-02
      8.64887312e-02 1.33350402e-01 2.15248987e-01 9.68497321e-02
      9.38880444e-02 3.72542478e-02 3.23407948e-02 2.67277490e-02
      9.91330966e-02 2.70047545e-01 2.33707413e-01 2.97220320e-01
      5.64652272e-02 2.99568530e-02 9.60004237e-03 8.26196149e-02
      3.47006954e-02 9.79853123e-02 1.96612090e-01 2.57214069e-01
      2.94930667e-01 1.36515364e-01 5.68276905e-02 5.43502420e-02
      5.96543355e-03 2.34563416e-03 3.32893580e-01 3.32893580e-01
      3.32893580e-01 2.96620905e-01 6.15428537e-02 5.27034439e-02</_>
    <_>
      1.57566816e-01 1.61466241e-01 1.47434324e-01 1.31741762e-01
      7.89855272e-02 5.71974143e-02 6.89973012e-02 5.11449352e-02
      6.90106302e-02 1.35543942e-01 2.98932821e-01 2.98932821e-01
      2.90121585e-01 1.11750551e-01 4.87359203e-02 4.77299392e-02
      5.33878654e-02 5.36599457e-02 2.98932821e-01 1.67469844e-01
      9.44318175e-02 8.11588466e-02 4.51564752e-02 8.23136941e-02
      1.77225277e-01 1.59440011e-01 2.33961388e-01 2.98932821e-01
      2.98932821e-01 2.19094738e-01 1.70267746e-01 7.23177865e-02
      7.32668266e-02 1.01298302e-01 1.17454097e-01 1.93838209e-01
      1.01806775e-01 2.63907969e-01 2.95623392e-01 1.70425579e-01
      4.87851426e-02 1.92605238e-02 1.93222687e-02 2.35310830e-02
      2.34162007e-02 9.44948494e-02 2.73066282e-01 2.95623392e-01
      2.15822950e-01 4.78684045e-02 4.45837080e-02 2.31387597e-02
      1.99649427e-02 2.62155905e-02 2.95623392e-01 2.95623392e-01
      2.24677637e-01 1.09848619e-01 2.87595764e-02 1.61267258e-02
      1.63438041e-02 3.02768964e-02 7.47947693e-02 2.57932007e-01
      2.95623392e-01 2.95623392e-01 2.28337109e-01 1.39890283e-01
      5.89564703e-02 5.53824268e-02 2.12140288e-02 8.82503167e-02
      9.15231332e-02 1.93403542e-01 2.79626071e-01 2.10003585e-01
      8.30753967e-02 1.25302255e-01 8.50412846e-02 6.04016408e-02
      5.73775172e-02 5.92176281e-02 2.11590268e-02 5.45916781e-02
      9.69549492e-02 1.64962277e-01 2.79626071e-01 2.31191307e-01
      1.18365370e-01 8.31822678e-02 1.68795764e-01 1.40336215e-01
      2.79626071e-01 2.36543670e-01 2.79626071e-01 2.43913889e-01
      1.26781270e-01 3.86818387e-02 9.83925611e-02 6.73400238e-02
      3.46882152e-03 1.47105511e-02 1.32103845e-01 2.79626071e-01
      2.79626071e-01 2.21869364e-01 1.00295648e-01 1.05324201e-01
      3.02595586e-01 1.60265535e-01 1.43286511e-01 7.46855587e-02
      3.20352353e-02 1.26044247e-02 5.16706854e-02 1.09616794e-01
      2.49395952e-01 3.02595586e-01 3.02595586e-01 2.42924929e-01
      1.30012885e-01 1.38782740e-01 1.17764184e-02 4.14110869e-02
      5.13662808e-02 1.47886992e-01 2.69405246e-01 1.67881176e-01
      1.66339919e-01 9.52959433e-02 9.25030038e-02 1.95887815e-02
      3.44710127e-02 4.54081446e-02 1.78770006e-01 1.48972362e-01
      2.06206307e-01 2.84546554e-01 1.88161790e-01 3.02595586e-01
      1.49608552e-02 7.59727880e-02 1.94003135e-02 1.00980826e-01
      2.92301893e-01 2.95886606e-01 1.96207911e-01 7.37348497e-02
      1.26911327e-01 3.78722115e-03 2.86516957e-02 1.97956562e-02
      6.07142635e-02 2.27995381e-01 1.61827624e-01 1.35902002e-01
      2.47132510e-01 2.95886606e-01 6.85910359e-02 1.24602601e-01
      3.03060133e-02 9.79794860e-02 5.76702915e-02 1.46354347e-01
      2.95886606e-01 1.68901950e-01 2.95886606e-01 7.41201174e-03
      3.83105017e-02 8.52992386e-03 2.42516659e-02 2.03004275e-02
      5.13328686e-02 2.41159931e-01 2.95886606e-01 2.95886606e-01
      9.98078585e-02 7.72070065e-02 1.34036262e-02 1.13282278e-02
      1.35443658e-01 3.67827751e-02 8.44681337e-02 2.93465197e-01
      3.07587445e-01 2.21452951e-01 1.74977481e-01 5.43062165e-02
      9.68778282e-02 5.56201078e-02 3.92200379e-03 6.87380135e-03
      5.72527200e-02 2.39788651e-01 2.31361046e-01 2.12592646e-01
      2.78015196e-01 1.75516412e-01 1.01335328e-02 2.99535785e-02
      1.28544912e-01 2.99297750e-01 3.07587445e-01 2.18290001e-01
      1.71339914e-01 4.28039618e-02 2.20444798e-02 6.06060438e-02
      3.53458710e-02 6.03402071e-02 9.20158178e-02 1.06226712e-01
      1.59575477e-01 2.35688567e-01 1.67131037e-01 9.11852419e-02
      1.24282762e-01 9.21867937e-02 1.33310288e-01 2.74438132e-02
      9.04965475e-02 2.13837046e-02 7.58023262e-02 1.09603800e-01
      1.63373157e-01 9.13759321e-02 2.45364755e-01 3.09411913e-01
      1.20233193e-01 1.52953669e-01 1.64490601e-03 3.61747593e-02
      4.11461741e-02 8.26404244e-02 2.14723170e-01 2.59672612e-01
      1.91351682e-01 2.12487113e-02 3.04320510e-02 6.19257661e-03
      1.09707557e-01 3.09411913e-01 3.09411913e-01 3.09411913e-01
      3.09411913e-01 3.09411913e-01 8.44517946e-02 3.72381881e-02 0.
      2.58688480e-02 6.22105114e-02 1.84468478e-01 1.04232125e-01
      1.93523467e-01 3.39158863e-01 1.46494865e-01 1.54796585e-01
      9.70062858e-04 1.40036400e-02 3.39048281e-02 6.82462454e-02
      1.41640306e-01 1.87712729e-01 2.00463548e-01 1.14524566e-01
      1.11144342e-01 1.94809642e-02 1.95354559e-02 2.45339628e-02
      3.71670648e-02 3.39158863e-01 3.39158863e-01 3.18553776e-01
      6.44596443e-02 3.01094074e-02 0. 6.27649808e-03 3.96148898e-02
      1.72800988e-01 3.39158863e-01 3.39158863e-01 2.31459633e-01
      2.22330764e-02 2.43611112e-02 3.94642557e-04 6.81346655e-03
      2.35983655e-02 6.89652264e-02 6.93315938e-02 1.98787659e-01
      1.68635041e-01 6.05112724e-02 5.64558618e-02 2.60926038e-02
      3.12065985e-02 1.17160650e-02 1.07786842e-02 5.91564290e-02
      3.58435035e-01 3.71155053e-01 1.25219181e-01 1.85219031e-02
      2.33904328e-02 4.43372615e-02 1.67790949e-02 4.68022041e-02
      2.88095862e-01 3.71155053e-01 3.25133860e-01 1.73315294e-02
      1.26280282e-02 7.24473153e-04 2.34573311e-03 4.38613445e-03
      1.32388864e-02 1.20162003e-01 3.71155053e-01 3.71155053e-01
      4.72954810e-02 3.71795334e-03 9.31041664e-04 1.57623854e-03
      2.97320425e-04 6.85704574e-02</_>
    <_>
      3.37939948e-01 3.90280783e-01 1.21512696e-01 2.74421554e-02
      1.61549989e-02 4.84842109e-03 5.66578237e-03 5.61872125e-03
      4.62246500e-02 1.61356717e-01 3.90280783e-01 2.27100030e-01
      3.82072665e-02 3.17147970e-02 8.43025930e-03 5.46550751e-03
      5.88516146e-03 1.32104978e-02 2.04154491e-01 3.90280783e-01
      1.67847559e-01 1.85194314e-02 1.48536619e-02 7.30156340e-03
      3.69449006e-03 1.76593906e-03 4.26831618e-02 1.02943361e-01
      3.90280783e-01 1.47217467e-01 2.24196538e-01 1.37074798e-01
      1.54852066e-02 7.23119825e-03 1.03540868e-02 1.41866524e-02
      1.07533313e-01 3.33688736e-01 2.77155757e-01 1.02514260e-01
      4.84616570e-02 1.13127111e-02 5.94822550e-03 4.67183487e-03
      1.33279730e-02 2.04652160e-01 3.33688736e-01 3.01183075e-01
      1.43510282e-01 3.29797529e-02 1.62092876e-02 3.57328393e-02
      2.10532602e-02 5.82742020e-02 5.34782857e-02 3.14068615e-01
      1.57367691e-01 3.33688736e-01 2.09539041e-01 1.80078205e-02
      7.29316566e-03 9.16123111e-03 1.40322177e-02 1.32116422e-01
      1.37412027e-01 2.03756571e-01 3.33688736e-01 1.17989331e-01
      5.00983074e-02 1.13261648e-01 7.29553849e-02 8.21859315e-02
      2.87883073e-01 2.87883073e-01 2.32570574e-01 9.52138230e-02
      1.17479023e-02 2.02169195e-02 6.92399591e-02 4.72692996e-02
      1.23809099e-01 2.87883073e-01 2.87883073e-01 1.72392875e-01
      9.76560190e-02 1.26206568e-02 6.89218845e-03 3.97338793e-02
      3.18609662e-02 1.51006475e-01 1.96718812e-01 1.20151967e-01
      1.87309116e-01 2.26104066e-01 2.64463779e-02 7.88139775e-02
      2.04993308e-01 1.32995367e-01 1.37444109e-01 1.81949332e-01
      2.36746505e-01 2.87883073e-01 2.84507930e-01 9.47108120e-02
      3.26438695e-02 9.29364264e-02 6.90253079e-02 1.15890808e-01
      4.11860086e-02 1.20209135e-01 8.78100023e-02 3.99876572e-02
      7.15971589e-02 7.54499584e-02 1.12377971e-01 5.89912198e-02
      3.69444266e-02 2.31664702e-02 6.12911135e-02 1.50847763e-01
      4.61386025e-01 4.61386025e-01 3.06239780e-02 1.85454413e-02
      2.44789254e-02 2.18821373e-02 5.99139370e-02 4.94769104e-02
      2.50235815e-02 1.73385367e-02 3.31751481e-02 7.06033334e-02
      1.21779643e-01 1.31733820e-01 9.85594541e-02 5.19833788e-02
      1.13899469e-01 1.11085743e-01 4.26646173e-01 4.61386025e-01
      7.65488744e-02 1.96387321e-02 3.51735651e-02 3.36228609e-02
      3.69734550e-03 8.62311572e-03 5.31042926e-02 3.53552371e-01
      3.53552371e-01 3.33997458e-02 7.72947329e-04 1.06431870e-03
      2.88358447e-03 1.93091817e-02 8.09037033e-03 7.65751302e-02
      3.49190682e-01 3.53552371e-01 7.33048320e-02 1.15571842e-01
      7.83184692e-02 5.32842539e-02 6.60170708e-03 2.18988750e-02
      2.84288786e-02 2.05799028e-01 3.53552371e-01 1.39637351e-01
      1.28383632e-04 2.32827355e-04 1.10339618e-03 1.66891050e-02
      1.52047919e-02 3.31471413e-02 2.03460336e-01 3.53552371e-01
      3.09004664e-01 8.66367146e-02 4.52850647e-02 1.63764823e-02
      3.63025479e-02 2.12995894e-02 8.73918012e-02 2.37252459e-01
      2.11674064e-01 1.37535006e-01 3.07677388e-01 2.01242760e-01
      8.76956880e-02 3.84829678e-02 3.53673920e-02 6.15813658e-02
      9.58710909e-02 1.05249092e-01 1.57733679e-01 2.36656874e-01
      1.54125437e-01 4.98323254e-02 2.75764521e-02 2.84634549e-02
      5.02533987e-02 1.84607625e-01 3.13410640e-01 3.13410640e-01
      3.13410640e-01 1.19226269e-01 3.00810132e-02 3.80913988e-02
      1.30372550e-02 1.03855859e-02 1.59745496e-02 3.36490981e-02
      3.13410640e-01 3.13410640e-01 2.00716734e-01 5.33594787e-02
      6.41024411e-02 4.97177728e-02 3.23065631e-02 1.94263533e-02
      4.33263667e-02 6.40752167e-02 1.29541367e-01 1.67433783e-01
      1.39599517e-01 4.15390357e-02 1.30892962e-01 1.56073928e-01
      2.79130846e-01 4.06986207e-01 1.31609067e-01 8.31426214e-03
      4.64106537e-02 4.33278084e-02 6.13276511e-02 3.13339867e-02
      3.29988003e-02 6.91001955e-03 3.21489275e-02 6.84267506e-02
