<?xml version="1.0"?>
<opencv_storage>
<my_svm type_id="opencv-ml-svm">
  <svm_type>C_SVC</svm_type>
  <kernel><type>LINEAR</type></kernel>
  <C>5.0000000000000000e-01</C>
  <term_criteria><epsilon>2.2204460492503131e-16</epsilon>
    <iterations>100</iterations></term_criteria>
  <var_all>324</var_all>
  <var_count>324</var_count>
  <class_count>2</class_count>
  <class_labels type_id="opencv-matrix">
    <rows>1</rows>
    <cols>2</cols>
    <dt>i</dt>
    <data>
      -1 1</data></class_labels>
  <sv_total>1</sv_total>
  <support_vectors>
    <_>
      3.06771696e-01 1.22230113e-01 -7.17547163e-02 7.22879218e-03
      -6.78962618e-02 7.00640529e-02 4.65777695e-01 1.72379464e-01
      3.95962507e-01 -7.74934888e-02 -2.56536126e-01 -5.07556140e-01
      1.41110504e-02 1.85360283e-01 3.69310170e-01 3.52764934e-01
      3.04099247e-02 1.54516473e-01 6.33480996e-02 -2.31665984e-01
      3.06990236e-01 1.51676461e-02 -9.97986272e-02 4.40802798e-02
      3.30166727e-01 7.87405893e-02 4.18402314e-01 -2.13375270e-01
      -4.86655980e-01 -5.16816199e-01 -4.21277165e-01 -3.64771962e-01
      -4.81832959e-02 9.62353311e-03 -2.76030183e-01 -1.51499167e-01
      5.67796119e-02 -1.22048557e-01 -1.48290992e-01 7.32880831e-02
      2.07197860e-01 -3.60463932e-02 1.62506313e-03 -2.11825415e-01
      1.56063456e-02 5.98854303e-01 2.48319849e-01 2.22558931e-01
      1.16844893e-01 8.86886939e-02 -2.18569055e-01 5.62627167e-02
      -2.14450002e-01 -2.93519422e-02 -1.95641667e-02 -3.63372147e-01
      -5.52960932e-01 -1.10487796e-01 -5.59024997e-02 -2.25396350e-01
      -3.60080332e-01 -5.91250777e-01 -2.26958185e-01 -1.50921851e-01
      -2.77412534e-01 -3.76365989e-01 -1.62683919e-01 -3.18874083e-02
      -1.10874698e-01 -1.23290591e-01 -5.53428233e-01 -2.12040454e-01
      1.62191406e-01 2.42875382e-01 2.61159092e-01 -2.22159892e-01
      -6.37743920e-02 -2.73824900e-01 -1.56179845e-01 -5.03326535e-01
      -4.87994671e-01 3.72284025e-01 4.60521013e-01 3.44735146e-01
      2.34919980e-01 9.22471583e-02 -4.75089848e-01 5.13111830e-01
      5.21734543e-02 -8.70891884e-02 -2.46939883e-01 -3.42694104e-01
      -4.08381432e-01 -7.05692694e-02 -3.45665328e-02 -3.38877797e-01
      -2.12634400e-01 -5.23585379e-01 -4.32346225e-01 4.56111312e-01
      2.13420913e-01 1.50603771e-01 1.35214508e-01 2.64173776e-01
      -2.19904810e-01 2.53577977e-01 3.32803607e-01 3.72298419e-01
      2.58529514e-01 4.60069440e-02 1.81028545e-02 -2.40119815e-01
      -5.91366813e-02 3.58396508e-02 1.02897517e-01 1.03671663e-02
      5.08532703e-01 3.70074250e-02 2.53013074e-02 -2.69688576e-01
      -6.57483578e-01 -4.90115076e-01 -1.00504212e-01 -2.12371647e-01
      -2.04841927e-01 -2.01123491e-01 2.59260565e-01 2.42154568e-01
      2.89279193e-01 -4.18273568e-01 -1.57645997e-03 1.01868153e-01
      -1.89892948e-01 -9.04767215e-02 3.27550173e-01 -2.80457828e-02
      -1.93231001e-01 -1.15078285e-01 -4.31295544e-01 -5.40575981e-01
      -4.61518429e-02 -3.98303837e-01 -4.44459289e-01 -3.41678172e-01
      -1.86509520e-01 -1.27196044e-01 -5.01430742e-02 -3.87643725e-01
      -1.47193387e-01 1.11272924e-01 -3.18897724e-01 -5.93490005e-01
      -5.21614075e-01 -2.40180194e-01 -2.03941137e-01 -1.73905447e-01
      -1.31503686e-01 -1.45654514e-01 -5.14191634e-04 -2.47454137e-01
      -6.63514972e-01 -3.89959335e-01 -2.90035248e-01 -4.59336221e-01
      -3.89456726e-03 -1.47584632e-01 3.15599814e-02 7.47793093e-02
      -2.43957877e-01 -3.58671725e-01 -5.91194689e-01 -5.21803975e-01
      -4.01164830e-01 -1.39582381e-01 -3.08823287e-01 -1.83098391e-01
      1.76498294e-01 -9.66550484e-02 -2.28344962e-01 -3.52350354e-01
      -3.21299702e-01 -3.98813456e-01 -5.62960386e-01 -4.07619268e-01
      -4.76669252e-01 -2.26435065e-01 -3.60810071e-01 -9.95247066e-01
      -3.95487368e-01 3.35743695e-01 1.24564946e-01 1.58055662e-03
      5.58062121e-02 1.07391113e-02 -2.69995570e-01 4.29823905e-01
      -2.02093199e-01 2.89200455e-01 -4.53299373e-01 -6.06178999e-01
      -2.39139780e-01 -6.31577015e-01 -3.45302910e-01 5.48993424e-02
      -4.20529813e-01 -4.61564273e-01 -2.75269121e-01 3.90499383e-01
      1.08591452e-01 5.14010072e-01 4.21094820e-02 2.52141207e-01
      2.80987233e-01 3.55756909e-01 1.94466949e-01 3.69264662e-01
      7.58624375e-02 1.73391297e-01 1.43329412e-01 -5.38966537e-01
      -1.20839372e-01 -4.72503761e-03 -1.34990126e-01 6.51197881e-02
      9.47379544e-02 -1.83709443e-01 -4.26417053e-01 -1.45728424e-01
      -9.17569622e-02 -4.54496294e-01 -3.47671717e-01 -6.96164131e-01
      -4.49577808e-01 -1.60147920e-01 2.42561195e-02 2.50248402e-01
      3.81625086e-01 1.10165618e-01 -3.30680549e-01 3.54329884e-01
      3.40356112e-01 2.90878266e-01 9.63611305e-02 -8.60333592e-02
      -2.50383317e-01 1.39236107e-01 3.34715366e-01 -1.47539064e-01
      -9.19913352e-02 -3.51773083e-01 -5.24116840e-05 -1.25606477e-01
      -4.31569725e-01 -5.71212709e-01 -3.02796066e-01 5.92828430e-02
      -2.50726819e-01 -1.96660444e-01 -4.36805040e-01 -5.76152146e-01
      -4.26159024e-01 -3.67359102e-01 -2.24582121e-01 -2.19425574e-01
      -2.43128106e-01 -9.29677859e-02 -2.92864949e-01 -1.31123915e-01
      -3.22350234e-01 -3.41254056e-01 5.24921529e-03 -3.48474473e-01
      -5.80319799e-02 2.33401224e-01 -1.62286162e-01 -2.51465812e-02
      -3.69558752e-01 -3.18953954e-02 2.00093240e-01 3.18231255e-01
      -9.91341174e-02 -1.17458934e-02 1.00808129e-01 -1.25475928e-01
      -1.31216481e-01 -1.18602030e-01 -1.01705827e-01 4.65629734e-02
      -2.87528872e-01 -4.13561791e-01 -1.60517529e-01 -3.93346012e-01
      -1.45901501e-01 -2.25331113e-01 -1.46002993e-01 -1.62158206e-01
      -2.30544373e-01 2.66865611e-01 3.65001336e-02 7.17400014e-01
      8.24212730e-02 6.62859157e-02 1.29013374e-01 9.98535603e-02
      2.91668683e-01 1.28821775e-01 -3.03204715e-01 -5.37133574e-01
      -2.22207040e-01 -3.13998401e-01 -4.33318198e-01 -7.76141435e-02
      3.49057950e-02 -6.68785945e-02 -1.40707105e-01 -5.10190539e-02
      -1.94424048e-01 7.50066340e-03 -2.02943414e-01 -6.22283854e-02
      2.60158926e-01 1.97869822e-01 3.01918596e-01 3.86015028e-01</_></support_vectors>
  <decision_functions>
    <_>
      <sv_count>1</sv_count>
      <rho>-5.1614987386499172e+00</rho>
      <alpha>
        1.</alpha>
      <index>
        0</index></_></decision_functions></my_svm>
</opencv_storage>
