<?xml version="1.0"?>
<opencv_storage>
<my_svm type_id="opencv-ml-svm">
  <svm_type>C_SVC</svm_type>
  <kernel><type>LINEAR</type></kernel>
  <C>1.</C>
  <term_criteria><epsilon>2.2204460492503131e-16</epsilon>
    <iterations>100</iterations></term_criteria>
  <var_all>324</var_all>
  <var_count>324</var_count>
  <class_count>2</class_count>
  <class_labels type_id="opencv-matrix">
    <rows>1</rows>
    <cols>2</cols>
    <dt>i</dt>
    <data>
      -1 1</data></class_labels>
  <sv_total>1</sv_total>
  <support_vectors>
    <_>
      3.22821707e-01 2.35629547e-02 -2.15236083e-01 1.77638233e-03
      -2.94889718e-01 5.67836128e-02 2.73895174e-01 6.87481910e-02
      4.53926086e-01 -8.76762867e-02 -2.30066404e-01 -5.99810719e-01
      -1.20726340e-01 3.39932680e-01 2.88920969e-01 2.67118365e-01
      1.08071625e-01 1.84259906e-01 1.20131359e-01 -2.00007394e-01
      4.98547733e-01 -1.82396304e-02 -3.95614833e-01 -9.51833054e-02
      3.31420183e-01 3.49276364e-01 5.38592756e-01 -1.32257998e-01
      -5.30835748e-01 -4.99617934e-01 -6.89684927e-01 -4.20121163e-01
      4.56055775e-02 1.04136005e-01 -3.97887051e-01 -1.54091477e-01
      -2.19935328e-02 -2.89951414e-01 -1.94181189e-01 -2.64405906e-02
      2.61802018e-01 -2.08103776e-01 -8.12538415e-02 -6.33886680e-02
      6.66875318e-02 5.99032819e-01 -5.37727550e-02 3.08326393e-01
      -1.22182518e-02 1.29020095e-01 -1.56395018e-01 2.99174376e-02
      -5.34679834e-03 -4.44774777e-02 2.44986713e-02 -5.81727624e-01
      -6.40270531e-01 -3.50684464e-01 -1.45789832e-01 -3.37138236e-01
      -4.39197451e-01 -1.03125358e+00 -4.13177609e-01 -3.28577578e-01
      -6.22711957e-01 -4.78926301e-01 -1.79386884e-01 4.25102711e-02
      -3.58732753e-02 -3.14859338e-02 -4.94165033e-01 -2.36089960e-01
      2.67082423e-01 4.21981402e-02 4.52100724e-01 -3.00861806e-01
      -1.43797845e-01 -3.13600212e-01 -1.01878725e-01 -4.36104476e-01
      -5.55425286e-01 4.57739174e-01 5.26892960e-01 5.53097188e-01
      3.95208150e-01 2.57144600e-01 -3.84351045e-01 2.87673801e-01
      -2.66204402e-03 -1.12540394e-01 -1.65028408e-01 -4.37323213e-01
      -3.08848232e-01 -2.65371323e-01 -1.73890051e-02 -2.31380925e-01
      -1.43957183e-01 -4.47292298e-01 -3.98329228e-01 5.68617284e-01
      1.35447115e-01 1.86281592e-01 2.00367749e-01 4.32558298e-01
      -1.29056260e-01 1.32474512e-01 5.14343739e-01 4.49158072e-01
      2.35692397e-01 3.93739045e-02 1.08251967e-01 -2.74072230e-01
      1.39770091e-01 -2.38910541e-01 1.89700387e-02 9.80514660e-02
      4.74706918e-01 1.43503428e-01 -1.94252711e-02 -2.65797913e-01
      -5.34399331e-01 -6.37720287e-01 -1.63576454e-01 4.19945605e-02
      -3.08354646e-01 -2.10067287e-01 1.63918898e-01 1.07767925e-01
      3.05864245e-01 -3.26966196e-01 2.50740312e-02 -5.71127012e-02
      -1.26368374e-01 -7.46005028e-02 1.40976384e-01 2.87613589e-02
      -1.91779748e-01 -1.34424791e-01 -3.91223639e-01 -6.84252322e-01
      -5.16317114e-02 -3.43538582e-01 -6.95141256e-01 -4.52000082e-01
      -5.58888055e-02 -7.06941262e-02 -8.28992426e-02 -4.78609860e-01
      -2.58787721e-01 -1.00299954e-01 -9.58856046e-02 -6.02080107e-01
      -5.05686820e-01 -1.17569510e-02 -7.76591823e-02 -1.30336121e-01
      -1.41545460e-01 -2.53106449e-02 -1.50626436e-01 -2.40599930e-01
      -4.05083239e-01 -3.71891171e-01 -1.70714244e-01 -4.43223387e-01
      2.57037524e-02 -8.68238136e-02 -1.46614937e-02 -5.48793152e-02
      -2.40489855e-01 -4.90977556e-01 -6.47697985e-01 -4.09303099e-01
      -2.85392404e-01 -8.44812170e-02 -3.15051258e-01 -2.69861430e-01
      1.33949563e-01 -2.32417166e-01 -3.16361189e-01 -2.73361623e-01
      -2.47729465e-01 -3.00202250e-01 -6.59373045e-01 -7.77023494e-01
      -2.59883910e-01 -2.29285777e-01 -5.26225746e-01 -8.97851110e-01
      -2.78625309e-01 4.76970345e-01 1.11918226e-01 4.21359316e-02
      -1.26708962e-03 2.74270331e-03 -3.87957424e-01 4.98645693e-01
      -1.60270751e-01 5.51747203e-01 -3.24336857e-01 -5.32541215e-01
      -4.45603609e-01 -6.80782735e-01 -3.45266908e-01 2.26951018e-01
      -4.80217040e-01 -5.02698123e-01 -2.17532501e-01 5.42799771e-01
      1.03916503e-01 6.50378942e-01 -9.00028050e-02 7.87433013e-02
      3.93213332e-01 2.79148638e-01 2.41908476e-01 6.43612564e-01
      1.00891553e-01 2.25459859e-01 1.61094114e-01 -5.44046879e-01
      -1.45969704e-01 2.30270084e-02 -6.51882663e-02 1.40002459e-01
      1.13843670e-02 -1.01850443e-01 -3.31652611e-01 -1.51520580e-01
      1.75700292e-01 -4.24334675e-01 -3.23508561e-01 -5.13945222e-01
      -6.14330530e-01 -3.32689971e-01 2.64451087e-01 4.50273424e-01
      5.01504898e-01 5.34771010e-02 -2.80466765e-01 1.48760667e-02
      3.70715976e-01 2.95132309e-01 1.36261716e-01 -7.43633956e-02
      -3.65072310e-01 1.71970680e-01 4.88378018e-01 6.30596876e-02
      -7.58707896e-02 -9.21757445e-02 -2.68106312e-02 -1.54379889e-01
      -3.73360515e-01 -4.34128851e-01 -3.31187963e-01 1.91670209e-01
      -4.66539174e-01 -5.36775887e-01 -2.23715499e-01 -7.88994849e-01
      -5.36310375e-01 -1.31937206e-01 6.07338920e-02 -8.23507085e-02
      -4.05360818e-01 -1.36190712e-01 -6.53790176e-01 -1.43126070e-01
      -3.78101557e-01 -2.73528695e-01 1.20457746e-02 -4.56948817e-01
      -7.34772608e-02 4.67642665e-01 -5.85649721e-02 -1.83811262e-01
      -2.56282389e-01 -9.14664567e-03 1.44890398e-01 4.46937680e-01
      -9.88639221e-02 1.91498026e-02 1.89727634e-01 -1.95655212e-01
      -1.00928403e-01 -2.09546551e-01 -1.16857730e-01 3.73255536e-02
      -3.07056636e-01 -4.45005119e-01 4.45857197e-02 -4.55864906e-01
      -2.82265633e-01 -3.28958780e-01 -1.38162494e-01 -1.73965111e-01
      -2.60658681e-01 2.14007020e-01 -1.62140772e-01 7.09805012e-01
      -1.07150503e-01 -1.47210211e-01 2.28048995e-01 1.07145920e-01
      2.41836235e-01 1.05186224e-01 -2.01329008e-01 -7.06016421e-01
      -1.02338716e-01 -3.27943414e-01 -5.92023671e-01 -5.31493919e-03
      -7.17650652e-02 -1.33036226e-01 -1.16990633e-01 -6.05610050e-02
      -1.97498783e-01 1.95263788e-01 -4.37564641e-01 -1.95243374e-01
      2.29713663e-01 1.49900809e-01 3.31803858e-01 3.02264750e-01</_></support_vectors>
  <decision_functions>
    <_>
      <sv_count>1</sv_count>
      <rho>-5.6843224815224138e+00</rho>
      <alpha>
        1.</alpha>
      <index>
        0</index></_></decision_functions></my_svm>
</opencv_storage>
