<?xml version="1.0"?>
<opencv_storage>
<my_svm type_id="opencv-ml-svm">
  <svm_type>C_SVC</svm_type>
  <kernel><type>RBF</type>
    <gamma>5.0625000000000009e-01</gamma></kernel>
  <C>2.5000000000000000e+00</C>
  <term_criteria><epsilon>2.2204460492503131e-16</epsilon>
    <iterations>100</iterations></term_criteria>
  <var_all>324</var_all>
  <var_count>324</var_count>
  <class_count>2</class_count>
  <class_labels type_id="opencv-matrix">
    <rows>1</rows>
    <cols>2</cols>
    <dt>i</dt>
    <data>
      -1 1</data></class_labels>
  <sv_total>182</sv_total>
  <support_vectors>
    <_>
      4.43114191e-02 9.88039151e-02 2.54457146e-01 3.90521199e-01
      2.52786666e-01 3.89353093e-03 0. 0. 2.70177964e-02 7.40291923e-02
      2.22312346e-01 2.13154793e-01 1.67318538e-01 1.24609545e-01
      4.67999838e-02 1.92851108e-02 2.86067370e-03 4.27689450e-03
      6.76562414e-02 2.34973624e-01 3.90521199e-01 2.94034570e-01
      9.36950669e-02 4.08217357e-03 0. 0. 3.95041965e-02 2.24934861e-01
      3.60651642e-01 2.18907505e-01 9.40929428e-02 7.33349025e-02
      3.43216620e-02 1.52724134e-02 2.11736187e-02 4.72844765e-02
      8.00812244e-02 2.24151939e-01 2.50401199e-01 1.30335450e-01
      1.47516996e-01 6.57340288e-02 4.99403141e-02 9.15112905e-03
      6.55333325e-03 2.29078196e-02 1.03256486e-01 2.95265615e-01
      2.02615514e-01 2.44923189e-01 1.09552465e-01 6.21857941e-02
      1.35515770e-02 9.49201081e-03 2.76424378e-01 3.36314112e-01
      2.01762244e-01 6.89460635e-02 9.06464532e-02 4.39593233e-02
      3.89887393e-02 4.33501489e-02 7.35739693e-02 1.57587200e-01
      3.03670406e-01 4.22790825e-01 2.18847871e-01 1.00220479e-01
      6.35617152e-02 4.31866683e-02 2.73151472e-02 2.90677622e-02
      1.80056710e-02 6.57470822e-02 2.44350657e-01 2.02524871e-01
      1.97052211e-01 9.52807888e-02 3.67790088e-02 2.73844767e-02
      2.12697703e-02 1.52971312e-01 1.34889796e-01 2.05386177e-01
      1.27076894e-01 7.36038312e-02 3.14780734e-02 2.26686560e-02
      7.74792805e-02 1.64239973e-01 1.08512260e-01 2.34852061e-01
      4.27302420e-01 2.66794264e-01 1.02678828e-01 5.62549345e-02
      2.02671252e-02 5.55811683e-03 1.02373129e-02 1.57616869e-01
      2.14503914e-01 4.27106410e-01 3.05215180e-01 1.14035122e-01
      1.46968178e-02 4.17457847e-03 8.91000684e-03 7.32918605e-02
      1.19707063e-01 2.26137012e-01 3.48919511e-01 1.10415034e-01
      1.83429830e-02 2.97724572e-03 0. 0. 3.65127325e-02 2.29815900e-01
      1.90818608e-01 1.64898396e-01 6.36535734e-02 3.27802934e-02
      1.44069521e-02 5.86334290e-03 1.20088039e-02 7.50885829e-02
      3.92171949e-01 3.92171949e-01 1.86364174e-01 5.32637574e-02
      1.14307096e-02 9.92415240e-04 0. 7.88594771e-05 1.09437838e-01
      3.92171949e-01 2.37345815e-01 7.42939338e-02 3.06077842e-02
      8.19691736e-03 4.37284540e-03 8.99082690e-04 3.02147912e-03
      3.05730373e-01 1.95788503e-01 2.14570060e-01 1.79159254e-01
      7.44632632e-02 4.25537899e-02 1.13312928e-02 8.17126222e-03
      2.09150501e-02 6.75107613e-02 2.56539941e-01 3.18943143e-01
      2.22368225e-01 1.00882761e-01 4.05110829e-02 8.47823045e-04
      2.33675260e-03 1.16506582e-02 2.48816293e-02 3.73426020e-01
      2.72315919e-01 1.22477792e-01 4.76010107e-02 1.96749140e-02
      4.07127710e-03 3.91310081e-03 1.68573596e-02 3.30438763e-01
      3.19169194e-01 3.55466247e-01 1.78150073e-01 6.56669810e-02
      3.53389196e-02 1.45465210e-02 3.14219184e-02 5.74081875e-02
      1.64032087e-01 3.30490112e-01 3.47470403e-01 2.31524631e-01
      9.27374661e-02 3.25429253e-02 1.04689490e-04 5.17253211e-05 0.
      2.97000241e-02 1.64059773e-01 3.06096524e-01 2.90081888e-01
      1.22357026e-01 4.00929227e-02 8.41717143e-03 1.02056190e-03
      1.91208925e-02 6.32089898e-02 3.42105448e-01 3.61674666e-01
      1.77217826e-01 5.97634986e-02 3.23740281e-02 1.89684369e-02
      3.51378582e-02 5.24658635e-02 9.04723629e-02 1.64262772e-01
      2.98973650e-01 2.05952972e-01 6.95151165e-02 9.28985327e-02
      3.51052769e-02 9.33749974e-03 3.96497324e-02 6.75064996e-02
      3.78378004e-01 2.39578798e-01 4.40296531e-02 1.45645747e-02
      2.26013903e-02 5.18072257e-03 2.57970323e-03 9.67937987e-03
      1.56240389e-01 3.78378004e-01 2.05800816e-01 9.27060172e-02
      2.59480383e-02 2.25479063e-02 1.49082728e-02 2.89747827e-02
      4.33496125e-02 2.44057626e-01 3.52915287e-01 1.73195869e-01
      1.06387869e-01 3.20288576e-02 7.03248754e-02 2.74054296e-02
      6.54059416e-03 3.44542265e-02 1.59203649e-01 1.99485242e-01
      2.65618086e-01 3.78378004e-01 2.02763736e-01 6.25222772e-02
      2.09895913e-02 3.40776704e-02 3.91203910e-02 9.90593359e-02
      3.37164462e-01 1.60917282e-01 1.25910059e-01 6.98022023e-02
      5.19528016e-02 2.15518307e-02 3.63563672e-02 6.53249025e-02
      2.58471489e-01 1.00734346e-01 1.48821458e-01 1.97215125e-01
      1.58727095e-01 9.79497135e-02 6.88424185e-02 9.08296630e-02
      1.08365439e-01 1.60255119e-01 8.60905275e-02 2.95764387e-01
      3.49064142e-01 2.44613320e-01 1.11561224e-01 3.68452184e-02
      3.76818106e-02 3.53411101e-02 5.99042512e-02 6.60262257e-02
      3.49064142e-01 3.49064142e-01 1.99328721e-01 1.14012472e-01
      5.21477088e-02 5.25187105e-02 3.03112250e-02 2.12638136e-02
      7.37966597e-02 1.65056586e-01 2.17796698e-01 1.92584306e-01
      1.26482859e-01 7.61185661e-02 9.51746851e-02 9.48436186e-02
      7.15340227e-02 4.96098958e-02 1.31617799e-01 3.16987723e-01
      2.22880244e-01 1.34879425e-01 1.95042994e-02 1.01254005e-02
      1.09308166e-02 3.01043447e-02 7.61682466e-02 3.82031977e-01
      3.41054112e-01 2.20131770e-01 1.00973770e-01 5.52360155e-02
      5.17387688e-02 2.63437070e-02 7.81487301e-03 5.54458983e-02
      2.16888651e-01 3.82031977e-01 2.91215658e-01 1.49460882e-01
      8.04890394e-02 1.13397660e-02 1.96021097e-03 3.66127715e-02</_>
    <_>
      4.04189900e-02 1.18932150e-01 1.73903659e-01 1.69267908e-01
      3.54930401e-01 1.08487442e-01 3.38230166e-03 1.44998572e-04
      1.54072586e-02 1.11828689e-02 5.77136017e-02 1.80361688e-01
      3.54930401e-01 2.69873679e-01 1.22498281e-01 1.96253508e-02
      2.78366235e-04 0. 1.38015281e-02 3.46962392e-04 2.41533499e-02
      2.02613473e-01 3.54930401e-01 2.13561207e-01 4.00814414e-02
      2.75497581e-03 1.38015281e-02 7.90253561e-03 2.49818768e-02
      1.06314637e-01 3.54930401e-01 3.54930401e-01 2.25717053e-01
      5.91043755e-02 2.05103680e-03 1.12202868e-03 0. 1.87728349e-02
      1.52981505e-01 3.42322588e-01 2.61874616e-01 1.10435285e-01
      2.62243338e-02 1.08846428e-03 1.81211438e-03 1.13914181e-02
      3.96847092e-02 1.57694072e-01 3.42322588e-01 2.62638807e-01
      1.20999873e-01 6.14390299e-02 4.61645471e-03 8.23390950e-03
      1.19780488e-02 3.52424942e-02 1.20384306e-01 3.42322588e-01
      2.96388328e-01 2.25903824e-01 1.02663614e-01 5.59882401e-03
      6.50844164e-03 8.16914998e-03 4.15392891e-02 8.72954875e-02
      2.00908855e-01 2.42603704e-01 3.28893960e-01 2.07662538e-01
      1.30682308e-02 1.66766122e-02 4.12298627e-02 8.64896178e-02
      2.03602418e-01 2.57890552e-01 2.95625925e-01 1.61951438e-01
      1.00431673e-01 4.93464321e-02 3.53631154e-02 6.07266463e-02
      4.29089665e-02 3.91077101e-02 2.67109424e-02 6.04384877e-02
      1.15587607e-01 1.70986503e-01 1.89364254e-01 1.31600916e-01
      1.44193610e-02 6.11578971e-02 9.52655300e-02 2.04308003e-01
      3.91836047e-01 4.02552336e-01 2.67380893e-01 5.55207022e-02
      2.39733085e-02 4.40325737e-02 3.09063271e-02 8.06898847e-02
      1.42065331e-01 1.97714612e-01 1.92734495e-01 2.73309439e-01
      1.28488764e-01 4.13624085e-02 1.17470343e-02 4.45568076e-05
      2.88350303e-02 2.59906411e-01 3.51372987e-01 1.18400507e-01
      1.46612711e-02 1.08452886e-03 1.17470343e-02 2.15305183e-02
      3.79025340e-02 8.25699419e-02 3.51372987e-01 3.51372987e-01
      7.89016038e-02 1.41793163e-02 1.87913876e-03 9.62386467e-03
      1.21491160e-02 1.34468277e-03 1.28956422e-01 3.51372987e-01
      3.51372987e-01 7.28521645e-02 3.96673707e-03 1.65308779e-03
      1.23576438e-02 1.20032523e-02 1.75582170e-02 5.25355227e-02
      3.51372987e-01 3.51372987e-01 9.26546305e-02 1.86778617e-03
      5.30118239e-04 7.46428920e-03 6.88904226e-02 8.79604965e-02
      1.50506586e-01 3.93909276e-01 3.97274047e-01 9.79325399e-02
      3.84712219e-02 1.78553909e-02 6.78306594e-02 7.09223375e-02
      4.01880033e-02 5.35550788e-02 9.87861902e-02 2.19723552e-01
      3.00534487e-01 1.06720529e-01 4.88996617e-02 1.11341432e-01
      5.90274967e-02 5.36019914e-02 1.05619371e-01 3.97274047e-01
      3.97274047e-01 9.46058482e-02 5.90146054e-03 1.58499777e-02
      6.64217249e-02 1.29572302e-01 8.23937878e-02 8.05366710e-02
      9.27026644e-02 1.58749565e-01 7.92740509e-02 3.71343493e-02
      6.62939623e-02 1.58537120e-01 4.41131555e-02 2.22803634e-02
      3.71885337e-02 2.01785862e-01 3.24079931e-01 4.17843163e-01
      1.65433526e-01 5.31219356e-02 6.88926652e-02 5.01136892e-02
      1.73591748e-02 6.22601323e-02 1.96088836e-01 2.31715649e-01
      2.86947191e-01 1.90155461e-01 4.71639372e-02 4.99835648e-02
      1.15563326e-01 1.15102299e-01 8.33242461e-02 1.51326671e-01
      2.45439187e-01 1.99402228e-01 7.54518062e-02 6.35468662e-02
      1.19340859e-01 5.40540032e-02 9.78133753e-02 1.23976961e-01
      2.24188969e-01 2.75548577e-01 2.58367807e-01 9.75971296e-02
      1.89105645e-02 5.97343035e-02 1.70455258e-02 2.46295216e-03
      5.05307019e-02 1.35161653e-01 2.48884514e-01 1.35280579e-01
      1.32979363e-01 1.22285940e-01 2.20020451e-02 3.97369673e-04
      4.09648055e-03 1.73833538e-02 1.60881966e-01 3.38922203e-01
      3.38922203e-01 2.07651228e-01 2.34801490e-02 4.47684957e-04
      2.16269717e-02 6.83410151e-04 4.32308484e-03 4.38635536e-02
      2.46688172e-01 2.08547741e-01 3.38922203e-01 1.71630666e-01
      2.62470227e-02 1.57422928e-05 2.48193217e-04 3.47231911e-03
      3.96866389e-02 2.76435763e-01 3.38922203e-01 3.38922203e-01
      5.48375323e-02 4.27067309e-04 1.77909900e-02 2.69128103e-02
      3.93179879e-02 1.43645361e-01 3.70980650e-01 3.53901476e-01
      2.17354387e-01 6.01676069e-02 2.41057724e-02 1.05868593e-01
      6.27438575e-02 4.14685756e-02 2.36190315e-02 5.51233217e-02
      3.05741820e-02 6.74781054e-02 1.21311650e-01 1.40913159e-01
      5.85269323e-03 6.30258024e-03 9.14147869e-03 2.79103797e-02
      2.23442376e-01 3.70980650e-01 3.70980650e-01 1.66497052e-01
      2.47902051e-02 4.37923558e-02 1.48181841e-02 8.83632060e-03
      6.87159970e-03 3.75391506e-02 1.22558743e-01 2.85462618e-01
      3.39879602e-01 1.67576835e-01 1.70119554e-01 1.29885003e-01
      6.97779134e-02 1.63312685e-02 5.93267791e-02 3.48217860e-02
      7.69924521e-02 1.52210742e-01 2.00359523e-01 8.33880827e-02
      1.67899743e-01 1.58185542e-01 1.27877936e-01 1.04362234e-01
      8.93043354e-02 1.00715913e-01 7.10787177e-02 7.69619197e-02
      7.32457861e-02 2.56722532e-02 1.32255666e-02 3.05060623e-03
      5.58989830e-02 2.09009156e-01 3.64702225e-01 3.92480433e-01
      2.58085102e-01 6.94828928e-02 4.45408300e-02 3.30134928e-02
      4.53482792e-02 1.02900505e-01 3.96778405e-01 3.71133626e-01
      1.30419597e-01 1.22475371e-01</_>
    <_>
      7.50206634e-02 5.88199235e-02 1.29021823e-01 8.68361592e-02
      3.68166454e-02 4.25192006e-02 2.14902982e-02 1.14509039e-01
      1.32510319e-01 1.24647573e-01 3.56276602e-01 3.58784527e-01
      2.71814436e-01 1.02828316e-01 1.87759195e-02 8.18925165e-03
      3.21182646e-02 8.31139609e-02 3.84160690e-02 3.70611623e-02
      1.85783386e-01 2.71167636e-01 1.29172787e-01 5.06606214e-02
      2.09816601e-02 6.08773008e-02 7.86351189e-02 2.00838987e-02
      1.51850969e-01 3.58784527e-01 3.58784527e-01 3.58784527e-01
      1.16173245e-01 2.82366816e-02 7.74639426e-03 1.89366881e-02
      6.91737831e-02 3.10155839e-01 3.30714792e-01 1.88186601e-01
      7.47337043e-02 1.14603331e-02 2.97367503e-03 6.59486884e-03
      2.88991090e-02 9.72333401e-02 3.18735868e-01 3.30714792e-01
      2.09332958e-01 9.90529209e-02 5.51692434e-02 2.75242254e-02
      8.33429489e-03 1.50864432e-02 1.25072515e-02 1.16819158e-01
      3.30714792e-01 3.30714792e-01 2.29327261e-01 8.09143931e-02
      2.36419048e-02 5.77563915e-05 2.70509324e-03 8.07405263e-02
      9.49868932e-02 2.84964502e-01 2.17232272e-01 1.35147914e-01
      1.02576122e-01 3.19105312e-02 9.09221824e-03 9.91368387e-03
      1.41281918e-01 2.34599009e-01 2.90800065e-01 2.32628763e-01
      2.62787431e-01 2.25064084e-01 6.46095946e-02 1.87365375e-02
      2.90099774e-02 1.01874769e-01 3.57355922e-02 2.56921239e-02
      1.51694864e-01 2.90800065e-01 2.71238416e-01 1.12946302e-01
      4.19744328e-02 7.17163980e-02 9.07498524e-02 6.25008419e-02
      1.24071956e-01 2.20927268e-01 2.90800065e-01 2.90800065e-01
      5.73720485e-02 1.05644884e-02 1.46307740e-02 3.77143100e-02
      1.90105606e-02 2.23281588e-02 1.26737401e-01 2.90800065e-01
      2.90800065e-01 8.73629600e-02 1.12594450e-02 2.98328176e-02
      1.14435991e-02 5.75659471e-03 2.58480627e-02 1.47152647e-01
      2.78883904e-01 2.10508347e-01 4.01765555e-02 6.22747885e-03
      1.33913681e-02 3.82080907e-04 4.72532259e-03 3.87114808e-02
      3.24284047e-01 3.24284047e-01 2.73852676e-01 3.57662998e-02
      5.99993946e-05 3.59163823e-04 1.24216862e-02 1.07390370e-04
      2.30434723e-03 7.65748397e-02 3.24284047e-01 3.24284047e-01
      1.97124466e-01 9.28596873e-03 1.24216862e-02 0. 0. 8.27420503e-03
      2.87706912e-01 3.24284047e-01 3.24284047e-01 1.16744526e-01 0. 0.
      3.03940126e-03 1.14510376e-02 4.58874367e-02 3.14828932e-01
      3.14828932e-01 2.20953688e-01 3.50740515e-02 0. 0. 5.13345599e-02
      7.28815794e-02 8.92058685e-02 2.34317660e-01 2.91750282e-01
      1.67634949e-01 4.29115221e-02 1.15860789e-03 6.85544731e-03 0. 0.
      9.34216008e-03 2.89990544e-01 3.14828932e-01 3.14828932e-01
      7.00614378e-02 1.01033365e-04 0. 8.79335869e-03 5.61647266e-02
      9.71646607e-02 3.14828932e-01 3.14828932e-01 2.25792497e-01
      1.03934877e-01 1.65214408e-02 1.06965825e-02 4.52144109e-02
      5.53786196e-02 5.35989888e-02 1.13391556e-01 3.43303859e-01
      3.08260262e-01 4.43809554e-02 9.44076572e-04 7.11935339e-03
      3.59649993e-02 1.58954859e-02 2.10709050e-02 4.02902104e-02
      3.43303859e-01 3.43303859e-01 3.51377316e-02 2.64570094e-03
      1.46906562e-02 9.50322207e-03 5.61407395e-02 9.36787650e-02
      2.06504092e-01 3.43303859e-01 3.06104690e-01 8.66018534e-02
      1.51242940e-02 1.12028765e-02 4.01195958e-02 2.15324666e-02
      4.68782932e-02 5.72676174e-02 3.43303859e-01 3.43303859e-01
      4.71115373e-02 3.30253458e-03 2.16758288e-02 7.26239569e-03 0. 0.
      2.70070508e-02 2.44773060e-01 3.43860567e-01 1.74062282e-01
      1.97413620e-02 7.64762005e-03 0. 0. 0. 1.77076347e-02
      3.43860567e-01 3.43860567e-01 2.11827055e-01 1.22499093e-02
      9.79232718e-04 8.11491907e-03 0. 0. 1.59364212e-02 2.67058939e-01
      3.43860567e-01 1.13178022e-01 4.15123776e-02 1.10444203e-02 0. 0.
      0. 1.09678311e-02 3.43860567e-01 3.43860567e-01 2.45215565e-01
      6.15442432e-02 3.64286918e-03 0. 0. 2.77308951e-04 1.95865855e-02
      3.07685494e-01 3.07685494e-01 2.74414331e-01 4.47187088e-02
      6.24411460e-03 1.84292383e-02 2.29773019e-02 3.58197577e-02
      8.04848447e-02 1.84970543e-01 1.92063048e-01 3.07685494e-01
      2.69457787e-01 6.16432540e-02 0. 0. 0. 4.08239616e-03
      2.12543398e-01 3.07685494e-01 3.07685494e-01 1.26326948e-01
      1.62765030e-02 1.89131778e-02 6.77705044e-03 3.92010016e-03
      2.60916818e-03 5.57711869e-02 1.53134689e-01 3.07685494e-01
      3.07685494e-01 1.09397642e-01 4.76677902e-02 4.57870923e-02
      8.86151716e-02 1.25064969e-01 3.06632400e-01 1.59936562e-01
      3.06677997e-01 2.66126364e-01 8.10034573e-02 6.57762066e-02
      3.22583243e-02 8.20651129e-02 1.79988295e-01 3.06677997e-01
      2.75902241e-01 2.92325020e-02 4.05551754e-02 4.58450355e-02
      6.52686134e-02 2.58815903e-02 3.96010876e-02 5.31426519e-02
      8.74695405e-02 1.08922578e-01 3.06677997e-01 3.06677997e-01
      1.46808371e-01 1.17703788e-01 4.37162034e-02 9.61879641e-02
      2.49147862e-01 3.06677997e-01 6.72869310e-02 6.64311051e-02
      1.31484807e-01 1.13562904e-01</_>
    <_>
      1.14440419e-01 1.99112400e-01 2.70491242e-01 2.28568420e-01
      1.42883822e-01 6.31051511e-02 2.22788248e-02 4.33194786e-02
      1.15343310e-01 1.36303842e-01 9.89926681e-02 1.47237703e-01
      2.56967783e-01 2.29634255e-01 2.40781114e-01 7.12354779e-02
      5.61266355e-02 8.26377049e-02 2.10641325e-01 6.42623305e-02
      9.34045687e-02 9.08959955e-02 7.88787231e-02 1.16287231e-01
      1.03097089e-01 2.01418728e-01 3.15222472e-01 4.98231314e-02
      3.51103172e-02 8.66113156e-02 2.32365549e-01 3.15222472e-01
      3.15222472e-01 1.63451597e-01 8.36921558e-02 5.75959124e-02
      1.31807953e-01 6.06300496e-02 6.36701435e-02 9.56582949e-02
      1.56961426e-01 1.31619319e-01 3.61946747e-02 4.71990407e-02
      6.90410212e-02 1.21775426e-01 4.80237193e-02 4.67865989e-02
      7.08658025e-02 1.50196627e-01 3.22310537e-01 3.22310537e-01
      1.67751744e-01 1.20815903e-01 1.65722258e-02 1.79078728e-02
      5.83147034e-02 1.83010116e-01 3.22310537e-01 2.22695827e-01
      4.92312014e-02 2.14132667e-02 1.23165697e-02 3.58205102e-02
      4.39640209e-02 9.40122455e-02 2.85094351e-01 3.22310537e-01
      3.22310537e-01 3.22310537e-01 1.15063116e-01 5.12379855e-02
      2.61354670e-02 1.25142299e-02 1.58078168e-02 2.16325223e-02
      5.53815439e-02 3.37595791e-01 3.37595791e-01 8.29398781e-02
      4.52721417e-02 7.45321158e-03 6.92332489e-03 5.49871242e-03
      6.06418913e-03 2.39950549e-02 3.37595791e-01 3.37595791e-01
      4.38685119e-02 1.12249264e-02 1.45874545e-02 1.94120500e-02
      3.38933840e-02 9.55885053e-02 2.10440382e-01 3.37595791e-01
      3.37595791e-01 6.88225329e-02 2.49276590e-02 1.93058122e-02
      1.01451867e-03 9.96548566e-04 1.00217725e-03 5.95513508e-02
      3.37595791e-01 3.37595791e-01 6.08486980e-02 1.91426054e-02
      1.46851376e-01 7.35166594e-02 1.72489919e-02 3.70108639e-03
      1.72841968e-03 3.98325324e-02 1.52260363e-01 2.49696076e-01
      2.12535426e-01 1.20658681e-01 1.37538329e-01 1.87655911e-01
      7.42130727e-02 7.81739578e-02 1.09136797e-01 2.38255829e-01
      2.72295684e-01 2.08716527e-01 1.40951857e-01 2.64691651e-01
      1.15216568e-01 5.95275424e-02 6.99876696e-02 3.50773595e-02
      1.14966407e-01 1.82859018e-01 1.21471979e-01 2.75135398e-01
      2.75135398e-01 2.75135398e-01 7.39290044e-02 6.55802935e-02
      4.02824022e-02 1.74085528e-01 2.41220340e-01 2.64040202e-01
      6.53075874e-02 1.04442067e-01 2.69649595e-01 1.81146666e-01
      1.36990070e-01 5.66228442e-02 7.00060874e-02 7.94581622e-02
      9.48708206e-02 3.68974879e-02 1.52882516e-01 2.69649595e-01
      2.69649595e-01 2.61330694e-01 1.28304482e-01 1.47695690e-01
      4.41725738e-02 1.19287113e-03 1.99007571e-01 2.69649595e-01
      2.69649595e-01 1.57713801e-01 8.06367695e-02 2.21283287e-02
      6.11264892e-02 7.49158189e-02 1.24513924e-01 3.77732702e-02
      2.26196885e-01 2.69649595e-01 2.69649595e-01 2.56243110e-01
      9.61688161e-02 1.97207138e-01 4.67311665e-02 0. 2.41117775e-02
      7.80409798e-02 1.25785425e-01 1.34619057e-01 2.41096899e-01
      2.79154480e-01 1.89550072e-01 3.85952592e-02 9.22067789e-04
      2.44768374e-02 0. 2.74936622e-03 4.46465351e-02 2.79154480e-01
      2.79154480e-01 2.79154480e-01 1.45237716e-02 2.44768374e-02
      1.88156310e-02 9.11860839e-02 1.84637621e-01 2.79154480e-01
      2.79154480e-01 2.00452834e-01 2.10144937e-01 3.76856327e-02 0.
      3.38719226e-02 1.91592728e-03 8.61694962e-02 2.79154480e-01
      2.79154480e-01 2.79154480e-01 1.34980977e-01 2.76783737e-03
      3.10795680e-02 4.95447181e-02 7.79487118e-02 6.63192123e-02
      5.06080799e-02 1.20234601e-01 9.10773724e-02 2.81865329e-01
      2.53968626e-01 1.24476939e-01 1.13525830e-01 1.16280772e-01
      8.52588192e-02 2.28402670e-02 9.42432731e-02 1.42108068e-01
      2.70441920e-01 2.43770197e-01 2.48676717e-01 5.17819151e-02
      7.59056509e-02 1.06795661e-01 1.06204525e-01 1.35835111e-01
      8.21778029e-02 2.81865329e-01 2.81865329e-01 2.00186387e-01
      1.57843709e-01 6.44776672e-02 5.79611622e-02 2.31110621e-02
      5.68852238e-02 1.09412663e-01 2.81865329e-01 2.81865329e-01
      2.81865329e-01 1.19377606e-01 1.09966427e-01 9.81969610e-02
      1.45933619e-02 1.07706271e-01 1.12185888e-01 1.56663120e-01
      1.11027703e-01 1.43813714e-01 8.95541385e-02 2.57747293e-01
      2.80905694e-01 2.14621678e-01 2.80905694e-01 4.59546298e-02
      6.06857054e-02 1.55441882e-02 2.36146692e-02 2.73557812e-01
      1.23125114e-01 4.91300561e-02 4.64255875e-03 4.04696204e-02
      8.16444457e-02 1.91481173e-01 2.71124661e-01 2.76217848e-01
      2.80905694e-01 2.80905694e-01 2.80905694e-01 1.81498364e-01
      1.41994193e-01 5.25724441e-02 4.83926833e-02 6.83647096e-02
      8.67096111e-02 2.89041717e-02 1.40369773e-01 3.08613330e-01
      3.08613330e-01 2.63295799e-01 1.35995736e-02 1.15839271e-02
      1.31115166e-03 8.27997632e-04 3.01685631e-02 1.08312787e-02
      3.08613330e-01 3.08613330e-01 1.86131641e-01 4.75373752e-02
      7.26615032e-03 3.38171865e-03 2.55949274e-02 9.59875584e-02
      2.90584058e-01 3.08613330e-01 2.77601898e-01 1.15971252e-01
      1.33382929e-02 7.26101920e-04 1.21693118e-02 9.73754562e-03
      2.68567670e-02 8.12296197e-02 3.08613330e-01 3.08613330e-01
      8.79386887e-02 2.52529364e-02 2.36918237e-02 1.34805096e-02
      1.90921780e-02</_>
    <_>
      7.94903934e-02 5.61149828e-02 1.25619531e-01 1.77718699e-01
      1.27481058e-01 7.57397860e-02 8.29935670e-02 1.06349654e-01
      1.23111643e-01 7.26404414e-02 8.81001800e-02 1.45998567e-01
      2.69517750e-01 2.41322011e-01 6.88566566e-02 6.65070489e-02
      6.00087196e-02 1.00190207e-01 1.02826878e-01 8.53599533e-02
      2.67731071e-01 3.07958364e-01 2.70071596e-01 1.32577747e-01
      1.58289105e-01 5.67292422e-02 4.72584181e-02 1.15415677e-01
      1.17314197e-01 2.40459397e-01 3.66838723e-01 3.28621060e-01
      1.29434124e-01 1.81510046e-01 7.10003749e-02 8.39187875e-02
      7.58774132e-02 9.20872688e-02 1.88721806e-01 3.39236468e-01
      2.36128226e-01 7.88718462e-02 1.06596701e-01 5.10275997e-02
      7.62688518e-02 9.68077853e-02 8.93264785e-02 1.28919452e-01
      1.50046825e-01 1.46286592e-01 8.24699998e-02 1.60881743e-01
      4.88351136e-02 7.04391599e-02 9.14719775e-02 9.48049873e-02
      1.99580640e-01 3.79965276e-01 3.19971591e-01 1.65164337e-01
      2.71672010e-01 7.30673522e-02 1.07631296e-01 1.11212701e-01
      7.21253306e-02 1.23289734e-01 2.44483769e-01 1.63385347e-01
      1.27577022e-01 2.41412982e-01 5.09969145e-02 1.05563156e-01
      9.86243784e-02 9.08243358e-02 9.18837264e-02 9.17744562e-02
      1.95488587e-01 8.78346786e-02 1.44124046e-01 6.73512667e-02
      7.06845298e-02 8.23906213e-02 7.89206177e-02 1.65211231e-01
      2.14905366e-01 1.51701242e-01 1.39376760e-01 1.03634536e-01
      1.72551513e-01 8.88103098e-02 1.16920404e-01 1.35998666e-01
      2.07820028e-01 2.23078847e-01 1.93849623e-01 1.13824703e-01
      1.45161450e-01 5.58179654e-02 1.00706302e-01 2.36006677e-01
      1.92457482e-01 3.44190061e-01 1.99229911e-01 1.38203040e-01
      1.45667940e-01 1.50461271e-01 2.94962168e-01 3.06316495e-01
      5.92440553e-02 2.90621854e-02 6.07862733e-02 7.45967850e-02
      2.94725060e-01 2.27044776e-01 2.13101536e-01 8.16390738e-02
      3.14615928e-02 8.56889114e-02 7.87669420e-02 8.36323276e-02
      7.46896714e-02 1.42195687e-01 1.56771153e-01 2.12009177e-01
      1.78788900e-01 1.36597112e-01 1.13390528e-01 5.98694384e-02
      6.79891929e-02 6.86494112e-02 3.53351533e-01 3.81167591e-01
      2.01768577e-01 1.00709267e-01 1.02768086e-01 1.00720808e-01
      9.26689431e-02 9.20037255e-02 4.55445684e-02 1.96612030e-01
      2.98943579e-01 2.08325669e-01 2.03026548e-01 1.58331513e-01
      8.74491110e-02 7.94089362e-02 7.61260986e-02 5.34325205e-02
      6.43949881e-02 1.19322516e-01 2.43704930e-01 2.22473055e-01
      1.97944358e-01 9.97396782e-02 5.58643788e-02 6.49169758e-02
      1.34966597e-01 8.63881707e-02 1.22051738e-01 3.99421722e-01
      2.31734037e-01 1.05914883e-01 9.16735530e-02 7.37996921e-02
      7.93574601e-02 1.43894637e-02 6.37359470e-02 1.95656791e-01
      1.83974802e-01 2.65946031e-01 2.16794044e-01 1.03479393e-01
      3.98932584e-02 4.48652245e-02 3.05214487e-02 5.62952906e-02
      1.81721613e-01 4.00249571e-01 2.82271802e-01 1.35690823e-01
      1.00133494e-01 8.39798078e-02 1.31219715e-01 1.94106907e-01
      1.22100510e-01 1.20362930e-01 3.03953052e-01 1.86282262e-01
      7.38019571e-02 1.64275795e-01 1.15837164e-01 2.04626024e-01
      1.21830791e-01 1.05545439e-01 1.48137704e-01 4.10352908e-02
      8.70298222e-02 2.32294157e-01 1.09264478e-01 3.60925235e-02
      5.63453883e-02 8.45074877e-02 1.19602889e-01 2.52277672e-01
      3.79948020e-01 2.22105533e-01 8.89393836e-02 1.55449212e-01
      4.73095030e-02 1.07098326e-01 1.33608758e-01 1.73654348e-01
      3.54631275e-01 1.36347637e-01 5.26126772e-02 1.77484363e-01
      1.88601181e-01 9.61177871e-02 7.74193853e-02 9.98837426e-02
      1.23380467e-01 1.31851956e-01 8.75930414e-02 7.95796812e-02
      1.66878372e-01 1.46907464e-01 1.55960843e-01 2.87310481e-01
      1.64263129e-01 1.49743065e-01 1.55834779e-01 5.10240644e-02
      5.27669005e-02 8.61197114e-02 1.20020933e-01 4.61816639e-02
      7.81038702e-02 1.25905052e-01 2.02374518e-01 2.54944026e-01
      1.92615658e-01 7.47959465e-02 1.27671957e-01 1.38388172e-01
      2.14942068e-01 3.89464647e-01 3.86048615e-01 2.41482973e-01
      1.11172833e-01 4.24997248e-02 2.75846310e-02 4.80482318e-02
      6.58591688e-02 8.06333497e-02 1.68985635e-01 5.33406772e-02
      5.41637652e-02 6.48581609e-02 3.13469730e-02 5.92292584e-02
      6.22433983e-02 3.26742083e-02 1.50095552e-01 2.97519267e-01
      1.39088154e-01 6.41370863e-02 4.96918969e-02 9.62260142e-02
      7.27278143e-02 7.88530037e-02 8.90495479e-02 2.39557058e-01
      3.85181934e-01 2.34314173e-01 1.19835660e-01 4.34561707e-02
      1.78970508e-02 2.59763096e-02 3.82721424e-02 5.55634238e-02
      4.42667246e-01 4.42667246e-01 2.82945782e-01 1.09196238e-01
      2.42166761e-02 3.71931084e-02 3.51584852e-02 3.93068083e-02
      2.69574933e-02 1.85807973e-01 2.57236123e-01 1.24396078e-01
      6.57978356e-02 6.86869994e-02 7.34656602e-02 2.72115599e-02
      2.73733232e-02 1.65948898e-01 2.61171490e-01 1.66397125e-01
      4.07123789e-02 6.56891912e-02 7.72473216e-02 4.67891693e-02
      7.99832027e-03 7.24515244e-02 6.63966909e-02 3.96692902e-01
      3.96692902e-01 1.74212933e-01 6.35486394e-02 1.89401451e-02
      2.50579547e-02 1.83242578e-02 1.46322716e-02 3.30582827e-01
      3.96692902e-01 2.74181873e-01 4.08529378e-02 3.45361605e-02
      9.93806962e-03 1.65531617e-02 5.20878844e-02 1.32246181e-01</_>
    <_>
      1.71043769e-01 7.25652128e-02 2.94279814e-01 2.94279814e-01
      6.28696233e-02 5.89733832e-02 2.05480102e-02 5.69918677e-02
      1.55892715e-01 1.81299031e-01 1.51641145e-01 2.94279814e-01
      2.94279814e-01 9.05975923e-02 2.48775203e-02 1.48875089e-02
      4.25160564e-02 1.00095011e-01 1.32289559e-01 1.27265416e-02
      2.13603795e-01 2.94279814e-01 2.30603188e-01 1.90894827e-01
      6.34896234e-02 3.65103222e-02 1.48201734e-01 5.48456721e-02
      2.85900086e-02 2.16159388e-01 2.94279814e-01 2.14518160e-01
      1.69165000e-01 1.51001915e-01 3.21332589e-02 3.91996503e-02
      1.64818302e-01 1.39083356e-01 2.55415648e-01 2.68754095e-01
      8.77989158e-02 9.61389299e-03 3.78153473e-02 7.44313374e-02
      9.04839560e-02 1.88538447e-01 1.07728332e-01 9.70057622e-02
      4.66362759e-02 1.01952940e-01 1.79396033e-01 3.09584111e-01
      3.09584111e-01 2.23983824e-01 4.39839102e-02 4.38879952e-02
      1.59339175e-01 2.81499475e-01 2.00543925e-01 1.13253921e-01
      1.49969578e-01 2.21039094e-02 2.82365680e-02 1.52904809e-01
      6.93813339e-02 1.03640556e-01 4.90928777e-02 2.37978265e-01
      1.90501556e-01 3.09584111e-01 9.14589837e-02 1.51709214e-01
      3.73773985e-02 1.99163649e-02 1.77214146e-02 5.90983406e-03
      2.78518591e-02 2.40646020e-01 3.76653820e-01 1.55395567e-01
      6.35233596e-02 1.03752958e-02 9.63400293e-04 3.77432647e-04
      2.40093475e-04 1.29638026e-02 3.76653820e-01 3.76653820e-01
      2.39564516e-02 1.17579866e-02 5.07560521e-02 1.59093346e-02
      2.40463726e-02 1.03816912e-02 8.48167911e-02 2.14976475e-01
      3.31099272e-01 3.95148508e-02 5.70602231e-02 4.06033657e-02
      1.99691742e-03 6.54905802e-03 1.23236934e-02 1.47902638e-01
      3.76653820e-01 3.76653820e-01 8.44682567e-03 4.16366458e-02
      4.19289730e-02 1.39217265e-02 7.16736764e-02 2.92071462e-01
      2.92071462e-01 2.04411089e-01 3.97903249e-02 1.67191494e-02
      4.46330793e-02 8.30407888e-02 8.28999728e-02 1.95073962e-01
      2.27408081e-01 1.62016571e-01 1.08448662e-01 1.50555730e-01
      4.08005118e-02 5.60239591e-02 1.37078479e-01 1.14813827e-01
      1.31438836e-01 2.92071462e-01 2.92071462e-01 2.10977808e-01
      1.56501710e-01 2.75471956e-02 6.53929934e-02 1.54618740e-01
      1.69888750e-01 2.92071462e-01 2.92071462e-01 2.79116124e-01
      6.87322468e-02 5.49443513e-02 1.76756345e-02 3.85095924e-02
      7.18965605e-02 5.66244088e-02 1.03966929e-01 9.83456448e-02
      8.03428665e-02 1.65192440e-01 1.98291004e-01 2.80547440e-02
      4.62307706e-02 8.65427777e-02 2.78085247e-02 3.35341841e-02
      2.80453991e-02 2.28568703e-01 3.35579246e-01 3.35579246e-01
      4.70530167e-02 7.19154403e-02 8.21809396e-02 8.64320993e-02
      1.94639221e-01 2.75463551e-01 1.83351859e-01 2.30141938e-01
      1.56111881e-01 1.17092915e-02 2.01050676e-02 4.53164093e-02
      3.51521745e-02 7.24652037e-02 9.64156687e-02 3.35579246e-01
      3.35579246e-01 3.35579246e-01 3.79400849e-02 1.31444419e-02
      3.58998552e-02 8.42810981e-03 2.87867263e-02 6.40919656e-02
      2.02407107e-01 2.51552790e-01 1.74484506e-01 3.27631757e-02
      3.82076874e-02 4.17911038e-02 1.82650611e-02 4.43488806e-02
      3.32838029e-01 3.32838029e-01 2.71413296e-01 9.04778168e-02
      1.23145757e-02 4.24520597e-02 4.26694937e-03 7.36675691e-03
      9.82717797e-02 1.84280992e-01 3.30011278e-01 3.32838029e-01
      1.88868374e-01 2.98851542e-02 4.34008474e-03 2.92973742e-02
      1.37284687e-02 1.78168803e-01 3.32838029e-01 3.12456667e-01
      3.70992981e-02 1.63939949e-02 8.51708092e-03 2.92973742e-02
      2.17918009e-01 1.65372699e-01 1.18518889e-01 5.01149446e-02
      2.48391293e-02 1.74629062e-01 2.98066676e-01 1.26312777e-01
      1.35928035e-01 1.53591737e-01 1.07981794e-01 1.42073497e-01
      1.59387767e-01 1.47848025e-01 5.02018854e-02 5.92857748e-02
      1.05219044e-01 1.29819199e-01 1.54922649e-01 7.00656101e-02
      1.10140994e-01 6.64565712e-02 1.16217164e-02 2.98066676e-01
      2.98066676e-01 2.98066676e-01 2.64977872e-01 7.97970891e-02
      6.63558692e-02 7.87184164e-02 6.60338998e-02 5.54123335e-02
      7.03053772e-02 2.21929848e-01 2.93935984e-01 2.59329796e-01
      6.27825409e-02 3.63291129e-02 1.01257451e-01 1.49724737e-01
      2.26978853e-01 1.43118322e-01 7.64189735e-02 8.51451308e-02
      8.56811926e-02 6.38975501e-02 8.09572935e-02 1.39224663e-01
      1.65063411e-01 3.18472713e-01 3.18472713e-01 1.73721179e-01
      7.45008886e-02 3.60678248e-02 7.50961304e-02 3.19182500e-02
      4.03114744e-02 3.62853371e-02 8.01310837e-02 9.24796164e-02
      1.73625410e-01 2.65208215e-01 1.95522249e-01 2.80955553e-01
      2.88934261e-01 1.58651307e-01 1.64089337e-01 3.18472713e-01
      2.14084640e-01 9.79988202e-02 1.48077697e-01 1.12784520e-01
      2.85520498e-02 5.19354567e-02 1.99448928e-01 2.73462921e-01
      3.10515344e-01 3.11302543e-01 8.53190050e-02 2.94280425e-02
      1.34204486e-02 1.84136853e-02 2.11628824e-02 3.26631159e-01
      3.26631159e-01 9.85497311e-02 1.04973428e-02 1.69492103e-02
      4.20780154e-03 1.66662224e-02 1.25955671e-01 1.73423171e-01
      2.05302730e-01 2.95557112e-01 1.94994017e-01 7.95992315e-02
      3.29944417e-02 3.03137880e-02 3.34539302e-02 1.74985845e-02
      4.14412320e-02 3.02566051e-01 3.26631159e-01 1.70246586e-01
      7.24030938e-03 1.11745251e-02 2.92675383e-03 9.13282856e-03</_>
    <_>
      1.74782977e-01 3.40547472e-01 2.13619784e-01 7.64553100e-02
      8.16121399e-02 6.69034198e-02 3.93550545e-02 3.34458239e-02
      8.40526894e-02 1.14508145e-01 3.34833175e-01 4.23607916e-01
      2.58590728e-01 1.74521953e-01 1.55586928e-01 3.32079753e-02
      1.18075134e-02 2.56150812e-02 9.45317894e-02 1.51110649e-01
      1.51627779e-01 1.59281909e-01 1.03199422e-01 3.87975611e-02
      5.63833416e-02 4.38669883e-02 8.10968280e-02 1.00262895e-01
      1.61149189e-01 2.23794430e-01 2.87395865e-01 1.82426184e-01
      1.67376444e-01 7.65569583e-02 5.97571954e-02 7.34930262e-02
      9.38841105e-02 2.33810291e-01 3.32959771e-01 2.10888430e-01
      1.48660243e-01 1.08522475e-01 2.04840228e-02 1.23280985e-02
      2.34408546e-02 6.02484047e-02 1.46137789e-01 2.84386218e-01
      2.89844036e-01 3.68585676e-01 1.16424359e-01 6.09640628e-02
      5.02067842e-02 3.77244428e-02 6.68720827e-02 1.14881627e-01
      1.58242032e-01 1.96050093e-01 1.70303002e-01 1.40599072e-01
      9.38240066e-02 1.06475830e-01 7.85501525e-02 6.85106590e-02
      1.15266122e-01 1.44970313e-01 1.54534265e-01 3.01722109e-01
      1.34719849e-01 1.43426567e-01 1.75144941e-01 1.25625804e-01
      1.73342284e-02 4.67205271e-02 1.83816791e-01 2.87776709e-01
      3.21594685e-01 1.21090308e-01 8.36536959e-02 8.85484442e-02
      3.78084183e-02 3.14991884e-02 1.33884270e-02 8.51560086e-02
      3.28142375e-01 2.38553315e-01 1.26668230e-01 8.31530541e-02
      1.11594684e-01 6.23134263e-02 4.75393981e-02 6.67473376e-02
      9.82699692e-02 2.19069213e-01 2.40863875e-01 1.30324960e-01
      1.36234328e-01 1.80228949e-01 1.04050793e-01 7.48164281e-02
      2.00484917e-02 5.09854220e-02 3.73974919e-01 3.24778825e-01
      1.28965586e-01 1.11914851e-01 1.89775586e-01 1.00880302e-01
      1.54201657e-01 1.92444578e-01 1.28237382e-01 1.68611094e-01
      8.57068151e-02 1.01319170e-02 1.19153727e-02 3.00980899e-02
      1.10702768e-01 1.38162628e-01 1.68148831e-01 1.03092529e-01
      7.37515911e-02 9.30661783e-02 1.55940741e-01 1.41463161e-01
      1.75414518e-01 1.62271887e-01 1.80628940e-01 2.32281879e-01
      2.84609467e-01 2.55394727e-01 9.37816054e-02 1.57489777e-02
      2.29463056e-02 3.66913602e-02 1.06030449e-01 9.91036966e-02
      2.11638376e-01 2.25533560e-01 3.52316469e-01 1.47609547e-01
      1.76131517e-01 1.93988338e-01 3.08153361e-01 1.60041794e-01
      8.27236995e-02 6.33870363e-02 5.02721854e-02 4.91418056e-02
      9.50826705e-02 1.93754196e-01 1.67138398e-01 2.01095149e-01
      1.54927120e-01 7.85107166e-02 5.20873070e-02 7.98417702e-02
      1.05685882e-01 1.36077017e-01 2.27365524e-01 2.11386859e-01
      1.61172092e-01 1.19417056e-01 6.52467981e-02 8.35104287e-02
      1.68481514e-01 3.26164782e-01 1.49754375e-01 2.27272704e-01
      2.29569137e-01 3.08436662e-01 1.64662704e-01 1.09877616e-01
      9.96913537e-02 1.68111429e-01 1.53871909e-01 9.13982838e-02
      1.95775658e-01 2.57228881e-01 2.14577869e-01 1.77185088e-01
      5.42070605e-02 3.65137123e-02 6.77462518e-02 1.60681561e-01
      1.42914310e-01 1.87714934e-01 1.95732608e-01 1.40451342e-01
      8.91888291e-02 1.41433254e-01 2.10671537e-02 6.76334947e-02
      2.34758899e-01 1.70221999e-01 1.29203647e-01 1.23469658e-01
      1.45965919e-01 1.84146017e-01 8.18287805e-02 8.93661007e-02
      9.86596122e-02 7.61363655e-02 6.01071529e-02 1.88912153e-01
      2.65551686e-01 2.13740170e-01 1.42124057e-01 3.94197345e-01
      1.45498067e-01 1.99546680e-01 6.01767488e-02 5.34500293e-02
      2.10111976e-01 2.31824979e-01 2.06427857e-01 2.72048414e-01
      8.24219584e-02 8.69981647e-02 1.20292492e-01 1.22271530e-01
      8.73933658e-02 1.22053079e-01 1.90535843e-01 1.15404695e-01
      9.76385772e-02 6.66901320e-02 1.28446743e-01 1.54375285e-01
      3.98140311e-01 3.15248013e-01 1.68363765e-01 2.95748353e-01
      2.23471776e-01 3.36771458e-02 1.36630952e-01 1.35112301e-01
      1.41391128e-01 5.61585017e-02 6.17159046e-02 1.10811226e-01
      1.63764209e-01 1.33460268e-01 1.99052513e-01 1.58541635e-01
      1.37937486e-01 1.22713335e-01 1.68110311e-01 1.94973260e-01
      1.50891885e-01 2.22311482e-01 1.77270874e-01 9.96602848e-02
      4.63764034e-02 5.90001084e-02 1.10303134e-01 2.53751248e-01
      1.94356680e-01 1.74670100e-01 2.24603340e-01 1.58899486e-01
      3.20257060e-02 6.85396791e-02 6.68939948e-02 3.18832606e-01
      3.45631868e-01 8.74210671e-02 1.73043370e-01 1.76715598e-01
      1.28151521e-01 8.81081372e-02 8.94384235e-02 6.98796883e-02
      6.95621371e-02 1.20276153e-01 1.21907890e-01 1.44089252e-01
      1.48370847e-01 1.12913266e-01 6.36650696e-02 4.74341027e-02
      4.81734239e-02 2.53400385e-01 3.28523040e-01 1.39195904e-01
      1.82239488e-01 1.85814664e-01 2.14001223e-01 1.70143634e-01
      4.63085435e-02 7.92168006e-02 3.00508320e-01 2.91580141e-01
      4.73421402e-02 7.15568289e-02 7.18777627e-02 7.30195791e-02
      6.25667423e-02 3.64786178e-01 1.92881763e-01 2.83918291e-01
      1.86077774e-01 4.53082435e-02 5.28649613e-02 6.38449937e-02
      5.57753108e-02 1.35644048e-01 2.35321112e-02 3.84876169e-02
      2.32315943e-01 2.95655102e-01 1.63307443e-01 1.05616093e-01
      1.29402786e-01 1.62255526e-01 9.48804915e-02 9.94715467e-02
      6.47433996e-02 1.93987757e-01 3.06477904e-01 2.47335896e-01
      8.96266997e-02 1.01103969e-01 1.00085579e-01 8.05405155e-02</_>
    <_>
      1.83639489e-02 1.77683514e-02 1.72923878e-01 1.78126767e-01
      3.45097631e-01 1.15315415e-01 3.52095701e-02 1.57805942e-02
      1.91027075e-02 2.06678249e-02 6.07606210e-02 2.08748668e-01
      1.75031602e-01 2.92129517e-01 2.05687523e-01 6.01977147e-02
      1.40048945e-02 3.89724359e-04 1.60090160e-02 5.40743535e-03
      1.90435529e-01 3.45097631e-01 3.45097631e-01 8.25163051e-02
      3.00460104e-02 1.07493652e-02 1.60090160e-02 2.46944022e-03
      1.67478155e-02 3.42139512e-01 3.45097631e-01 2.46143073e-01
      9.50389802e-02 3.60289216e-02 6.85121026e-03 1.93660858e-03
      7.95953721e-02 1.26533180e-01 2.83086747e-01 1.97798163e-01
      2.99550772e-01 2.85225838e-01 1.02670707e-01 4.52717245e-02
      1.93297751e-02 1.49396747e-01 6.71600997e-02 7.93797821e-02
      5.93817942e-02 9.65791643e-02 5.86476289e-02 6.71083480e-02
      7.22801536e-02 1.47425309e-01 2.23464947e-02 6.69634491e-02
      4.51522559e-01 4.15659696e-01 2.41336614e-01 1.46648929e-01
      8.62017721e-02 2.85687353e-02 2.10796725e-02 1.05227374e-01
      6.47313595e-02 1.48172498e-01 1.01024494e-01 1.04547992e-01
      3.81481946e-02 1.12106130e-01 1.02211699e-01 1.89874083e-01
      1.68223277e-01 3.49287950e-02 4.49909382e-02 4.17983830e-02
      7.70620704e-02 2.74722185e-02 7.00148195e-02 1.18226603e-01
      2.41773471e-01 1.34884298e-01 8.38753767e-03 1.77467838e-02
      1.41004413e-01 2.35039443e-01 1.02010757e-01 1.21272124e-01
      2.92095333e-01 3.44552219e-01 1.92026272e-01 6.80907816e-02
      5.38195111e-02 4.47049364e-02 7.85097256e-02 1.33403344e-02
      9.37493145e-02 1.29536763e-01 2.96752006e-01 2.67842978e-01
      9.81657133e-02 1.19559705e-01 8.05107132e-02 1.41913399e-01
      5.21314479e-02 5.31155877e-02 1.90836489e-01 4.73020494e-01
      1.76083334e-02 4.39307420e-03 2.08427191e-01 4.14819330e-01
      3.04287463e-01 1.76513623e-02 4.63266345e-03 1.95572898e-03
      1.74011625e-02 7.14483112e-02 5.46454266e-02 1.93316504e-01
      3.92345160e-01 1.68416172e-01 2.26087142e-02 1.53024513e-02
      1.61025003e-02 8.01552609e-02 3.26838866e-02 1.91504676e-02
      2.10390687e-01 4.14819330e-01 2.26197839e-01 1.94022972e-02
      2.58724522e-02 4.23862934e-02 3.80654112e-02 1.39142260e-01
      1.22041613e-01 1.75045550e-01 2.24534333e-01 1.52951658e-01
      3.27995755e-02 9.18632373e-02 8.67926404e-02 1.50348470e-01
      1.04746319e-01 7.28044808e-02 1.56409934e-01 2.05759674e-01
      1.21305563e-01 4.91457544e-02 6.72207475e-02 9.53322127e-02
      1.66049883e-01 1.05243973e-01 3.94075215e-02 3.29392776e-02
      2.20177770e-02 4.45835181e-02 5.77733591e-02 1.49504051e-01
      2.53235370e-01 2.29803383e-01 2.13905051e-01 1.71284720e-01
      1.30545989e-01 1.07927427e-01 1.78355545e-01 6.06810115e-02
      1.42840222e-01 2.00823233e-01 3.04186642e-01 1.97085455e-01
      1.47775143e-01 3.85504737e-02 1.21741677e-02 1.11222342e-01
      1.28638953e-01 2.33146265e-01 3.76359612e-01 3.40683728e-01
      1.42294794e-01 4.70842756e-02 6.11202568e-02 2.50053369e-02
      2.76900902e-02 3.06127500e-02 9.84626040e-02 1.78812236e-01
      1.89819574e-01 1.58458993e-01 1.64884329e-01 2.81089187e-01
      1.31193176e-01 3.67324799e-02 2.84927431e-03 1.15823597e-02
      1.83317102e-02 1.20869301e-01 2.92120963e-01 1.58054069e-01
      7.05299675e-02 2.07786411e-02 6.36622831e-02 9.27255303e-02
      1.78383306e-01 2.75481313e-01 2.57791728e-01 4.40508187e-01
      3.21248829e-01 2.16622859e-01 1.66196913e-01 4.15048338e-02 0.
      3.34517541e-03 1.80159099e-02 2.19135925e-01 2.19469324e-01
      5.30823283e-02 4.49730456e-02 7.16230646e-02 7.30248839e-02
      4.56143022e-02 1.05652831e-01 1.85892299e-01 2.20288754e-01
      3.09156895e-01 7.28083625e-02 3.80773619e-02 3.10921557e-02
      4.88573201e-02 2.67815869e-02 1.36185408e-01 2.12583870e-01
      3.02000225e-01 2.90167898e-01 6.16800226e-02 1.74769051e-02
      9.70119145e-03 5.68374097e-02 5.12673035e-02 1.83815986e-01
      2.02233598e-01 3.35983545e-01 3.62997711e-01 7.43908361e-02
      1.40110319e-02 1.23452907e-02 4.10367027e-02 4.31900136e-02
      1.21846922e-01 1.76669419e-01 3.24912488e-01 2.36617580e-01
      1.29776344e-01 6.48159832e-02 3.60062905e-02 4.63051498e-02
      2.00856831e-02 1.04035519e-01 1.32238299e-01 2.21809372e-01
      1.19194821e-01 4.02392954e-01 2.71244317e-01 1.29577845e-01
      5.66851795e-02 2.97864974e-02 6.32570758e-02 4.90501784e-02
      8.21997449e-02 2.71006852e-01 1.18834056e-01 8.97611156e-02
      6.17294125e-02 1.93539169e-02 1.73988063e-02 4.51280773e-02
      8.86138380e-02 2.10236520e-01 1.17490612e-01 3.63176703e-01
      4.02392954e-01 2.91608125e-01 7.39780217e-02 0. 5.59858559e-03
      1.16788633e-02 3.66405137e-02 9.21011567e-02 3.48958701e-01
      2.35116005e-01 9.16288868e-02 3.31648774e-02 1.55456383e-02
      2.78018918e-02 2.03910489e-02 2.57991776e-02 3.06726605e-01
      3.57658565e-01 2.26668090e-01 7.27464780e-02 1.28075536e-02 0.
      1.14323758e-03 1.02115348e-02 7.23122209e-02 5.07185459e-02
      3.00158471e-01 3.20018828e-01 1.99288145e-01 6.20867349e-02 0.
      5.02510881e-03 6.61251089e-03 3.06239026e-03 1.30697519e-01
      3.57658565e-01 3.04612458e-01 1.87612250e-01 3.54336500e-02 0.
      5.01107844e-03 7.85884820e-03 4.55109552e-02</_>
    <_>
      2.49606464e-02 3.14568095e-02 1.18846938e-01 1.96739227e-01
      1.00798033e-01 3.67900990e-02 8.27251896e-02 1.96844805e-02
      1.74298137e-02 2.52005290e-02 9.02378187e-02 3.56165498e-01
      3.56165498e-01 9.38934088e-02 2.56129187e-02 4.44545709e-02
      1.08356941e-02 2.12610979e-02 3.40360822e-03 2.19191494e-03
      1.36540323e-01 3.56165498e-01 3.56165498e-01 4.79299575e-02
      2.76086368e-02 6.80845790e-03 3.88593297e-03 4.14770469e-03
      2.06652191e-02 3.56165498e-01 3.56165498e-01 3.29730839e-01
      7.07018003e-02 4.39616330e-02 4.38015014e-02 3.51227075e-02
      4.01045047e-02 2.14130536e-01 3.56548190e-01 3.50287706e-01
      6.73622638e-02 5.37640369e-03 6.92675915e-03 3.69972317e-03
      2.52305586e-02 2.07137197e-01 3.56548190e-01 3.56548190e-01
      6.34922013e-02 7.41400011e-03 6.60577416e-03 1.68563752e-03
      7.59805925e-03 3.20029780e-02 7.99075700e-03 5.51611967e-02
      3.56548190e-01 3.56548190e-01 1.44913837e-01 4.32345755e-02
      4.03026566e-02 5.71346395e-02 4.62526083e-02 3.54726911e-02
      1.28756776e-01 2.34072909e-01 1.41614929e-01 8.64361003e-02
      3.62278521e-02 2.75723524e-02 3.67807299e-02 2.59966925e-02
      2.87959009e-01 2.87959009e-01 2.87959009e-01 6.06478341e-02
      1.42341154e-02 1.39328754e-02 4.70137782e-03 4.34396565e-02
      8.36221427e-02 2.86762446e-01 2.87959009e-01 1.25644311e-01
      8.03346038e-02 2.19238773e-02 1.48041621e-01 1.70931861e-01
      1.84880495e-01 1.58816695e-01 8.44100416e-02 1.92359164e-01
      1.88525438e-01 2.13867739e-01 1.48000598e-01 5.18664457e-02
      5.04944548e-02 6.16688468e-02 6.09472319e-02 1.08921319e-01
      1.23458520e-01 5.57569377e-02 1.10862903e-01 8.75453800e-02
      2.87959009e-01 2.87959009e-01 1.98319882e-01 1.46841317e-01
      2.34337207e-02 1.52322638e-04 1.39529351e-02 2.37868622e-01
      3.34715456e-01 1.72284901e-01 4.75074910e-02 3.32652628e-02
      3.80489565e-02 2.32514646e-02 4.32471372e-03 2.16510948e-02
      1.79397583e-01 3.34715456e-01 2.22237527e-01 1.75097823e-01
      1.56799272e-01 9.91637185e-02 4.81573753e-02 8.63161811e-04
      1.60105564e-02 1.28273398e-01 3.34715456e-01 3.34715456e-01
      1.61258265e-01 5.29909320e-02 6.01208359e-02 7.18022287e-02
      3.34150046e-02 3.23329158e-02 8.84972960e-02 3.34715456e-01
      2.29715809e-01 2.17030033e-01 1.50281444e-01 8.90111849e-02
      3.26511525e-02 8.47194996e-03 1.92247164e-02 6.38013557e-02
      8.86787698e-02 1.72280356e-01 2.84647048e-01 2.22324237e-01
      1.01008862e-01 3.34862024e-02 4.34575081e-02 2.10862517e-01
      3.05072546e-01 1.72713414e-01 8.84842724e-02 1.33523107e-01
      9.35836285e-02 1.17150918e-02 1.15473017e-01 4.65002172e-02
      3.28801386e-02 4.81239185e-02 7.95864984e-02 1.68570220e-01
      3.05072546e-01 3.05072546e-01 1.18660413e-01 1.54226735e-01
      9.89523828e-02 3.05072546e-01 3.05072546e-01 7.23011568e-02
      7.91966841e-02 2.40904227e-01 2.40469292e-01 8.55055675e-02
      3.10266800e-02 5.52690327e-02 1.85003877e-01 2.88979471e-01
      1.92971811e-01 3.29808109e-02 5.44031933e-02 3.03051025e-02
      3.30339745e-03 5.38481809e-02 4.68311980e-02 7.84772784e-02
      2.25147918e-01 2.42996827e-01 2.88979471e-01 2.87840933e-01
      4.60344777e-02 3.03219855e-02 1.16500184e-01 9.28353220e-02
      2.88979471e-01 2.88979471e-01 9.64660123e-02 5.03955372e-02
      5.19931540e-02 6.19915314e-02 3.26281898e-02 1.01665780e-01
      5.99176586e-02 1.22563191e-01 2.88979471e-01 2.88979471e-01
      2.88979471e-01 2.25716904e-01 5.51761165e-02 2.49191355e-02
      3.18966061e-02 1.31369140e-02 5.20180650e-02 1.47895068e-01
      3.09308022e-01 3.09308022e-01 2.17485324e-01 6.27572462e-02
      3.15531678e-02 3.27835232e-02 2.53851004e-02 5.75847887e-02
      1.90392807e-01 2.08303109e-01 3.09308022e-01 1.61722824e-01
      9.81724560e-02 4.46087345e-02 4.42024060e-02 3.26103084e-02
      6.71431795e-02 1.19786642e-01 1.59263059e-01 3.09308022e-01
      3.09308022e-01 5.52358963e-02 4.99076769e-02 4.24329080e-02
      2.85303835e-02 8.81867558e-02 1.57349199e-01 5.98010607e-02
      3.09308022e-01 3.06126297e-01 1.55592665e-01 1.13980986e-01
      5.42643331e-02 1.97177399e-02 2.74310727e-02 1.04856640e-01
      1.63914010e-01 2.81325907e-01 1.97999656e-01 1.76748797e-01
      9.70838815e-02 1.26538455e-01 9.53051075e-02 1.76370263e-01
      2.42349654e-01 1.05859309e-01 1.16400287e-01 1.58895820e-01
      2.04145461e-01 1.71890929e-01 3.99736203e-02 5.87608153e-03
      3.71903256e-02 6.95353001e-02 6.68300763e-02 2.81325907e-01
      2.81325907e-01 2.49520525e-01 1.69079527e-01 2.19699547e-01
      6.60002753e-02 4.25832197e-02 3.40367593e-02 6.86323494e-02
      1.27669811e-01 2.67476916e-01 2.67056018e-01 2.81325907e-01
      1.13476872e-01 1.00137547e-01 1.71038300e-01 2.38831252e-01
      8.65944624e-02 3.73754948e-02 5.56687564e-02 7.14348927e-02
      9.30242315e-02 1.25370950e-01 7.12828711e-02 2.68361658e-01
      3.49817902e-01 2.66305536e-01 1.18842542e-01 7.47594014e-02
      1.09510431e-02 6.71658367e-02 1.98777735e-01 1.16955251e-01
      2.50111371e-01 8.45547020e-02 5.05288877e-02 2.17564274e-02
      7.08864704e-02 1.12557441e-01 3.04221630e-01 1.57409042e-01
      1.37341097e-01 3.49817902e-01 3.49817902e-01 1.19493581e-01
      1.51536828e-02 9.37443506e-03 1.57460235e-02 1.08192228e-01</_>
    <_>
      6.72662631e-02 2.28208676e-02 4.92383689e-02 1.54695392e-01
      2.05661044e-01 9.02672783e-02 1.51269138e-01 2.64149368e-01
      1.86043262e-01 4.26568836e-02 7.28103295e-02 1.25105858e-01
      1.96861759e-01 1.79297745e-01 6.17786869e-02 1.28959700e-01
      1.06932551e-01 7.83799887e-02 6.85441419e-02 6.36255601e-03
      2.09741550e-03 1.62617769e-02 1.41052648e-01 2.34661087e-01
      3.19748759e-01 3.19748759e-01 2.15244487e-01 3.34087722e-02
      7.68409595e-02 1.72302306e-01 3.19748759e-01 2.73273110e-01
      2.02119961e-01 2.23981053e-01 1.24279097e-01 7.15608597e-02
      1.86737422e-02 4.05522659e-02 9.68972370e-02 2.00790599e-01
      2.66974121e-01 3.14509571e-02 5.13068587e-02 1.58546530e-02
      2.43268386e-02 6.78454340e-02 6.19129650e-02 1.33965999e-01
      2.79966444e-01 3.26600134e-01 2.07173541e-01 1.82185218e-01
      6.44265935e-02 8.53354409e-02 1.22906854e-02 3.34841497e-02
      1.20894946e-01 3.26600134e-01 3.26600134e-01 4.27889340e-02
      4.16377708e-02 1.51480371e-02 2.43230294e-02 2.10796092e-02
      5.43578267e-02 1.36308759e-01 3.26600134e-01 3.26600134e-01
      2.45343968e-01 1.94231004e-01 3.09311021e-02 5.02108783e-02
      3.71092483e-02 2.70590466e-02 4.94057462e-02 8.91936719e-02
      1.41160399e-01 3.27836126e-01 2.11868003e-01 4.50498722e-02
      4.86111343e-02 1.05368886e-02 0. 0. 0. 1.17959633e-01
      3.27836126e-01 2.89605409e-01 5.90557931e-03 1.08322520e-02
      1.20340362e-02 3.00540961e-02 5.08961268e-02 1.83973953e-01
      3.27836126e-01 3.27836126e-01 2.47800618e-01 2.00067982e-02
      2.83281133e-02 1.78481359e-02 0. 0. 0. 3.27836126e-01
      3.27836126e-01 2.67133534e-01 3.65204946e-03 1.78481359e-02
      8.54314119e-02 2.28595342e-02 1.65291615e-02 7.68209528e-03
      3.56181487e-02 1.91884905e-01 2.77765125e-01 1.06455147e-01
      1.18089750e-01 4.34250683e-02 1.37615427e-01 2.28707656e-01
      2.77765125e-01 6.29089251e-02 1.49227634e-01 2.69615412e-01
      8.11301395e-02 9.59602520e-02 9.47836488e-02 5.68048209e-02
      5.36188744e-02 4.89702523e-02 1.27292797e-01 1.10695727e-01
      2.77765125e-01 1.98760942e-01 1.30734578e-01 9.77013186e-02
      1.57142103e-01 2.77765125e-01 2.77765125e-01 5.00819050e-02
      7.91164264e-02 2.77765125e-01 2.77765125e-01 2.28572085e-01
      2.03181673e-02 9.02334377e-02 2.46715441e-01 3.08441907e-01
      6.87033087e-02 1.68809965e-02 3.89910340e-02 2.19848491e-02
      3.85410115e-02 3.82512808e-02 5.41137010e-02 2.58801162e-01
      3.08441907e-01 2.79221296e-01 1.84073165e-01 6.03882521e-02
      3.19469720e-02 3.73694114e-02 5.69174401e-02 9.88738835e-02
      3.05584043e-01 3.08441907e-01 5.88683859e-02 1.94367338e-02
      7.08631873e-02 1.07988067e-01 9.90974605e-02 5.82150444e-02
      5.68772517e-02 2.44684890e-01 3.08441907e-01 3.08441907e-01
      2.05644265e-01 7.17576966e-02 2.98248865e-02 4.97078039e-02
      3.35498527e-02 3.71747389e-02 1.21862985e-01 1.96828157e-01
      3.14602792e-01 2.91976482e-01 1.12485319e-01 4.92006689e-02
      3.97395864e-02 1.56094283e-02 0. 0. 2.40994012e-03 3.17463428e-01
      3.17463428e-01 1.44138172e-01 3.66018265e-02 2.60542501e-02
      4.25060466e-02 4.29679044e-02 9.91661921e-02 2.06523433e-01
      3.17463428e-01 3.17463428e-01 1.22428782e-01 5.19407168e-02
      4.85461690e-02 1.85067765e-02 2.45766435e-03 6.52193930e-03
      1.40937895e-01 3.17463428e-01 3.17463428e-01 1.13826580e-01
      4.03199121e-02 3.30089629e-02 4.84424643e-02 2.32988968e-02
      1.92425083e-02 4.31484655e-02 3.29477519e-01 3.29477519e-01
      1.55051306e-01 7.86061659e-02 7.09762350e-02 6.80086464e-02
      4.31656912e-02 1.04250506e-01 1.32344663e-01 1.73902109e-01
      1.52276456e-01 1.84430555e-01 2.09285542e-01 1.40509009e-01
      3.63451242e-02 3.32126836e-03 1.77518988e-03 6.58335956e-03
      2.00319931e-01 3.29477519e-01 3.29477519e-01 9.57541540e-02
      6.64852932e-02 1.35515824e-01 3.92430462e-02 2.28108522e-02
      2.42992677e-02 1.51407659e-01 2.27543533e-01 3.29477519e-01
      1.70176044e-01 2.18908459e-01 8.74495953e-02 7.43773952e-02
      1.41491756e-01 2.34903693e-01 1.01026312e-01 7.02008158e-02
      1.16049930e-01 1.16955481e-01 1.07743479e-01 1.88690573e-01
      1.75740883e-01 1.47445813e-01 3.24197829e-01 2.95446366e-01
      9.22817737e-02 4.51915674e-02 4.16661315e-02 1.04792014e-01
      1.34112373e-01 1.01696372e-01 6.05973825e-02 7.02064037e-02
      1.04418151e-01 5.79095408e-02 1.77730799e-01 1.52421981e-01
      2.32910216e-01 9.52265635e-02 2.42178947e-01 3.24197829e-01
      3.24197829e-01 2.84437031e-01 3.74718793e-02 7.04149082e-02
      9.39298421e-02 1.27764672e-01 5.62020689e-02 5.61851934e-02
      6.46899790e-02 2.89378643e-01 1.91854343e-01 4.61398624e-02
      1.74252894e-02 1.71087272e-02 3.14073972e-02 2.62725465e-02
      4.70694434e-03 1.86203063e-01 3.68844718e-01 3.13502222e-01
      5.05133383e-02 7.87656009e-03 1.80800073e-03 2.58917473e-02
      2.32736822e-02 7.12407976e-02 3.68844718e-01 3.68844718e-01
      1.48002177e-01 1.48564251e-02 9.80738271e-03 1.56938639e-02
      2.17707213e-02 2.68382002e-02 7.60808680e-03 3.68844718e-01
      3.68844718e-01 1.19587362e-01 5.00177452e-03 6.03929366e-05 0.
      2.65519135e-02</_>
    <_>
      2.63218790e-01 1.22139588e-01 3.05885017e-01 1.53762788e-01
      5.04894219e-02 1.57169476e-02 7.27673993e-03 1.48360096e-02
      8.69741589e-02 1.90330327e-01 2.56021112e-01 3.05885017e-01
      1.68209761e-01 2.78893076e-02 1.09130936e-02 4.25040303e-03
      1.19431950e-02 6.44418448e-02 1.90813821e-02 6.86886460e-02
      3.05885017e-01 3.05885017e-01 3.05885017e-01 1.96668357e-01
      4.07754537e-03 2.76236050e-03 9.97773372e-03 3.11241727e-02
      2.21221343e-01 3.05885017e-01 2.24627540e-01 1.81481957e-01
      6.49814159e-02 8.42775404e-03 1.75671130e-02 2.42208154e-03
      2.20172644e-01 3.05308729e-01 3.06583017e-01 1.48594916e-01
      5.23991138e-02 2.95204371e-02 3.29711661e-02 3.93441133e-02
      1.10665999e-01 1.53810471e-01 1.07013807e-01 5.16007654e-02
      9.77544263e-02 1.84804931e-01 1.86316669e-01 2.03120157e-01
      9.38463882e-02 1.34069443e-01 5.51489741e-02 2.71103144e-01
      3.06583017e-01 1.99394315e-01 2.31085241e-01 1.31247163e-01
      2.77589113e-02 5.25112636e-02 1.68326665e-02 2.78589316e-02
      5.33106141e-02 4.02373075e-02 2.13009834e-01 3.06583017e-01
      3.06583017e-01 9.17106196e-02 6.09665886e-02 3.14384997e-02
      9.69837457e-02 5.39326444e-02 6.05806969e-02 1.27043486e-01
      1.94372088e-01 2.41697282e-01 2.77700067e-01 1.24780633e-01
      1.05527431e-01 2.04724550e-01 8.08691531e-02 8.15529972e-02
      6.21341877e-02 8.91262144e-02 1.42682567e-01 2.93397695e-01
      2.28972018e-01 1.95793450e-01 3.56646515e-02 1.12931188e-02
      6.76736981e-02 2.19028398e-01 3.10169399e-01 2.71269858e-01
      1.23696923e-01 5.41590750e-02 4.32173833e-02 2.76868075e-01
      1.07165918e-01 2.05442488e-01 1.32478341e-01 1.18643232e-01
      7.42403492e-02 1.28442794e-01 1.33629382e-01 2.34428987e-01
      3.17250309e-03 1.92044216e-04 3.71589996e-02 2.16135591e-01
      3.25735360e-01 2.96573251e-01 1.15504237e-02 2.45253410e-04
      3.17250309e-03 1.03361728e-02 2.88716946e-02 8.33606571e-02
      3.25735360e-01 3.25735360e-01 1.82984412e-01 1.10325944e-02
      7.60768261e-03 3.35971802e-03 3.76837119e-03 0. 1.49616208e-02
      1.24915630e-01 3.25735360e-01 3.25735360e-01 1.11520290e-01
      8.01760796e-03 4.50004824e-03 2.77724466e-03 2.63899728e-03
      2.59016324e-02 1.94090143e-01 3.25735360e-01 3.25735360e-01
      9.75200161e-02 4.42889938e-03 1.64560194e-03 1.42270587e-02
      3.85063812e-02 6.92452192e-02 2.51106471e-01 3.39092106e-01
      2.87413448e-01 1.79719795e-02 1.30292578e-02 4.79898276e-03
      7.89299700e-03 1.22624049e-02 6.95252139e-03 8.56907070e-02
      3.39092106e-01 3.39092106e-01 2.13764179e-02 1.09839784e-02
      5.11574652e-03 3.80990212e-03 4.91612917e-03 2.26073153e-02
      1.37624100e-01 3.39092106e-01 3.39092106e-01 6.68720156e-02
      5.91319287e-03 2.26405147e-03 8.54131579e-03 1.07519515e-02
      1.55238323e-02 4.47020717e-02 3.39092106e-01 3.39092106e-01
      5.54658622e-02 3.67942452e-02 1.74480805e-03 1.21148946e-02
      8.62825569e-03 2.67323591e-02 2.03369752e-01 3.69322270e-01
      3.69322270e-01 2.62923259e-02 9.55970306e-03 8.99301004e-03
      4.15446199e-02 2.23394297e-02 8.98860395e-02 2.68240482e-01
      2.91340262e-01 1.54459164e-01 5.94400577e-02 2.44324431e-02
      3.61398011e-02 2.42655277e-02 4.39135060e-02 7.70202950e-02
      1.49410397e-01 3.69322270e-01 3.69322270e-01 7.99947605e-02
      7.99018070e-02 4.30292450e-03 5.44250831e-02 7.46805146e-02
      1.46111339e-01 2.27895424e-01 2.26761043e-01 1.57709852e-01
      7.42034614e-02 4.34701107e-02 4.51393202e-02 9.17379465e-03
      1.11296940e-04 2.46525033e-05 1.68795104e-03 7.28572831e-02
      4.19532835e-01 1.99499443e-01 3.92387845e-02 1.81599390e-02 0.
      4.87731246e-04 1.06855971e-03 7.14623695e-03 1.17181227e-01
      4.19532835e-01 3.31995487e-01 3.45896669e-02 2.52862484e-03
      1.47818029e-02 4.29707579e-03 8.70330539e-03 4.99368925e-03
      3.37228961e-02 2.64249563e-01 1.72486335e-01 5.82466386e-02
      2.21837107e-02 3.52104427e-04 8.60701984e-05 6.96881034e-04
      1.15440623e-03 1.09490082e-01 4.19532835e-01 4.19532835e-01
      5.06335497e-02 3.55201145e-03 8.22261441e-03 2.01348290e-02
      2.07412131e-02 3.33267599e-02 1.27445608e-01 3.75389069e-01
      2.70093352e-01 6.76354989e-02 7.11208861e-03 1.95584130e-02
      3.73257399e-02 6.51914403e-02 2.16016412e-01 3.20891172e-01
      2.61557400e-01 7.82724544e-02 6.32374138e-02 1.06173689e-02
      1.82371866e-02 1.81747787e-02 1.35582332e-02 2.10366752e-02
      8.99388418e-02 3.75389069e-01 3.75389069e-01 1.18081599e-01
      1.60578191e-02 6.13441095e-02 5.61722219e-02 1.24991693e-01
      2.95146048e-01 1.76002473e-01 7.87859112e-02 2.39083767e-01
      1.15833640e-01 4.86029126e-02 2.70688068e-02 4.71131206e-02
      7.90612549e-02 2.82302916e-01 3.00841808e-01 2.60649800e-01
      6.35410771e-02 5.13627157e-02 1.89649928e-02 1.21295445e-01
      5.08991666e-02 4.84632701e-02 8.85412470e-02 1.49815023e-01
      1.45481795e-01 1.26388639e-01 8.19890872e-02 1.12181060e-01
      8.57028291e-02 7.35459551e-02 1.85997561e-01 3.00841808e-01
      2.49363557e-01 5.82271554e-02 9.11876857e-02 1.02265283e-01
      8.10206309e-02 3.00841808e-01 1.63714886e-01 1.02413557e-01
      2.97477096e-01 1.47626549e-01 1.04620382e-01 1.38003290e-01
      2.21111938e-01 3.00841808e-01</_>
    <_>
      1.44791946e-01 9.64545608e-02 1.28996640e-01 2.41437674e-01
      1.60766661e-01 9.11365822e-02 5.30452728e-02 9.36287344e-02
      1.07908346e-01 1.27074435e-01 1.83504194e-01 1.65383250e-01
      1.22271620e-01 1.56242773e-01 1.01090282e-01 1.01513408e-01
      2.09580347e-01 1.86669290e-01 7.10201561e-02 6.51092380e-02
      2.09587872e-01 3.27793181e-01 3.20438951e-01 1.25772372e-01
      9.88262594e-02 1.06706806e-01 8.66207778e-02 1.29817098e-01
      1.79129958e-01 2.30773643e-01 1.82195157e-01 2.06579521e-01
      7.49822706e-02 1.56666145e-01 2.38949612e-01 2.11200595e-01
      1.12399407e-01 1.53663427e-01 1.29988208e-01 6.17298149e-02
      1.75712511e-01 1.24025807e-01 1.64810821e-01 1.58675790e-01
      1.41659781e-01 1.04782276e-01 1.52103901e-01 1.47802144e-01
      6.67604655e-02 2.02634439e-01 1.81917980e-01 2.51436710e-01
      2.14978054e-01 1.28298670e-01 1.62785813e-01 1.38363168e-01
      1.57009020e-01 8.34344700e-02 2.07625195e-01 9.85243097e-02
      1.92281723e-01 1.87081262e-01 1.85511887e-01 2.09440544e-01
      1.50893435e-01 1.83867544e-01 1.02418020e-01 2.26556033e-01
      1.54656351e-01 2.07506090e-01 2.24782586e-01 2.09593832e-01
      1.08031295e-01 1.85319215e-01 1.22102581e-01 8.21648613e-02
      1.09001055e-01 1.03756927e-01 1.33631438e-01 1.73057973e-01
      1.02704041e-01 3.49946290e-01 3.43121856e-01 8.18118528e-02
      7.23446533e-02 6.25385568e-02 4.40248847e-02 1.01081587e-01
      1.19983420e-01 2.51195967e-01 1.32654995e-01 1.84345171e-01
      1.61136746e-01 1.61797196e-01 1.57316655e-01 1.15277261e-01
      1.32111758e-01 1.72191337e-01 1.32789269e-01 2.63798237e-01
      2.58801013e-01 9.46224928e-02 1.89753056e-01 1.83351114e-01
      1.19727977e-01 1.56895429e-01 9.69138518e-02 1.79328278e-01
      4.64710481e-02 3.24332528e-02 1.07421979e-01 1.50294051e-01
      2.51961946e-01 2.43219271e-01 1.75037369e-01 6.91121817e-02
      7.38442391e-02 8.75910372e-02 1.21760026e-01 9.25154611e-02
      1.26358971e-01 2.01056480e-01 2.03740150e-01 2.12668970e-01
      1.53292894e-01 1.18084453e-01 8.02408308e-02 5.89540862e-02
      6.33602291e-02 6.20365627e-02 1.99809343e-01 3.07128131e-01
      2.87002116e-01 1.07990451e-01 9.33736339e-02 5.54260053e-02
      1.11131586e-01 8.93134326e-02 1.08213991e-01 2.77197510e-01
      3.46851796e-01 2.75649816e-01 1.34883523e-01 5.33804931e-02
      1.27038404e-01 1.36980638e-01 1.09963477e-01 1.23387106e-01
      1.51856661e-01 1.67465433e-01 1.95626557e-01 1.43969357e-01
      1.23689346e-01 1.63969651e-01 1.44790500e-01 2.50443488e-01
      2.50099063e-01 1.94010615e-01 1.51539072e-01 1.19355440e-01
      8.04266930e-02 1.26414970e-01 4.87245061e-02 1.09850548e-01
      9.33196247e-02 1.06494643e-01 2.30588481e-01 2.86995649e-01
      2.54071563e-01 1.32743835e-01 8.52817819e-02 8.52942467e-02
      1.61673695e-01 2.37616047e-01 2.40919024e-01 2.41207793e-01
      1.55213863e-01 1.59207001e-01 8.84584934e-02 1.24805927e-01
      1.00271024e-01 1.19321957e-01 2.26406887e-01 2.17703789e-01
      1.57802373e-01 1.28130749e-01 7.81301484e-02 5.22389933e-02
      9.57163125e-02 7.29800090e-02 7.68787116e-02 2.61178315e-01
      1.84709892e-01 1.53671622e-01 2.05548465e-01 2.11047083e-01
      5.97695187e-02 7.48940781e-02 6.70125335e-02 1.20582782e-01
      2.30467841e-01 2.64148474e-01 2.12627456e-01 1.32653520e-01
      8.69730935e-02 5.00170067e-02 7.98960254e-02 6.06530160e-02
      7.27902651e-02 3.53952885e-01 3.37215632e-01 1.94881886e-01
      1.94644526e-01 1.55678064e-01 8.39028955e-02 6.89525604e-02
      4.90164757e-02 2.50138678e-02 2.94630136e-02 6.56306222e-02
      2.09270567e-01 3.38119239e-01 3.07393730e-01 1.04991712e-01
      6.03226908e-02 9.17458460e-02 9.34147984e-02 8.95052403e-02
      7.50894919e-02 1.02395996e-01 1.50267839e-01 1.36059225e-01
      2.06609339e-01 1.62811071e-01 8.51306319e-02 3.55027802e-02
      2.31200848e-02 4.22154739e-02 1.42052770e-01 3.28678846e-01
      3.38119239e-01 1.35892615e-01 1.00028604e-01 1.54010653e-01
      1.46528929e-01 1.23254880e-01 7.01344535e-02 4.73091863e-02
      9.05346572e-02 1.46748438e-01 2.97564447e-01 3.19273174e-01
      1.18763417e-01 1.56338662e-01 1.35590762e-01 8.81103426e-02
      1.08938068e-01 9.49064717e-02 7.31789395e-02 1.43948153e-01
      1.48749605e-01 1.90767840e-01 2.84223855e-01 2.07857206e-01
      1.73425108e-01 1.02214880e-01 7.15428367e-02 1.06199570e-01
      1.01763204e-01 1.07221082e-01 1.81426391e-01 2.65301704e-01
      1.85325146e-01 1.19991332e-01 8.79547894e-02 6.84943348e-02
      4.06986289e-02 1.80709064e-01 2.47939646e-01 1.83805704e-01
      3.41003060e-01 2.16416344e-01 1.56207263e-01 1.75973967e-01
      2.29743809e-01 1.96678057e-01 9.07547399e-02 1.06947541e-01
      9.59132388e-02 1.26674429e-01 8.74667764e-02 9.77297351e-02
      7.56441802e-02 1.28882900e-01 1.70627117e-01 8.79288614e-02
      5.78896739e-02 3.44583206e-02 1.02582704e-02 4.22504395e-02
      8.91682059e-02 2.75549650e-01 3.40915829e-01 2.78722435e-01
      1.17087580e-01 5.14295064e-02 7.36810416e-02 1.34988904e-01
      7.78054744e-02 8.37276280e-02 1.25050589e-01 2.77001023e-01
      2.78932184e-01 9.22222361e-02 5.98184653e-02 3.23066004e-02
      2.08638681e-04 0. 1.32553756e-01 3.41210455e-01 3.41210455e-01
      3.41210455e-01 7.80975223e-02 3.79233584e-02</_>
    <_>
      2.20872238e-01 1.84772193e-01 2.31292889e-01 1.89519629e-01
      1.39736637e-01 4.48502749e-02 1.08764157e-01 1.05150118e-01
      1.82531223e-01 7.25843087e-02 1.00555807e-01 1.99105069e-01
      2.14747712e-01 2.09808469e-01 1.51293203e-01 9.29860994e-02
      7.66428038e-02 1.47147238e-01 1.66883171e-01 1.88381821e-01
      3.40576559e-01 2.35792741e-01 2.52138793e-01 7.63538182e-02
      1.69422880e-01 1.79020260e-02 7.23450333e-02 1.05144963e-01
      1.34083062e-01 2.65227258e-01 1.82198748e-01 2.07825258e-01
      7.21881241e-02 5.70718199e-02 7.67831132e-02 1.04482956e-01
      5.98076805e-02 5.57850786e-02 1.21673599e-01 1.01826862e-01
      1.99831411e-01 2.19103172e-01 1.19514599e-01 8.12996328e-02
      1.22142792e-01 1.06677242e-01 1.27624065e-01 1.31235614e-01
      6.71081766e-02 2.37620205e-01 1.69742480e-01 1.75768495e-01
      1.14943638e-01 7.59978220e-02 9.08582658e-02 9.10019875e-02
      1.46561384e-01 9.65067372e-02 2.07319200e-01 1.25436619e-01
      1.04724810e-01 1.28108978e-01 9.15026814e-02 6.98616803e-02
      9.34614688e-02 1.28067821e-01 9.14056078e-02 2.41046056e-01
      2.88253218e-01 5.17212152e-01 2.47895792e-01 5.85080460e-02
      1.15723014e-01 1.11385681e-01 9.30400491e-02 6.19808920e-02
      1.20341770e-01 6.91666007e-02 1.17588446e-01 7.37224817e-02
      7.40001723e-02 1.49857968e-01 1.15609832e-01 2.52342254e-01
      2.41641164e-01 3.16944599e-01 1.13905713e-01 7.73134455e-02
      6.05866276e-02 1.30321488e-01 7.20923170e-02 6.90475255e-02
      7.81251192e-02 9.47128460e-02 1.44433752e-01 1.93781853e-01
      3.70036542e-01 1.43352404e-01 6.31830618e-02 1.20692499e-01
      6.88165501e-02 1.04312822e-01 2.31619880e-01 4.04574692e-01
      1.73323303e-01 1.20881058e-01 2.31024846e-01 1.54640496e-01
      1.19492009e-01 8.16477761e-02 1.54065967e-01 1.87888786e-01
      2.06240922e-01 6.19045794e-02 8.89583230e-02 9.68172029e-02
      5.81409149e-02 1.04419395e-01 1.13726556e-01 1.64874569e-01
      1.31822661e-01 1.11871228e-01 1.55152276e-01 9.30216759e-02
      1.09560721e-01 8.22913274e-02 1.26353458e-01 6.80667013e-02
      9.33966264e-02 2.07778677e-01 4.06298757e-01 3.48714173e-01
      2.29411423e-01 2.23891228e-01 9.97618213e-02 1.36759266e-01
      1.23664021e-01 1.63717836e-01 1.95307255e-01 2.53151774e-01
      1.58494443e-01 1.41791672e-01 1.21125720e-01 1.46050200e-01
      9.00792480e-02 1.24891676e-01 1.53326362e-01 9.70452577e-02
      1.06788248e-01 2.09430799e-01 1.36113554e-01 1.68930084e-01
      1.39388040e-01 8.62387195e-02 1.21173538e-01 2.20620528e-01
      1.37410879e-01 1.02517448e-01 2.36822471e-01 2.40653470e-01
      1.13805600e-01 1.62563294e-01 1.64411694e-01 1.57790869e-01
      1.69311985e-01 1.41483590e-01 1.09978937e-01 1.81643352e-01
      1.67002946e-01 1.79875880e-01 2.40502700e-01 2.52885371e-01
      1.72246128e-01 2.28768364e-01 1.65899336e-01 1.32475659e-01
      1.88120693e-01 1.14801109e-01 1.37731746e-01 2.01649219e-01
      8.56588706e-02 7.32780099e-02 1.75929904e-01 1.45004034e-01
      1.77189216e-01 2.97396362e-01 2.46831089e-01 5.46845011e-02
      1.56345129e-01 1.26824811e-01 3.66392322e-02 5.04517369e-02
      8.80243182e-02 1.97444737e-01 1.90103546e-01 1.48893237e-01
      9.66776162e-02 1.65609390e-01 2.18238771e-01 1.10733844e-01
      1.95067436e-01 1.71952933e-01 2.74624318e-01 2.53024995e-01
      1.06111929e-01 9.28599834e-02 1.33744955e-01 2.04272285e-01
      6.95953369e-02 1.10983662e-01 1.42227322e-01 3.09348166e-01
      2.16814876e-01 1.06089719e-01 7.14857131e-02 1.29944205e-01
      2.01742966e-02 6.61049038e-03 3.01957130e-02 2.65458465e-01
      3.90834183e-01 2.09210455e-01 4.03824225e-02 2.05109548e-02
      1.95340551e-02 4.80301231e-02 3.11802309e-02 5.88396415e-02
      1.29042104e-01 3.12633663e-01 1.13067694e-01 4.85994816e-02
      4.94512171e-02 4.71121110e-02 2.67274808e-02 4.93416516e-03
      2.96532959e-02 1.58700302e-01 3.90834183e-01 3.90834183e-01
      1.00829668e-01 2.08966080e-02 2.35327780e-02 4.55430709e-02
      2.71225031e-02 6.52496442e-02 1.23336233e-01 3.20195228e-01
      3.03606242e-01 1.22772321e-01 9.36496034e-02 8.92276131e-03
      1.42367125e-01 8.83927569e-02 1.35876030e-01 1.75537094e-01
      1.63584471e-01 1.82317212e-01 1.13620564e-01 1.21733017e-01
      1.31856009e-01 2.90996909e-01 1.42246649e-01 1.47021011e-01
      1.75327331e-01 8.07591528e-02 1.21038616e-01 7.80656710e-02
      1.11077636e-01 1.66798472e-01 1.50911570e-01 1.08593486e-01
      1.86642393e-01 2.24341676e-01 1.72091410e-01 3.39189470e-01
      1.56591490e-01 1.67656377e-01 4.75786813e-02 1.76572070e-01
      2.20693797e-01 2.56537825e-01 2.80560851e-01 1.19674414e-01
      1.14517376e-01 5.02273589e-02 4.30739075e-02 1.09911412e-01
      2.04568639e-01 1.00869931e-01 1.04333669e-01 1.23571314e-01
      8.98962468e-02 1.33138984e-01 6.99972883e-02 1.32471845e-01
      1.35359347e-01 7.72232413e-02 3.57032679e-02 1.08983777e-01
      3.50161761e-01 2.68772632e-01 1.84560180e-01 5.98968975e-02
      1.26029849e-01 9.50467065e-02 9.52789560e-02 1.46877125e-01
      1.94584876e-01 2.29210183e-01 1.61047950e-01 9.16856527e-02
      4.86455038e-02 6.90115020e-02 8.81145447e-02 4.67144698e-02
      7.81152174e-02 2.73384839e-01 4.35702950e-01 3.05010587e-01
      1.25079334e-01 4.69991527e-02 1.09710820e-01 8.64813775e-02</_>
    <_>
      4.07975912e-02 0. 0. 0. 1.24078616e-01 3.16569984e-01
      3.16569984e-01 1.61597475e-01 1.10354356e-01 5.58797494e-02
      1.08099235e-02 5.20940358e-03 1.53457071e-03 6.86093569e-02
      2.52390802e-01 2.16308907e-01 2.16374710e-01 1.56504631e-01
      4.93124016e-02 6.86010055e-04 3.96981573e-04 3.76987108e-03
      3.16569984e-01 3.16569984e-01 2.28805453e-01 8.51343200e-02
      1.05419174e-01 5.54003753e-02 1.75400674e-02 4.92674578e-03
      5.86860580e-04 5.99625334e-02 3.13258737e-01 3.16569984e-01
      2.29494423e-01 1.40245035e-01 6.01295084e-02 1.86415408e-02
      5.35347089e-02 9.77061763e-02 1.04634091e-01 2.10528076e-01
      1.39180377e-01 1.19515717e-01 1.36690155e-01 1.17517613e-01
      9.31641906e-02 1.13211446e-01 2.97739357e-01 8.83885324e-02
      8.01854953e-02 2.33602002e-01 1.68985188e-01 1.61073536e-01
      9.56987515e-02 7.12290779e-02 9.56654772e-02 1.31689146e-01
      8.29222947e-02 2.32987955e-01 2.82499224e-01 1.99835241e-01
      1.51516125e-01 1.58268988e-01 1.85233846e-01 2.48250932e-01
      2.97739357e-01 1.80426210e-01 8.51009861e-02 2.97294229e-01
      1.70744300e-01 1.19238362e-01 7.02234283e-02 5.79127669e-02
      4.65534925e-02 1.48357794e-01 3.11851967e-02 1.45184457e-01
      3.38709205e-01 1.48985207e-01 7.94053301e-02 2.00320035e-02
      1.03328377e-04 0. 0. 4.06050240e-04 1.51777506e-01 3.38709205e-01
      2.20885143e-01 3.34740765e-02 7.74364620e-02 9.95301977e-02
      1.20883837e-01 3.38709205e-01 9.81594250e-02 1.82723030e-01
      3.38709205e-01 1.57894313e-01 3.90554182e-02 5.22124581e-02
      2.49641528e-03 4.95323958e-03 1.74532528e-03 2.61001103e-03
      2.06164449e-01 3.38709205e-01 3.38709205e-01 8.15061703e-02
      5.69841117e-02 4.12482694e-02 9.28945933e-03 1.36347441e-02
      3.18938941e-01 3.18938941e-01 7.51662105e-02 8.67372826e-02
      4.63485867e-02 2.28490099e-01 2.88725346e-01 4.08687405e-02
      1.90011598e-02 1.57227088e-02 5.98125570e-02 1.07228734e-01
      1.58893704e-01 9.00529474e-02 7.51056373e-02 7.48559535e-02
      5.49592301e-02 1.48407042e-01 3.18938941e-01 3.18938941e-01
      8.14281851e-02 8.62097442e-02 2.68125329e-02 2.89908826e-01
      3.18938941e-01 1.28804415e-01 3.18938941e-01 1.42343804e-01
      4.01340723e-02 2.69091148e-02 6.56613633e-02 3.22640724e-02
      2.62205005e-01 2.74901599e-01 6.92260936e-02 2.17258520e-02
      7.83029478e-03 2.41133869e-02 4.65333611e-02 8.69595483e-02
      9.23196822e-02 2.16647223e-01 2.51304626e-01 2.76110381e-01
      2.76110381e-01 4.68268506e-02 9.67571810e-02 7.80852586e-02
      1.58528145e-02 7.66188577e-02 2.76110381e-01 2.76110381e-01
      1.42636761e-01 2.06860289e-01 7.51783922e-02 1.55827897e-02
      4.24808171e-03 2.14299448e-02 5.70687354e-02 2.76110381e-01
      2.76110381e-01 2.76110381e-01 2.33756930e-01 7.89917633e-02
      1.24094270e-01 4.29329425e-02 4.29136492e-03 1.01639286e-01
      8.28011036e-02 1.33788526e-01 2.37043932e-01 2.27839783e-01
      5.40465005e-02 2.80974150e-01 2.13863790e-01 1.15778157e-02
      2.73801833e-02 3.93680744e-02 1.60868987e-02 7.13434257e-03
      3.75410123e-03 3.48432697e-02 2.87481457e-01 2.87481457e-01
      1.71389207e-01 7.00794682e-02 1.06893033e-01 1.43342212e-01
      2.87481457e-01 1.76854149e-01 1.82402611e-01 2.87481457e-01
      1.20668754e-01 4.13940987e-03 6.10769726e-02 2.89308038e-02
      1.38072455e-02 8.43925029e-03 2.80565079e-02 2.87481457e-01
      2.87481457e-01 2.87481457e-01 4.38704602e-02 3.53503861e-02
      2.28511039e-02 9.60588362e-03 9.44385082e-02 2.64822751e-01
      2.63619244e-01 2.28329659e-01 5.00338040e-02 1.30236978e-02
      1.85369402e-02 1.83204412e-02 2.43839771e-02 5.14074937e-02
      2.90976673e-01 3.16782296e-01 3.16782296e-01 3.82645577e-02
      7.64784496e-03 2.37917970e-03 2.02764701e-02 8.45298450e-03
      1.33751318e-01 2.84331203e-01 2.15085596e-01 2.78905690e-01
      5.52684441e-02 7.03733973e-03 1.77073944e-02 3.49507493e-04
      6.10591233e-05 2.39829682e-02 9.00603980e-02 3.16782296e-01
      3.16782296e-01 2.45073482e-01 7.58712590e-02 1.28006302e-02
      5.42254634e-02 3.98062468e-02 6.28703982e-02 2.75981545e-01
      3.06779027e-01 2.92552799e-01 1.11132208e-02 5.32171503e-03
      1.82029866e-02 7.79132694e-02 5.83320595e-02 1.40729785e-01
      2.76269048e-01 2.11141765e-01 5.82945086e-02 1.80777013e-02
      1.51736122e-02 3.73871513e-02 2.39934679e-02 1.56342722e-02
      1.29801016e-02 7.43348002e-02 3.06779027e-01 3.06779027e-01
      2.38198444e-01 1.56004101e-01 6.52496144e-02 1.03118502e-01
      1.23278335e-01 3.06779027e-01 3.06779027e-01 2.17441037e-01
      8.24511349e-02 5.92111200e-02 1.27960205e-01 9.20884460e-02
      2.99828947e-02 3.13299596e-02 1.41412497e-01 3.06414366e-01
      2.48853013e-01 1.22087061e-01 1.86735839e-02 8.16092640e-03
      1.92603804e-02 1.56361721e-02 4.16374207e-03 1.30919039e-01
      2.87753522e-01 3.06414366e-01 2.99534142e-01 2.70468183e-02
      4.10042878e-04 1.67530291e-02 6.11778088e-02 1.55610323e-01
      3.06414366e-01 3.06414366e-01 1.62133679e-01 2.72509418e-02
      9.36637260e-03 3.14064585e-02 3.29479985e-02 4.62096371e-02
      1.34333223e-01 3.06414366e-01 3.06414366e-01 2.40374044e-01
      7.99414292e-02 1.19884161e-03 0. 4.08173725e-02</_>
    <_>
      3.84118855e-02 3.86397094e-02 9.26458314e-02 1.11643791e-01
      2.17541561e-01 2.50497669e-01 2.31721044e-01 1.06539950e-01
      6.01899102e-02 4.20992486e-02 3.74134630e-02 1.01169780e-01
      2.26494431e-01 2.43927285e-01 1.27670020e-01 2.63635278e-01
      2.04524368e-01 1.20308340e-01 5.09696528e-02 8.66505429e-02
      1.56711295e-01 1.44717410e-01 1.20198153e-01 2.92843193e-01
      3.04949164e-01 1.53177947e-01 6.15516007e-02 7.99675211e-02
      1.15149468e-01 8.67241398e-02 1.55721650e-01 1.41587779e-01
      1.48214042e-01 2.67525584e-01 2.46170178e-01 1.53217658e-01
      1.06985196e-01 3.40760760e-02 8.65274444e-02 1.91170231e-01
      2.22454056e-01 5.92037141e-02 1.67993307e-01 1.63670614e-01
      1.88188434e-01 2.20985919e-01 7.68591613e-02 7.73960724e-02
      7.50144348e-02 1.40773401e-01 2.92010568e-02 3.30467708e-02
      1.21239491e-01 2.53271282e-01 1.75034896e-01 1.03380762e-01
      7.74205774e-02 1.05201043e-01 1.77160889e-01 5.42586632e-02
      1.58804372e-01 2.26172715e-01 2.62324005e-01 3.95444423e-01
      2.17527553e-01 1.03783891e-01 1.49317821e-02 1.27756298e-01
      2.45042369e-02 5.27250506e-02 1.62584245e-01 3.57679993e-01
      1.79680601e-01 7.03828633e-02 7.47722462e-02 3.98594588e-02
      7.47611001e-02 3.97076905e-02 5.18112145e-02 1.20125949e-01
      1.91704765e-01 1.80278614e-01 4.47343886e-02 1.01928435e-01
      1.38628976e-02 8.34281892e-02 1.02070838e-01 2.75738955e-01
      2.33280912e-01 2.13202387e-01 3.09610337e-01 1.66114077e-01
      8.21807459e-02 5.72068710e-03 5.53527884e-02 3.77495363e-02
      1.06781423e-01 1.64452448e-01 2.76270717e-01 1.97101071e-01
      4.25040536e-02 1.01837188e-01 1.75307952e-02 1.28025934e-01
      1.38630286e-01 3.60073030e-01 3.28925580e-01 2.75255710e-01
      1.42073929e-01 3.80256809e-02 5.32290377e-02 1.47725627e-01
      1.47884026e-01 1.33237451e-01 1.48975432e-01 2.98658490e-01
      1.77288949e-01 1.27773687e-01 1.25736639e-01 2.31147781e-01
      5.76877482e-02 4.10751179e-02 8.87214318e-02 1.16120197e-01
      2.23738432e-01 2.07895905e-01 2.10190684e-01 7.58633241e-02
      6.57151863e-02 9.76281241e-02 6.63610026e-02 4.29711230e-02
      1.29424974e-01 3.59810084e-01 2.26651460e-01 1.26512095e-01
      1.21998750e-01 2.58116156e-01 1.05915427e-01 5.16343154e-02
      1.29404858e-01 1.29536524e-01 2.84064353e-01 2.59350657e-01
      1.51379168e-01 1.26262963e-01 1.99569687e-01 6.92845434e-02
      4.49869633e-02 4.59441356e-02 9.02056098e-02 1.26651376e-01
      1.83520451e-01 3.61456245e-01 1.96910843e-01 1.03887200e-01
      7.82179534e-02 5.09974249e-02 1.29040424e-02 1.03180751e-01
      1.34290472e-01 2.21948534e-01 1.12887621e-01 1.23352319e-01
      2.33594954e-01 2.12106138e-01 9.32140350e-02 1.07079729e-01
      1.11908093e-01 1.09918810e-01 1.65565193e-01 3.15130472e-01
      2.27665097e-01 2.10731104e-01 3.35240334e-01 1.65094435e-01
      3.38513628e-02 1.00436635e-01 9.58165079e-02 1.63128078e-01
      2.79844642e-01 1.25147283e-01 6.46109208e-02 3.21208648e-02
      2.24076677e-02 1.47418538e-02 1.11191362e-01 1.53277650e-01
      1.66804656e-01 2.81682968e-01 5.69564849e-02 1.61495320e-02
      7.43374752e-04 2.51297187e-02 6.94967210e-02 1.87382519e-01
      2.53442883e-01 3.00319225e-01 2.63297588e-01 1.46530047e-01
      1.37131035e-01 1.49006903e-01 9.27708298e-02 2.12662295e-02
      1.08816065e-01 1.59817457e-01 1.52656227e-01 3.97792369e-01
      1.39734671e-01 9.33755934e-02 3.26566733e-02 3.30058224e-02
      4.53004017e-02 1.26038074e-01 2.09397316e-01 3.18724096e-01
      1.29213125e-01 1.01796649e-01 5.16046397e-02 7.14690238e-02
      4.96547855e-02 3.85509841e-02 9.86520350e-02 3.15459788e-01
      1.51309371e-01 3.37467253e-01 2.02760249e-01 1.05769984e-01
      4.35801409e-02 2.94433981e-02 3.96227762e-02 5.88052310e-02
      1.03431739e-01 2.54647911e-01 1.43967554e-01 8.55952799e-02
      1.56004690e-02 2.69747097e-02 1.02094635e-01 9.39535722e-02
      1.10706359e-01 4.61676717e-01 2.29685411e-01 3.18101287e-01
      2.90934741e-01 1.15535416e-01 3.86614986e-02 4.99661416e-02
      6.44179881e-02 5.58946319e-02 1.16153032e-01 1.53030738e-01
      3.06815594e-01 1.76670507e-01 9.15043801e-02 7.60554895e-02
      5.01669347e-02 2.45418493e-02 2.72599105e-02 3.40748169e-02
      2.70065516e-01 2.19367683e-01 2.44713187e-01 2.36785784e-01
      2.15589538e-01 1.01957276e-01 2.02900395e-02 2.16376409e-02
      7.57226869e-02 2.16987446e-01 2.93887556e-01 2.60543168e-01
      1.25518024e-01 5.74364811e-02 5.47580346e-02 1.10924253e-02
      9.29769594e-03 1.66485552e-02 1.57126114e-01 2.51427740e-01
      2.86151350e-01 2.51940072e-01 1.95547715e-01 1.34855226e-01
      6.94249384e-03 2.61704624e-02 5.32506406e-02 1.79846287e-01
      1.33617178e-01 1.98033601e-01 2.30781049e-01 1.64413735e-01
      7.99777806e-02 1.66778192e-02 3.25506665e-02 1.90545887e-01
      2.16581181e-01 1.45216495e-01 1.70182571e-01 2.92646617e-01
      1.55005679e-01 4.12588716e-02 2.30684243e-02 4.29659486e-02
      1.95865408e-01 2.38168478e-01 1.63310528e-01 2.22831383e-01
      2.22102389e-01 1.70979470e-01 1.55543834e-01 3.27787995e-02
      5.94887771e-02 1.65742189e-01 2.15982005e-01 1.28386021e-01
      1.48422644e-01 1.48175478e-01 8.18885714e-02 1.71409324e-01
      1.01549700e-01 1.09436102e-01 2.06173897e-01 2.96535939e-01</_>
    <_>
      2.18789577e-01 8.69364515e-02 8.27943757e-02 2.46639967e-01
      1.40416458e-01 3.33867334e-02 3.63843665e-02 2.68859677e-02
      7.79258460e-02 8.10075402e-02 7.90191889e-02 3.37943763e-01
      2.66415864e-01 8.94587934e-02 3.79452519e-02 2.83904281e-02
      1.39325205e-02 2.02145372e-02 7.66149089e-02 1.64374467e-02
      8.24230313e-02 3.37943763e-01 3.37943763e-01 1.93606570e-01
      4.68797386e-02 2.70367060e-02 3.41681093e-02 2.67056078e-02
      5.22037931e-02 3.37943763e-01 3.37943763e-01 3.17644119e-01
      1.32291973e-01 4.59853783e-02 1.95719451e-02 6.81346841e-03
      4.49606851e-02 7.01755807e-02 3.46065015e-01 1.33677423e-01
      8.28419030e-02 4.64228094e-02 2.59523895e-02 1.73913799e-02
      1.62862949e-02 5.44756576e-02 7.85424635e-02 9.20895338e-02
      1.93614304e-01 4.07491177e-01 1.24991402e-01 1.97551455e-02
      3.01644374e-02 3.26707512e-02 2.14104727e-02 4.27769721e-02
      2.64453143e-01 2.31327742e-01 2.74587244e-01 1.23531893e-01
      3.65290754e-02 1.53693650e-02 7.28728157e-03 8.65147728e-03
      2.11495236e-02 1.10526696e-01 4.07491177e-01 4.07491177e-01
      1.97618723e-01 5.29276114e-03 1.16395415e-03 3.64316232e-03
      6.22278228e-02 4.63885106e-02 4.46345843e-02 1.28043041e-01
      3.26588869e-01 6.14911541e-02 2.80034356e-02 4.12337929e-02
      7.71529600e-02 8.69027078e-02 3.01658548e-02 2.68810857e-02
      6.78241253e-02 1.00741491e-01 1.35542959e-01 3.26588869e-01
      1.71143025e-01 1.37117535e-01 3.52191664e-02 2.30164584e-02
      7.59610608e-02 3.26588869e-01 3.26588869e-01 1.08458117e-01
      2.05118209e-02 2.50891745e-02 3.82865742e-02 1.39062509e-01
      3.27810831e-02 5.52306063e-02 3.22886854e-01 3.26588869e-01
      2.13275582e-01 3.26588869e-01 1.19258501e-01 1.43181637e-01
      2.33255979e-02 1.90541917e-03 6.30604289e-03 9.30834860e-02
      2.23477274e-01 2.88969666e-01 2.02603549e-01 1.06206559e-01
      5.81278875e-02 7.31810629e-02 1.33249044e-01 8.43311623e-02
      1.15757637e-01 1.80091530e-01 1.95977792e-01 1.13858953e-01
      9.12751779e-02 1.30387291e-01 1.30792886e-01 4.80963141e-02
      3.79858576e-02 2.96302531e-02 7.35795274e-02 2.85890490e-01
      2.38102645e-01 2.80715436e-01 2.50183702e-01 2.64882594e-01
      2.20275491e-01 7.64308274e-02 2.70359162e-02 4.40622158e-02
      1.36151895e-01 1.61965683e-01 2.88969666e-01 2.88969666e-01
      5.85554577e-02 1.39140099e-01 1.71958536e-01 9.28286761e-02
      1.03879459e-01 4.58753556e-02 2.18361579e-02 2.93122437e-02
      6.72341809e-02 7.89658725e-03 7.20743984e-02 3.38260561e-01
      3.38260561e-01 2.26157919e-01 1.10180844e-02 1.62722921e-04 0.
      7.92975072e-04 2.22083762e-01 2.88042486e-01 2.29607001e-01
      3.36737633e-02 1.89365931e-02 1.89861301e-02 3.51591967e-02
      1.62570059e-01 3.38260561e-01 7.02790096e-02 2.55668014e-01
      3.38260561e-01 3.38260561e-01 5.17901331e-02 4.82553267e-04 0.
      6.45399140e-03 2.66189538e-02 8.89700279e-03 2.17812974e-02
      3.02269697e-01 3.02269697e-01 2.94048309e-01 2.56584436e-02
      1.93110944e-04 1.42928353e-03 3.80458962e-03 5.64404316e-02
      2.54689865e-02 1.15250766e-01 2.87441701e-01 3.02269697e-01
      2.26725295e-01 1.53138608e-01 8.61451123e-03 3.63510363e-02
      1.35914907e-02 7.73586854e-02 3.02269697e-01 3.02269697e-01
      1.00972995e-01 9.45634395e-03 7.84326228e-04 3.04752204e-04
      2.13828241e-03 3.76640931e-02 2.46441159e-02 1.81472957e-01
      3.02269697e-01 3.02269697e-01 2.02840701e-01 2.98908111e-02
      5.90186275e-04 1.64692253e-02 7.84331262e-02 4.20824625e-02
      6.13789819e-02 7.26779997e-02 1.30565479e-01 3.04785788e-01
      1.62894398e-01 8.13448727e-02 1.04954004e-01 1.54310986e-01
      4.44248319e-02 3.31978351e-02 4.85207774e-02 6.48695230e-02
      1.74394503e-01 2.67118156e-01 3.11830312e-01 3.11830312e-01
      2.76213568e-02 2.46329904e-02 1.83299426e-02 3.18461508e-02
      6.59914017e-02 3.11830312e-01 3.11830312e-01 1.59615114e-01
      2.34780852e-02 4.36871983e-02 1.10284518e-02 8.03300831e-03
      3.09423953e-02 5.13432063e-02 2.39552736e-01 3.11830312e-01
      3.11830312e-01 1.04796506e-01 1.83360606e-01 1.14384472e-01
      6.58526570e-02 2.70197373e-02 1.87078118e-02 4.77545820e-02
      1.52220204e-01 2.45512158e-01 2.84957618e-01 1.53982297e-01
      2.57759273e-01 2.84957618e-01 2.84957618e-01 9.04528722e-02
      1.49219315e-02 5.06019816e-02 5.05691320e-02 1.11458160e-01
      7.10818768e-02 3.41970362e-02 2.30764579e-02 2.38476526e-02
      2.16361117e-02 9.17837396e-02 2.84957618e-01 2.84957618e-01
      1.59662768e-01 1.45469740e-01 2.02755198e-01 2.84957618e-01
      1.46779746e-01 1.20805450e-01 5.35927340e-02 1.69453830e-01
      2.44156733e-01 1.57118738e-01 5.02104387e-02 1.19919710e-01
      3.35467339e-01 2.59514898e-01 1.11642316e-01 2.14329809e-02
      3.53877656e-02 1.53028071e-02 2.66309883e-02 5.15261702e-02
      4.37174030e-02 3.35467339e-01 2.77495384e-01 2.97265112e-01
      6.64468333e-02 1.91815887e-02 5.01131173e-03 4.79172617e-02
      8.18812698e-02 1.68225557e-01 3.35467339e-01 2.01409325e-01
      1.20252490e-01 3.90774012e-02 7.29152039e-02 7.68306628e-02
      5.32987565e-02 7.30289295e-02 1.35155380e-01 3.35467339e-01
      3.35467339e-01 1.52102888e-01 3.20414789e-02 1.39995543e-02
      4.61942842e-03 6.28463104e-02</_>
    <_>
      2.91742571e-02 6.80766627e-02 3.19401234e-01 1.85183704e-01
      3.41674775e-01 1.36801600e-01 2.24002115e-02 1.97200570e-03
      2.09547114e-02 1.32944016e-02 3.59034576e-02 4.24861908e-02
      7.21900016e-02 3.41674775e-01 3.41674775e-01 8.56787339e-02
      1.87336542e-02 1.09942127e-02 2.05266830e-02 1.05597945e-02
      6.21115565e-02 1.09515093e-01 3.41674775e-01 2.83558220e-01
      1.32941529e-02 3.59974522e-03 1.42965233e-02 5.32646663e-03
      6.70628715e-03 1.65286548e-02 1.36597499e-01 3.41674775e-01
      3.39636624e-01 5.95664866e-02 5.91194211e-03 1.65622565e-03
      3.14164162e-02 1.96739510e-02 1.03842448e-02 6.73212931e-02
      3.52166981e-01 3.52166981e-01 1.33639306e-01 4.19116355e-02
      3.19049656e-02 5.36281578e-02 1.41927361e-01 9.92634147e-02
      2.01254919e-01 2.82815158e-01 1.05874889e-01 8.72340426e-02
      4.22692485e-02 6.52343631e-02 1.18989768e-02 7.83465244e-03
      1.16165522e-02 1.65787220e-01 3.52166981e-01 3.52166981e-01
      1.13548726e-01 2.78502088e-02 1.95752475e-02 2.43019313e-02
      9.83884782e-02 6.40471205e-02 2.67951906e-01 3.52166981e-01
      1.73840731e-01 9.35968608e-02 5.00417650e-02 4.44036461e-02
      3.50940824e-02 1.12429686e-01 7.75209442e-02 1.97774753e-01
      2.78309464e-01 6.95683509e-02 1.06822200e-01 9.33501050e-02
      6.71363920e-02 4.70914170e-02 2.56840773e-02 1.44459298e-02
      6.43722862e-02 1.91078663e-01 3.41302097e-01 3.41302097e-01
      1.47340342e-01 8.14839378e-02 2.29366273e-02 8.04811791e-02
      5.94434366e-02 2.54369825e-01 3.41302097e-01 1.30033165e-01
      6.06079623e-02 3.95074859e-02 3.44042629e-02 5.02409041e-02
      2.24522278e-02 2.82515734e-02 1.23364493e-01 3.41302097e-01
      3.41302097e-01 2.33192250e-01 3.61537784e-02 5.33092283e-02
      1.01880403e-02 6.84824248e-04 2.24988745e-03 5.59412502e-02
      3.52216631e-01 3.52216631e-01 2.74821464e-02 6.57870248e-03
      1.25466827e-02 9.74286289e-04 8.35414219e-04 3.25950538e-03
      4.74268198e-02 3.52216631e-01 3.52216631e-01 5.63565455e-02
      9.92280897e-03 4.50541265e-03 1.48944957e-02 2.29219440e-03
      2.50836415e-03 4.60261889e-02 3.52216631e-01 3.52216631e-01
      1.53008744e-01 2.86731906e-02 2.27363966e-02 2.01298278e-02
      2.05126349e-02 2.20832881e-02 4.81233485e-02 2.72296250e-01
      3.52216631e-01 1.03085361e-01 4.81301546e-02 2.26597264e-02
      7.92302284e-03 5.58987586e-03 6.76993420e-03 6.93507716e-02
      3.21982950e-01 3.21982950e-01 1.07003868e-01 3.91704589e-02
      3.70817110e-02 4.33875136e-02 5.16904853e-02 6.75741658e-02
      3.21982950e-01 3.21982950e-01 1.84073746e-01 1.04943655e-01
      7.00602755e-02 9.53632221e-02 3.70747149e-02 4.08012941e-02
      5.39719686e-02 6.50795177e-02 3.06955427e-01 3.21982950e-01
      1.20727755e-01 6.82686567e-02 5.96734397e-02 1.32338032e-01
      1.45082548e-01 1.97934672e-01 3.21982950e-01 2.06540257e-01
      9.84154493e-02 1.01577088e-01 6.20770417e-02 1.26310140e-01
      2.74054985e-02 3.73752415e-02 6.01703413e-02 3.46490860e-01
      3.46490860e-01 9.14234892e-02 3.27958241e-02 2.79708747e-02
      4.55070771e-02 1.67335942e-02 4.87283105e-03 5.10172658e-02
      3.03572506e-01 3.46490860e-01 1.33578122e-01 1.79760507e-03 0.
      1.58188231e-02 8.34412202e-02 1.04401231e-01 1.77015752e-01
      3.46490860e-01 2.59837896e-01 3.60396542e-02 2.51949672e-02
      2.14356650e-02 6.15488105e-02 1.89217646e-02 1.10359741e-02
      1.31327480e-01 3.46490860e-01 3.46490860e-01 6.34492263e-02
      1.70494153e-04 1.32405572e-03 1.84283685e-02 2.04809122e-02
      3.60690220e-03 8.51650536e-03 7.85401091e-02 3.40086192e-01
      3.40086192e-01 2.02239722e-01 4.77275550e-02 2.48644240e-02
      9.06940997e-02 8.25580433e-02 6.41896427e-02 4.26680371e-02
      1.48379698e-01 1.56033054e-01 1.18550248e-01 7.77402818e-02
      5.52199036e-02 2.80567762e-02 3.67270829e-03 7.28367874e-03
      3.38696204e-02 3.40086192e-01 3.40086192e-01 3.40086192e-01
      2.28394672e-01 4.55642305e-02 1.90629616e-01 9.47733968e-02
      3.70523892e-02 1.40002640e-02 7.50237778e-02 1.47550881e-01
      2.17198253e-01 2.80041844e-01 1.45657301e-01 1.27373934e-01
      1.20824054e-01 9.54766497e-02 6.10188693e-02 1.39150441e-01
      7.65174255e-02 1.43696234e-01 9.26261917e-02 7.57233053e-02
      6.76617399e-02 6.30808398e-02 1.04531907e-01 1.76841825e-01
      1.60672471e-01 1.16431959e-01 2.06204399e-01 1.12036236e-01
      1.28693670e-01 2.78867006e-01 1.36192650e-01 4.65551913e-02
      1.39219547e-02 4.15293872e-02 7.14202896e-02 3.10752898e-01
      3.10752898e-01 2.29448467e-01 3.10752898e-01 1.48535252e-01
      4.17331532e-02 6.81021363e-02 6.97307363e-02 6.31781444e-02
      2.88495868e-01 2.57576197e-01 3.10752898e-01 3.51888128e-02
      4.60547283e-02 1.26491100e-01 2.80277610e-01 1.37095675e-01
      8.61863419e-02 8.12027752e-02 5.35104424e-02 8.12902898e-02
      2.19102837e-02 1.83522571e-02 1.98054686e-01 3.30118030e-01
      3.30118030e-01 8.44343379e-02 7.02323392e-03 8.54760688e-03
      2.95780953e-02 3.00411493e-01 1.76906079e-01 1.26982659e-01
      1.40344217e-01 7.48108178e-02 6.11349009e-02 7.46901333e-02
      8.36313218e-02 2.19428405e-01 1.31290644e-01 2.43475258e-01
      3.30118030e-01 3.30118030e-01 2.41837889e-01 7.61044919e-02
      7.62376189e-03 7.65746646e-03 6.39239997e-02</_>
    <_>
      3.74395251e-02 1.14394203e-01 3.17208111e-01 2.09754318e-01
      1.61487848e-01 5.44974627e-03 4.07587417e-04 3.28031857e-03
      1.20227747e-02 3.88044342e-02 2.24831149e-01 3.27014923e-01
      3.27014923e-01 1.84681222e-01 5.48656192e-03 3.02688126e-03
      1.57201348e-03 6.02286169e-03 1.27793057e-02 2.14434974e-02
      1.30070925e-01 3.27014923e-01 3.27014923e-01 1.07971825e-01
      2.53849179e-02 6.10790448e-04 4.69762692e-03 2.43107826e-02
      5.86438738e-02 2.04949170e-01 3.27014923e-01 3.27014923e-01
      6.57393932e-02 4.12700251e-02 9.77771636e-03 3.83377112e-02
      3.69663462e-02 1.11779660e-01 2.36711130e-01 1.49049565e-01
      1.24310888e-01 8.19703415e-02 1.40685886e-02 4.05618027e-02
      4.39355634e-02 2.18566116e-02 2.80900355e-02 3.11498288e-02
      4.55018170e-02 3.83191496e-01 3.83191496e-01 6.89829290e-02
      6.19357638e-02 6.15975745e-02 1.11228637e-02 2.98308525e-02
      9.18336436e-02 2.55424887e-01 3.83191496e-01 1.19540811e-01
      1.95970610e-02 2.48807017e-02 4.96342108e-02 2.24604202e-03
      7.18975952e-03 1.87617075e-02 8.83667618e-02 3.83191496e-01
      3.83191496e-01 1.53734729e-01 3.06571908e-02 4.47719693e-02
      1.16858620e-03 3.41280356e-05 1.00709913e-04 1.00134658e-02
      3.65435183e-01 3.65435183e-01 9.87735391e-02 3.27551067e-02
      2.57908795e-02 5.27990609e-03 0. 1.76175265e-03 2.85614599e-02
      1.36749610e-01 2.41636157e-01 1.75591066e-01 1.61070414e-02
      5.27990609e-03 7.72580737e-04 7.39365118e-04 9.69825429e-04
      4.61588288e-03 3.65435183e-01 3.65435183e-01 2.60620534e-01
      3.82982381e-02 1.91244371e-02 9.85460356e-03 0. 0. 5.21354144e-04
      7.63607770e-02 3.65435183e-01 3.57275128e-01 6.73357323e-02
      9.85460356e-03 2.15014387e-02 1.11103142e-02 6.26991168e-02
      3.17008406e-01 3.39576483e-01 9.37896073e-02 3.77061330e-02
      5.23935910e-03 1.11918570e-02 2.98486762e-02 3.05675436e-02
      7.62681291e-02 3.39576483e-01 3.39576483e-01 1.34055465e-01
      4.36160192e-02 7.54676014e-03 1.49742812e-02 1.00727364e-01
      5.27955629e-02 2.01637059e-01 3.39576483e-01 2.22407535e-01
      3.77735533e-02 4.89737354e-02 4.09812033e-02 5.52125126e-02
      2.38933470e-02 6.20307587e-02 1.80770665e-01 3.39576483e-01
      3.39576483e-01 9.28126574e-02 4.91498075e-02 3.56033556e-02
      2.34940462e-02 1.60567518e-02 1.42814051e-02 2.95765083e-02
      2.05149963e-01 3.48891824e-01 9.99823362e-02 1.35341752e-02
      8.03426653e-03 1.66758876e-02 1.15200207e-02 3.34374676e-03
      1.31961936e-02 1.91531658e-01 3.48891824e-01 3.48891824e-01
      1.15231112e-01 1.43250851e-02 1.74976997e-02 1.23877749e-02
      2.64497623e-02 1.19940557e-01 3.48891824e-01 3.48891824e-01
      5.96771203e-02 1.05741955e-02 6.10235985e-03 9.10840835e-03
      1.37845566e-02 2.86680530e-03 5.83083034e-02 3.48891824e-01
      3.48891824e-01 1.25291526e-01 3.60667035e-02 5.50544541e-03
      6.25087740e-03 6.60636183e-03 1.78947370e-03 6.51115924e-03
      1.35276437e-01 3.32481742e-01 3.32481742e-01 1.57850876e-01
      1.80315543e-02 8.51349905e-03 9.39559471e-03 0. 0. 4.60282676e-02
      3.32481742e-01 3.32481742e-01 1.47878557e-01 2.61995029e-02
      9.39559471e-03 6.91491039e-03 1.00641651e-02 3.24452892e-02
      3.32481742e-01 3.32481742e-01 1.38112500e-01 3.96272130e-02
      3.84769379e-03 3.06578306e-03 7.52029335e-03 1.65806189e-02
      3.74052487e-02 3.07787448e-01 3.32481742e-01 1.87993169e-01
      2.41065007e-02 1.34311884e-03 7.52029335e-03 2.54215151e-01
      2.92628706e-01 2.57596731e-01 1.36295214e-01 5.09603992e-02
      1.27868066e-02 2.44369544e-02 3.05718370e-02 8.94490629e-02
      1.97682604e-01 2.28140965e-01 2.97895014e-01 2.97895014e-01
      1.04128264e-01 2.41282396e-02 4.59052511e-02 3.98211107e-02
      7.84192011e-02 1.48828387e-01 1.68062910e-01 1.21590361e-01
      1.44940719e-01 1.46377116e-01 1.35844618e-01 8.57618228e-02
      2.69642454e-02 6.50234520e-02 2.55895525e-01 2.13331729e-01
      2.97895014e-01 2.94220269e-01 1.11538641e-01 8.47356617e-02
      8.65653008e-02 4.68205772e-02 7.53628537e-02 4.01827693e-02
      5.13825715e-02 1.72248706e-01 3.84655386e-01 1.34539485e-01
      1.00698378e-02 1.72999222e-02 1.04742050e-02 1.83167048e-02
      7.25763664e-03 7.53294909e-04 8.27085003e-02 3.84655386e-01
      2.94384867e-01 6.22350955e-03 7.41335144e-03 4.39914037e-03
      4.25028335e-03 6.77902326e-02 7.31371194e-02 1.94656000e-01
      3.84655386e-01 1.70227721e-01 1.99200381e-02 2.59447843e-02
      1.48525191e-02 2.01239046e-02 3.48172360e-03 1.43991001e-02
      1.76070049e-01 3.84655386e-01 3.84655386e-01 7.74440763e-04
      6.62660785e-03 4.02072910e-03 3.21867689e-03 1.70863548e-03
      1.75176188e-02 1.41749248e-01 4.00545031e-01 2.65266985e-01
      4.65732487e-03 1.77075120e-03 0. 0. 7.11442670e-03 3.60327177e-02
      2.68422395e-01 4.00545031e-01 1.07429571e-01 7.15198601e-03
      2.30302729e-04 0. 7.11442670e-03 3.36727040e-04 5.69111435e-03
      2.07257912e-01 4.00545031e-01 3.41950864e-01 1.88112177e-03
      3.07122420e-04 0. 0. 7.22852116e-03 8.99225194e-03 2.42344156e-01
      3.43740851e-01 3.64362821e-02 2.05652341e-02 1.04156360e-02
      5.35200699e-04 7.06398906e-03</_>
    <_>
      4.23652679e-02 8.33616331e-02 2.95848995e-01 1.47623777e-01
      7.86429420e-02 1.36363745e-01 8.56358856e-02 6.09251596e-02
      6.82140663e-02 3.87904570e-02 1.72042742e-01 2.76531935e-01
      1.15538239e-01 1.01031132e-01 1.38401583e-01 1.16260856e-01
      1.00753352e-01 4.13800627e-02 1.38540894e-01 1.30202789e-02
      7.81478509e-02 5.74271344e-02 6.90141916e-02 2.95848995e-01
      2.95848995e-01 2.33291388e-01 2.50260681e-01 5.16855679e-02
      1.38816768e-02 4.52419594e-02 5.07158972e-02 2.30719760e-01
      2.95848995e-01 2.65278012e-01 2.95848995e-01 1.76230848e-01
      3.98250856e-02 7.56882727e-02 9.05557945e-02 1.18240364e-01
      1.28785163e-01 9.75019336e-02 8.50664079e-02 4.84306812e-02
      4.35535349e-02 3.15230004e-02 1.25801051e-02 2.80407444e-02
      3.27197254e-01 3.59255016e-01 3.59255016e-01 1.40404955e-01
      3.00535597e-02 6.47111461e-02 9.26508754e-03 1.40889175e-02
      3.70775312e-02 1.56565264e-01 2.57527471e-01 3.07992786e-01
      1.11686006e-01 1.05613083e-01 4.22112942e-02 7.05622695e-03
      1.55007113e-02 7.16893598e-02 3.59255016e-01 3.59255016e-01
      2.45169759e-01 2.89181992e-02 8.05832632e-03 9.28810984e-03
      1.49639873e-02 5.67698572e-03 1.06258839e-02 1.64453611e-01
      3.43513280e-01 3.43513280e-01 1.28829956e-01 2.17308383e-02
      3.66215371e-02 1.31013384e-02 2.93655763e-03 2.26398720e-03
      1.47822481e-02 2.22785383e-01 3.43513280e-01 1.67379707e-01
      9.87100974e-03 1.85638163e-02 4.90020169e-03 5.15082246e-03
      3.46105471e-02 3.43513280e-01 3.43513280e-01 1.88263178e-01
      2.70770248e-02 5.36340894e-03 5.27370535e-03 1.18316207e-02
      6.46766566e-04 3.42957512e-03 4.07785736e-02 3.43513280e-01
      3.43513280e-01 8.25985000e-02 2.90887966e-03 1.05442982e-02
      1.63343519e-01 3.01328897e-02 5.95845617e-02 2.51836739e-02
      1.02341026e-01 2.46508509e-01 1.61161780e-01 1.10752791e-01
      1.08427100e-01 8.24316442e-02 1.78596824e-02 1.75487176e-02
      1.14467889e-01 3.71881217e-01 3.71881217e-01 9.59188715e-02
      8.24457854e-02 8.68213102e-02 7.11124241e-02 1.73693076e-02
      7.34884441e-02 4.52923328e-02 3.07040572e-01 2.90552020e-01
      8.14358890e-02 7.73584321e-02 3.70227061e-02 3.73149663e-02
      1.23435389e-02 3.29191312e-02 1.87911138e-01 3.71881217e-01
      3.71881217e-01 4.16408814e-02 2.38379054e-02 1.72973350e-02
      5.64708188e-03 8.93763546e-03 3.12299896e-02 2.37019524e-01
      3.32107544e-01 3.08258533e-01 4.54040505e-02 3.11958175e-02
      2.70476416e-02 1.02861486e-02 9.54927038e-03 9.89795253e-02
      3.32107544e-01 3.08280170e-01 6.32824153e-02 1.07541885e-02
      8.94279592e-03 1.16792517e-02 2.09907698e-03 8.40813201e-03
      3.94507349e-02 3.32107544e-01 3.32107544e-01 2.62810767e-01
      1.76481549e-02 5.82391163e-03 5.34640811e-03 1.41317835e-02
      1.88844074e-02 1.51618093e-01 3.32107544e-01 2.76053458e-01
      9.26433876e-02 4.45065415e-03 1.41298464e-02 1.24621429e-02
      1.07526425e-02 4.32817498e-03 7.72104636e-02 3.25626343e-01
      3.25626343e-01 9.80353653e-02 1.07180765e-02 9.50029586e-03
      5.86584071e-03 1.06718494e-02 8.10429337e-04 4.29782644e-02
      2.87939250e-01 3.25626343e-01 2.28794426e-01 2.22775433e-02
      4.08575637e-03 9.52211861e-03 1.85582060e-02 1.93926208e-02
      1.37578353e-01 3.25626343e-01 2.83889413e-01 1.70706302e-01
      1.52380951e-02 2.07526945e-02 1.64123364e-02 2.00536195e-02
      9.09847207e-03 2.26033673e-01 3.25626343e-01 3.25626343e-01
      1.52383417e-01 3.34630422e-02 8.96469411e-03 2.17388142e-02
      1.12120463e-02 8.25234409e-03 2.28964519e-02 4.67529148e-02
      2.59992033e-01 2.08044261e-01 9.68460366e-02 7.93979019e-02
      1.59817934e-02 3.24498932e-03 5.53085376e-03 1.66287467e-01
      3.35111618e-01 3.35111618e-01 3.00530940e-01 5.83700053e-02
      9.35480446e-02 1.32141970e-02 2.04879884e-02 4.80213715e-03
